\data\
ngram 1=68
ngram 2=1026
ngram 3=7193
ngram 4=30104
ngram 5=86124

\1-grams:
-3.08565	<unk>	0
0	<s>	-0.93587184
-1.8087245	</s>	0
-2.8910508	ÿþ	-0.33592844
-1.4555984	o	-1.0769625
-1.5206608	k	-0.7636249
-1.5807885	u	-0.9345749
-1.368311	n	-0.80075806
-1.6142927	w	-0.6556872
-1.4804662	e	-0.977347
-1.4804662	g	-0.8105535
-1.4097655	i	-1.0475421
-1.4097655	a	-1.0329459
-1.4804662	p	-0.7776561
-1.4207783	m	-0.74705166
-1.5068451	y	-0.69575137
-1.4804662	d	-0.7915744
-1.5807885	l	-0.6581984
-1.368311	b	-0.7985891
-1.7338225	-	-0.59101564
-1.4207783	s	-0.7851037
-1.4097655	t	-0.7479707
-1.5206608	r	-0.71206576
-1.5496849	j	-0.87569886
-1.8368666	z	-0.50151676
-1.5972176	,	-0.7165731
-1.4934554	f	-0.8046938
-1.9342304		-0.51172495
-1.6699584	.	-0.7068664
-1.5649583	c	-0.7016184
-1.7114745	h	-0.64882356
-2.013866	v	-0.51422226
-1.9342304	(	-0.49250874
-1.9342304	)	-0.5717647
-1.8669595		-0.4850425
-1.9342304		-0.5066576
-2.1699383	ö	-0.36251685
-2.3176317	y	-0.5293318
-2.415916	í	-0.30630636
-2.8910508	i	-0.33592844
-2.013866	ó	-0.40397352
-2.8910508		-0.33592844
-2.7594564	ë	-0.2945714
-2.543155		-0.33592844
-2.8910508	t	-0.33592844
-2.415916	ä	-0.30024388
-2.8910508	r	-0.33592844
-2.543155	q	-0.33592844
-2.8910508	&	-0.33592844
-2.3176317	ç	-0.31475782
-2.0599265	[	-0.3636068
-2.2375367	]	-0.29290915
-2.415916	x	-0.31475782
-2.7594564	w	-0.33592844
-2.8910508	v	-0.33592844
-2.2375367	à	-0.3458673
-2.8910508	\	-0.33592844
-2.0599265	ò	-0.41059422
-2.1699383	ô	-0.38687828
-2.3176317	á	-0.3123193
-2.7594564	x	-0.33592844
-2.3176317	ì	-0.31296507
-2.8910508	/	-0.33592844
-2.8910508	`	-0.33592844
-2.8910508	y	-0.33592844
-2.7594564	£	-0.2752818
-2.7594564	'	-0.33592844
-2.7594564	+	-0.2752818

\2-grams:
-2.1577282	o </s>	0
-2.1631305	k </s>	0
-2.2849646	u </s>	0
-2.1279485	n </s>	0
-2.140495	e </s>	0
-2.1630468	i </s>	0
-2.0899403	a </s>	0
-2.288745	m </s>	0
-2.1752012	b </s>	0
-2.312523	s </s>	0
-2.2684224	t </s>	0
-1.7797898	z </s>	0
-2.2237692	, </s>	0
-2.0038853	 </s>	0
-1.9322532	. </s>	0
-1.9040282	) </s>	0
-2.632727	<s> ÿþ	-0.26524138
-1.1490401	<s> o	-0.47396618
-0.2558889	ÿþ o	-0.26524138
-1.4079906	o o	-0.7121313
-0.9723179	k o	-0.5629455
-1.2666315	u o	-0.70751953
-1.2239339	n o	-0.5366006
-0.9222514	w o	-0.4518845
-1.4593327	e o	-0.83029604
-0.8299867	g o	-0.55949247
-1.3842967	i o	-0.81108403
-1.4548876	a o	-0.88353145
-0.86731994	p o	-0.54201317
-1.155121	m o	-0.49823564
-1.1223959	y o	-0.31599888
-1.1308527	d o	-0.52539265
-1.0100543	l o	-0.44165722
-0.9048211	b o	-0.7948258
-1.2577584	- o	-0.40026528
-0.93646306	s o	-0.7252925
-0.86964655	t o	-0.6854594
-0.89783114	r o	-0.4564625
-0.7823256	j o	-0.547722
-1.0574673	z o	-0.31360838
-1.2266134	, o	-0.6529359
-1.1544853	f o	-0.52016884
-1.0364742	 o	-0.49251443
-1.274188	. o	-0.66429424
-1.0663586	h o	-0.29330638
-1.5133145	v o	-0.26524138
-1.1727865	( o	-0.33574903
-1.2346464	) o	-0.377121
-1.0267653	 o	-0.42542976
-1.180089	 o	-0.28424963
-0.91990834	[ o	-0.279419
-1.1169794	] o	-0.29407513
-1.2330672	ì o	-0.26524138
-0.88234735	<s> k	-0.8600818
-1.2880423	o k	-0.86511135
-1.5954298	k k	-0.3510521
-1.289607	u k	-0.6248362
-1.6406196	n k	-0.48903877
-1.9247482	w k	-0.26524138
-1.4460757	e k	-0.8128569
-1.3726858	i k	-0.7993411
-1.4249148	a k	-0.79665846
-1.5634676	p k	-0.38921052
-1.680965	m k	-0.29077518
-1.4191333	y k	-0.2765462
-1.3900793	d k	-0.40545195
-1.8551263	l k	-0.26524138
-1.6863679	b k	-0.2867521
-1.4852908	- k	-0.3347571
-1.5413917	s k	-0.37382165
-1.5632123	t k	-0.28309223
-1.6174816	r k	-0.28815317
-1.4422956	, k	-0.5538794
-1.4775343	 k	-0.2765462
-1.4141777	. k	-0.5808091
-1.7032366	c k	-0.26524138
-1.3033377	( k	-0.2867521
-1.5170877	) k	-0.28309223
-1.5355564	 k	-0.29863894
-1.5535743	 k	-0.2765462
-1.0539261	ó k	-0.2867521
-0.9814018	ç k	-0.26524138
-1.3112241	ò k	-0.28424963
-0.3138487	£ k	-0.29407513
-1.5933046	o u	-0.3481866
-0.9264183	k u	-0.59712887
-1.5103325	u u	-0.37027115
-1.3774614	n u	-0.4406578
-1.1032996	w u	-0.39561355
-1.7100898	e u	-0.4299705
-1.3529233	g u	-0.3290306
-1.6310998	i u	-0.3535536
-1.5473858	a u	-0.532534
-0.9627679	p u	-0.52749765
-1.0658145	m u	-0.5656935
-1.4281822	y u	-0.27328613
-0.7696259	d u	-0.68850493
-0.8701589	l u	-0.44877785
-0.97810507	b u	-0.72558355
-1.8731607	- u	-0.26524138
-1.3039906	s u	-0.4555111
-1.0966883	t u	-0.5246572
-1.0526218	r u	-0.47960392
-0.76041716	j u	-0.5449213
-1.5423466	z u	-0.26524138
-1.7888964	, u	-0.28115666
-0.80189085	f u	-0.64104354
-1.6185642	. u	-0.3842082
-1.3064613	h u	-0.27398986
-1.3684561	v u	-0.26524138
-1.291333	 u	-0.28671092
-0.9991535	<s> n	-0.84914947
-1.3209019	o n	-0.824562
-1.6363147	k n	-0.318358
-1.2256854	u n	-0.66928035
-1.6041381	n n	-0.43238392
-1.4691725	w n	-0.2765462
-1.3308947	e n	-0.77803415
-1.8703855	g n	-0.28424963
-1.2401243	i n	-0.93202466
-1.2833356	a n	-0.93828756
-1.8831255	p n	-0.26524138
-1.5606502	m n	-0.37436548
-1.3909625	y n	-0.27706003
-1.8854885	d n	-0.26524138
-1.5359288	l n	-0.285812
-1.6458236	b n	-0.32971275
-1.4441636	- n	-0.32302338
-1.4039865	s n	-0.42543405
-1.4627172	t n	-0.3763595
-1.2551425	r n	-0.40826216
-1.6886826	j n	-0.26524138
-1.4139773	, n	-0.56733966
-1.9191229	f n	-0.26524138
-1.2498827	 n	-0.32814476
-1.4663396	. n	-0.5257616
-1.7235506	h n	-0.26524138
-1.6511674	( n	-0.26524138
-1.3700935	) n	-0.28424963
-1.5866704	 n	-0.28424963
-0.9785238	 n	-0.52291507
-0.93913037	í n	-0.26524138
-0.25308162	i n	-0.26524138
-1.0300192	ó n	-0.29863894
-0.6962245	ë n	-0.26524138
-1.0070286	ä n	-0.26524138
-0.75145674	ç n	-0.26524138
-1.2371074	] n	-0.29407513
-0.9565844	x n	-0.26524138
-1.0384064	à n	-0.29407513
-0.9890931	ò n	-0.38921052
-1.2811134	ô n	-0.279419
-1.0930843	á n	-0.26524138
-0.86037886	ì n	-0.28424963
-0.25308162	y n	-0.26524138
-1.8851109	<s> w	-0.42664704
-1.436735	o w	-0.64989555
-1.477486	k w	-0.44076842
-1.7090405	u w	-0.57201684
-1.0264938	n w	-0.7866415
-1.8390428	w w	-0.28424963
-1.5909407	e w	-0.57140845
-1.3558848	g w	-0.49359384
-1.4673125	i w	-0.7620018
-1.5067946	a w	-0.8258677
-2.0721302	m w	-0.26524138
-1.8718294	y w	-0.28424963
-2.092851	b w	-0.26524138
-1.5056711	- w	-0.46839178
-1.9768511	s w	-0.29407513
-1.780264	t w	-0.279419
-2.064509	r w	-0.26524138
-2.0723634	j w	-0.26524138
-1.6525838	, w	-0.4555112
-1.8992513	 w	-0.26524138
-1.6933548	. w	-0.49087209
-1.4164975	 w	-0.42664704
-1.1910526	ö w	-0.26524138
-1.3492275	ô w	-0.26524138
-1.0754726	ì w	-0.29407513
-2.1171694	<s> e	-0.29407513
-1.5332681	o e	-0.5161079
-1.1516178	k e	-0.5598633
-1.4422891	u e	-0.47045374
-1.2261829	n e	-0.5081272
-0.82885796	w e	-0.5631281
-1.5038736	e e	-0.59829265
-0.9006094	g e	-0.48663777
-1.4203147	i e	-0.73920953
-1.5161889	a e	-0.6620181
-1.10544	p e	-0.55977756
-1.059685	m e	-0.61805725
-0.65658706	y e	-0.73036563
-0.9239965	d e	-0.56985414
-1.0483189	l e	-0.36374053
-0.7836981	b e	-0.90378386
-1.161636	- e	-0.4843428
-0.9217431	s e	-0.730026
-0.90326685	t e	-0.7452158
-0.9521343	r e	-0.42410442
-0.83744943	j e	-0.5827266
-0.9636482	z e	-0.34156787
-1.5666491	, e	-0.39990547
-0.96111953	f e	-0.41259795
-1.7184321	 e	-0.26524138
-1.5401198	. e	-0.4685886
-0.618767	h e	-0.41854805
-1.1771915	v e	-0.2765462
-1.650976	) e	-0.29230052
-1.5215206	 e	-0.2765462
-1.1840985	 e	-0.49087209
-0.7104172	 e	-0.26524138
-1.1093484	[ e	-0.28424963
-1.4251983	] e	-0.26524138
-1.5194262	<s> g	-0.28668526
-1.4280988	o g	-0.8009419
-1.9032415	k g	-0.28815317
-1.469868	u g	-0.5023996
-1.3047975	n g	-0.59436584
-1.9017719	w g	-0.26524138
-1.4619087	e g	-0.7862979
-1.9219053	g g	-0.26524138
-1.4203147	i g	-0.8164346
-1.475938	a g	-0.8707062
-1.283397	m g	-0.5551317
-1.6881993	y g	-0.279419
-1.9414971	d g	-0.26524138
-1.9402652	l g	-0.26524138
-1.67667	b g	-0.285812
-1.4754483	- g	-0.43288016
-1.9213165	s g	-0.279419
-2.0693433	t g	-0.26524138
-2.0162356	j g	-0.26524138
-1.3994335	, g	-0.55242157
-1.7184321	 g	-0.26524138
-1.4475548	. g	-0.42944407
-1.7769833	h g	-0.26524138
-1.4583867	( g	-0.26524138
-1.3108188	) g	-0.5353386
-1.3690417	 g	-0.29230052
-1.5396525	 g	-0.3017083
-1.1661131	ö g	-0.26524138
-1.5320976	ó g	-0.26524138
-1.2760253	] g	-0.29407513
-0.97554755	x g	-0.26524138
-1.3012382	ò g	-0.3017083
-1.1552291	ô g	-0.3017083
-0.54581857	' g	-0.26524138
-1.3658953	<s> i	-0.4851265
-1.4224353	o i	-0.6218707
-1.0073366	k i	-0.5665443
-1.3846681	u i	-0.5349717
-1.1746596	n i	-0.54197174
-1.0881433	w i	-0.31214094
-1.416604	e i	-0.82297057
-1.0113361	g i	-0.41170436
-1.3806355	i i	-0.79041433
-1.3681293	a i	-0.8512634
-0.7430764	p i	-0.6066639
-0.8379612	m i	-0.80350554
-1.0689651	y i	-0.4144731
-0.81662285	d i	-0.7301673
-0.9731381	l i	-0.45926765
-0.8873717	b i	-0.72095734
-1.3085116	- i	-0.285812
-0.8602927	s i	-0.7453705
-1.1109774	t i	-0.50198203
-0.8061386	r i	-0.5370421
-0.63161534	j i	-0.6039685
-0.95634913	z i	-0.3144095
-1.2448162	, i	-0.5897843
-0.5398539	f i	-0.73457646
-1.1899483	 i	-0.33696452
-1.3269408	. i	-0.50338936
-1.4974003	c i	-0.26524138
-0.68320113	h i	-0.3722472
-0.53683907	v i	-0.4597618
-0.9992352	( i	-0.5933305
-1.0662522	) i	-0.58986187
-1.2416598	 i	-0.35003898
-1.1721791	 i	-0.32519165
-1.1361517	í i	-0.26524138
-0.254483	t i	-0.26524138
-0.254483	r i	-0.26524138
-0.70444286	q i	-0.26524138
-1.0954311	[ i	-0.3017083
-1.2522588	] i	-0.29407513
-0.254483	\ i	-0.26524138
-1.2910677	<s> a	-0.71361226
-1.4412768	o a	-0.69531906
-1.0275167	k a	-0.64242524
-1.2630095	u a	-0.69830054
-1.0309743	n a	-0.7453172
-0.68226063	w a	-0.7309241
-1.4542261	e a	-0.7643048
-1.0113361	g a	-0.43846017
-1.4143637	i a	-0.82364666
-1.4326802	a a	-0.7596532
-0.9075474	p a	-0.62379616
-0.8792082	m a	-0.7471457
-0.7539301	y a	-0.5039211
-0.81662285	d a	-0.6729192
-0.83730733	l a	-0.63005507
-0.96986425	b a	-0.7020229
-1.0052807	- a	-0.53531784
-0.9852163	s a	-0.68719536
-0.8996505	t a	-0.6574537
-0.94774234	r a	-0.4638409
-0.96924245	j a	-0.39450505
-0.65902257	z a	-0.38689396
-1.2448162	, a	-0.5888365
-0.8242379	f a	-0.57197756
-0.9885634	 a	-0.45953766
-1.2160765	. a	-0.5935276
-1.666589	c a	-0.26524138
-0.98318803	h a	-0.2798158
-0.6646708	v a	-0.504941
-1.0741558	( a	-0.5353386
-1.1134984	) a	-0.47325996
-0.9667475	 a	-0.3550603
-1.099824	 a	-0.3941874
-0.14512937	y a	-0.52355707
-0.70444286	 a	-0.26524138
-0.70444286	q a	-0.26524138
-0.78620017	[ a	-0.38921052
-1.2522588	] a	-0.29407513
-0.70444286	/ a	-0.26524138
-0.30970517	+ a	-0.29407513
-1.8524748	<s> p	-0.42664704
-1.3922577	o p	-0.83620083
-1.180015	k p	-0.6616189
-1.3467312	u p	-0.6750586
-1.7751758	n p	-0.32235676
-1.6558691	w p	-0.27464154
-1.4619087	e p	-0.80889654
-1.4028907	i p	-0.8641324
-1.4217947	a p	-0.8417704
-1.5557812	p p	-0.285812
-1.8996927	m p	-0.28883186
-1.9369991	y p	-0.26524138
-1.9414971	d p	-0.26524138
-1.5691069	l p	-0.27464154
-1.7806914	b p	-0.26524138
-1.4754483	- p	-0.27464154
-1.6034992	s p	-0.34433943
-1.8761936	t p	-0.26524138
-1.8786774	r p	-0.29407513
-1.4750427	, p	-0.54649776
-1.3592656	 p	-0.28424963
-1.4913758	. p	-0.61621225
-1.5218458	v p	-0.26524138
-1.1766253	) p	-0.4306032
-1.6437515	 p	-0.29407513
-1.7729031	 p	-0.26524138
-0.8236699	ó p	-0.2963075
-1.2760253	] p	-0.29407513
-0.76318365	x p	-0.26524138
-0.54581857	w p	-0.26524138
-1.2491235	à p	-0.26524138
-1.128624	ò p	-0.38921052
-0.84157306	ô p	-0.2867521
-1.2401681	ì p	-0.26524138
-0.98431003	<s> m	-0.71361226
-1.296143	o m	-0.83489466
-1.6523957	k m	-0.37286112
-1.3008838	u m	-0.68794465
-1.5133284	n m	-0.5126982
-1.6351957	w m	-0.28424963
-1.3830589	e m	-0.7824946
-1.8953819	g m	-0.26524138
-1.3815479	i m	-0.81446517
-1.3399856	a m	-0.8087548
-1.5432655	p m	-0.28883186
-1.4509906	m m	-0.4621769
-1.3119644	y m	-0.42664704
-1.9125905	d m	-0.26524138
-1.4454643	l m	-0.3995815
-1.760842	b m	-0.28815317
-1.3107259	- m	-0.5031539
-1.412877	s m	-0.48936668
-1.3635573	t m	-0.42893302
-1.4829712	r m	-0.35481045
-1.7026644	j m	-0.28424963
-1.3263521	, m	-0.6442064
-1.9475797	f m	-0.26524138
-1.4473114	 m	-0.2963075
-1.3616297	. m	-0.6087396
-1.5000534	c m	-0.26524138
-1.7494457	h m	-0.26524138
-1.5008237	v m	-0.26524138
-0.83126175	( m	-0.55391145
-1.2288424	) m	-0.38885847
-1.3531332	 m	-0.42664704
-1.3708336	 m	-0.359838
-0.7729293	ö m	-0.28424963
-1.3622799	ó m	-0.29407513
-0.8149079	ä m	-0.29407513
-1.0977199	[ m	-0.29407513
-1.2325073	à m	-0.26524138
-0.9971868	ò m	-0.36593336
-0.5424004	' m	-0.26524138
-1.8595183	<s> y	-0.42664704
-1.4692501	o y	-0.6938194
-1.675959	k y	-0.28309223
-1.4189322	u y	-0.6410616
-1.0215393	n y	-0.731223
-1.9169536	w y	-0.26524138
-1.5294898	e y	-0.6289922
-1.7979084	g y	-0.28815317
-1.4223166	i y	-0.8040689
-1.4238722	a y	-0.7396057
-1.9532516	p y	-0.26524138
-1.5950457	m y	-0.38296056
-1.5346118	y y	-0.42664704
-1.8264041	d y	-0.3017083
-1.9567834	l y	-0.26524138
-1.7888923	b y	-0.2765462
-1.7263575	- y	-0.279419
-1.7965083	s y	-0.29863894
-1.7494649	t y	-0.2867521
-1.5008168	r y	-0.3979763
-1.519697	z y	-0.29407513
-1.5726851	, y	-0.4575734
-1.8484249	f y	-0.26524138
-1.7322767	 y	-0.29407513
-1.4522396	. y	-0.7316332
-1.2969449	h y	-0.38921052
-1.7313238	( y	-0.26524138
-1.882373	) y	-0.26524138
-1.7693888	 y	-0.26524138
-1.3930657	 y	-0.42664704
-0.77575576	í y	-0.3017083
-1.2335539	ó y	-0.3017083
-1.4648576	<s> d	-0.34433943
-1.4098086	o d	-0.8886276
-1.770576	k d	-0.28883186
-1.4163574	u d	-0.68758535
-1.2769811	n d	-0.6422013
-1.784507	w d	-0.27464154
-1.4619087	e d	-0.7053886
-2.0434465	g d	-0.26524138
-1.3861389	i d	-0.864388
-1.4051497	a d	-0.91118455
-1.8996927	m d	-0.28815317
-1.9369991	y d	-0.26524138
-1.8173269	d d	-0.28424963
-1.8355883	l d	-0.26524138
-1.7806914	b d	-0.26524138
-1.3919644	- d	-0.3326347
-1.6034992	s d	-0.285812
-1.8761936	t d	-0.279419
-1.9862381	r d	-0.26524138
-1.4355948	, d	-0.6137311
-1.9780328	f d	-0.26524138
-1.3592656	 d	-0.28309223
-1.4913758	. d	-0.61257744
-1.7168945	( d	-0.26524138
-1.650976	) d	-0.2867521
-1.7533937	 d	-0.26524138
-1.3865967	 d	-0.33696452
-1.1536647	í d	-0.26524138
-1.3819456	ó d	-0.26524138
-1.2491235	à d	-0.26524138
-1.446705	ò d	-0.26524138
-1.315629	ô d	-0.26524138
-1.1194175	á d	-0.26524138
-1.2401681	ì d	-0.26524138
-1.7618818	<s> l	-0.29863894
-1.434801	o l	-0.71047026
-1.4731274	k l	-0.39482534
-1.6159579	u l	-0.4814858
-2.0388427	n l	-0.28883186
-1.9574058	w l	-0.26524138
-1.3961831	e l	-0.6964279
-2.0973082	g l	-0.26524138
-1.4852629	i l	-0.7497332
-1.42911	a l	-0.66752374
-1.5739324	p l	-0.28424963
-1.9439856	m l	-0.29230052
-2.1112537	d l	-0.26524138
-1.7530234	l l	-0.26524138
-1.6116633	b l	-0.28424963
-1.498771	- l	-0.29863894
-1.9638819	s l	-0.28815317
-1.9179444	t l	-0.3017083
-2.0592487	j l	-0.26524138
-1.4923744	, l	-0.5070678
-1.6185642	. l	-0.40069544
-1.7205728	c l	-0.26524138
-1.1914263	( l	-0.36593336
-1.8139769	) l	-0.26524138
-1.688701	 l	-0.29407513
-1.305504	] l	-0.29407513
-1.4801604	ò l	-0.26524138
-1.0552739	<s> b	-0.63507754
-1.3065469	o b	-0.94438654
-1.4377458	k b	-0.44076842
-1.295992	u b	-0.8283314
-1.3843224	n b	-0.5853207
-1.7309979	w b	-0.2765462
-1.3615346	e b	-0.91940475
-0.6985004	g b	-0.7753631
-1.3459598	i b	-0.8587382
-1.34986	a b	-0.8455081
-1.4465231	p b	-0.359838
-1.6361039	m b	-0.4467569
-1.5009052	y b	-0.2765462
-1.6326896	d b	-0.42664704
-1.2794319	l b	-0.3326347
-1.500696	b b	-0.38952196
-1.1915852	- b	-0.46803972
-1.3589494	s b	-0.5261043
-1.2686135	t b	-0.5232068
-1.5753359	r b	-0.3468238
-1.961352	j b	-0.26524138
-1.1654284	z b	-0.42664704
-1.3178189	, b	-0.71846646
-1.6618476	f b	-0.28424963
-1.557867	 b	-0.279419
-1.3521752	. b	-0.6736098
-1.6512439	c b	-0.26524138
-1.7235506	h b	-0.26524138
-1.4209199	( b	-0.29230052
-1.2882069	) b	-0.33574903
-1.4777632	 b	-0.28424963
-1.2495773	 b	-0.359838
-1.1399853	ö b	-0.26524138
-1.3434663	ó b	-0.26524138
-0.539009	 b	-0.26524138
-1.0070286	ä b	-0.26524138
-0.9565844	ç b	-0.26524138
-1.2391218	[ b	-0.29407513
-1.2371074	] b	-0.29407513
-0.9890931	ò b	-0.3326347
-0.82967794	ô b	-0.29484612
-0.9024405	á b	-0.26524138
-0.539009	x b	-0.26524138
-0.25308162	` b	-0.26524138
-1.6045686	o -	-0.48352814
-1.8404208	k -	-0.28148273
-1.5232726	u -	-0.5073701
-1.8395858	n -	-0.3426362
-1.5747583	e -	-0.48522615
-1.5884721	i -	-0.5615173
-1.6346364	a -	-0.4899967
-2.0008419	m -	-0.2867521
-1.9116997	y -	-0.29407513
-2.0828753	l -	-0.26524138
-2.1459813	b -	-0.26524138
-1.8088712	- -	-0.26524138
-2.1503046	s -	-0.26524138
-2.1048245	t -	-0.28424963
-1.9835662	r -	-0.26524138
-1.8308591	, -	-0.32971275
-1.9661362	 -	-0.26524138
-1.871934	h -	-0.26524138
-1.8775603	) -	-0.29407513
-1.2920278	<s> s	-0.4555112
-1.3396051	o s	-0.7603772
-1.7495856	k s	-0.3188956
-1.3206211	u s	-0.7534197
-1.7556669	n s	-0.4405245
-1.7569289	w s	-0.28148273
-1.4000674	e s	-0.6997754
-2.0086923	g s	-0.26524138
-1.4332916	i s	-0.83792245
-1.4001914	a s	-0.77514887
-1.5432655	p s	-0.28815317
-1.6528144	m s	-0.34744993
-1.4015822	y s	-0.29733008
-1.9125905	d s	-0.26524138
-1.6940289	l s	-0.29230052
-1.8907576	b s	-0.26524138
-1.3787833	- s	-0.43500903
-1.7671076	s s	-0.33404753
-1.7207061	t s	-0.28815317
-1.5910655	r s	-0.28668526
-1.4898496	z s	-0.28424963
-1.3893545	, s	-0.6025586
-1.2616215	 s	-0.34156787
-1.397252	. s	-0.6282894
-1.5008237	v s	-0.26524138
-1.5668157	( s	-0.28424963
-1.0675759	) s	-0.46360207
-1.0844843	 s	-0.2931869
-1.5173975	 s	-0.28424963
-1.3622799	ó s	-0.28424963
-0.7054329	 s	-0.26524138
-1.0179389	ä s	-0.26524138
-1.0977199	[ s	-0.28424963
-1.3974059	] s	-0.26524138
-0.25483406	v s	-0.26524138
-1.2325073	à s	-0.26524138
-0.9971868	ò s	-0.28883186
-0.9626375	ô s	-0.355322
-1.2226288	ì s	-0.26524138
-1.2579918	<s> t	-0.48769593
-1.3703686	o t	-0.8261193
-1.7455066	k t	-0.28883186
-1.4087235	u t	-0.7155747
-1.6780878	n t	-0.4298687
-1.8591729	w t	-0.26524138
-1.4743345	e t	-0.67915213
-2.0020633	g t	-0.26524138
-1.4143637	i t	-0.7767361
-1.3681293	a t	-0.80708176
-1.7924012	p t	-0.26524138
-1.5718154	m t	-0.3680451
-1.8948497	y t	-0.26524138
-2.0093246	d t	-0.26524138
-1.5488975	l t	-0.29289123
-1.9829767	b t	-0.28424963
-1.4564083	- t	-0.2954944
-1.4622166	s t	-0.36362654
-1.716749	t t	-0.28883186
-1.5878737	r t	-0.28424963
-1.6202368	z t	-0.26524138
-1.3873665	, t	-0.6350085
-1.8125019	f t	-0.28424963
-1.577117	 t	-0.28424963
-1.3951819	. t	-0.53831786
-1.666589	c t	-0.26524138
-1.7441417	h t	-0.26524138
-1.4967387	v t	-0.26524138
-1.6762775	( t	-0.26524138
-1.3808682	) t	-0.43288016
-1.1550092	 t	-0.3509399
-1.1721791	 t	-0.3347571
-0.9133327	ó t	-0.52355707
-0.254483	& t	-0.26524138
-1.1058317	] t	-0.29407513
-0.96407056	x t	-0.26524138
-0.87082577	à t	-0.3017083
-1.28193	ò t	-0.29230052
-1.2945923	ô t	-0.26524138
-1.2192044	ì t	-0.26524138
-1.3306605	o r	-0.75680107
-1.2825766	k r	-0.65204173
-1.4742455	u r	-0.5118809
-2.1051793	n r	-0.26524138
-1.8019357	w r	-0.28424963
-1.3140613	e r	-0.6962267
-1.2249702	g r	-0.52291507
-1.4057784	i r	-0.7297448
-1.3469075	a r	-0.7353624
-1.3343197	p r	-0.4306032
-1.9181252	m r	-0.26524138
-1.2203233	d r	-0.5353386
-1.4142452	b r	-0.38896847
-1.8418918	- r	-0.26524138
-1.8008757	s r	-0.2867521
-1.4922292	t r	-0.41493025
-1.8977258	r r	-0.26524138
-1.5241333	z r	-0.28424963
-1.7693437	, r	-0.28883186
-1.5272557	f r	-0.2931869
-2.0391707	. r	-0.26524138
-1.6089802	( r	-0.26524138
-0.57626474	ö r	-0.42664704
-0.7770052	í r	-0.3017083
-1.5494977	ó r	-0.26524138
-0.82612777	ä r	-0.29407513
-0.7134355	q r	-0.26524138
-0.6827572	à r	-0.42664704
-0.73561966	á r	-0.28424963
-0.5478824	x r	-0.26524138
-0.8802345	ì r	-0.3017083
-0.9890683	<s> j	-0.6738911
-1.515874	o j	-0.9002199
-1.7926327	k j	-0.2867521
-1.539347	u j	-0.5998218
-1.6465145	n j	-0.42543405
-1.5840409	e j	-0.8586452
-1.4437048	i j	-0.82268167
-1.4818474	a j	-0.97071505
-1.9727072	p j	-0.29407513
-1.5335845	m j	-0.36328185
-2.0939295	d j	-0.26524138
-1.5866975	l j	-0.279419
-1.6929556	b j	-0.28309223
-1.405558	- j	-0.34156787
-1.8097445	s j	-0.28424963
-1.9056005	t j	-0.3017083
-1.6243445	r j	-0.279419
-1.3755999	, j	-0.73426515
-1.3744259	 j	-0.44476694
-1.3149464	. j	-0.71838117
-1.7118182	c j	-0.26524138
-1.0922991	( j	-0.2931869
-1.1852305	) j	-0.5515858
-1.1016489	 j	-0.4926021
-0.5492638	 j	-0.26524138
-1.1372038	] j	-0.3017083
-1.5013981	ô j	-0.26524138
-1.133208	á j	-0.26524138
-0.71545935	/ j	-0.26524138
-1.7052242	o z	-0.48753643
-2.3086057	k z	-0.26524138
-2.5391743	u z	-0.26524138
-2.3904746	n z	-0.26524138
-1.7780026	e z	-0.37315273
-1.6510202	i z	-0.50253934
-1.6705475	a z	-0.37365502
-2.303735	m z	-0.26524138
-2.1304	l z	-0.26524138
-2.282685	t z	-0.26524138
-1.9564772	j z	-0.29407513
-1.4239172	z z	-0.26524138
-1.7645267	, z	-0.47779953
-2.2164662	. z	-0.29407513
-1.7785761	 z	-0.29407513
-1.568112	o ,	-0.5536961
-1.8064252	k ,	-0.2816192
-1.4816412	u ,	-0.46735668
-1.5954454	n ,	-0.39306748
-1.9659688	w ,	-0.26524138
-1.5386413	e ,	-0.7217665
-2.1055784	g ,	-0.26524138
-1.5299355	i ,	-0.6901699
-1.5266161	a ,	-0.6916837
-1.9930754	p ,	-0.26524138
-1.613322	m ,	-0.3413941
-2.0004303	y ,	-0.26524138
-1.6890397	d ,	-0.2765462
-1.7583214	l ,	-0.27550623
-2.1914535	b ,	-0.26524138
-1.7625049	- ,	-0.26524138
-1.553638	s ,	-0.3244253
-1.9242506	t ,	-0.27085704
-2.0550823	r ,	-0.26524138
-1.7060786	z ,	-0.26524138
-1.7154138	, ,	-0.28275755
-2.0316887	f ,	-0.26524138
-1.6521276	 ,	-0.28424963
-1.9923497	. ,	-0.2828632
-1.5361612	) ,	-0.2801045
-1.560007	 ,	-0.29407513
-1.7451929	<s> f	-0.52355707
-1.4682068	o f	-0.8945577
-1.909119	k f	-0.279419
-1.4436537	u f	-0.6137311
-1.779185	n f	-0.38896847
-1.9092964	w f	-0.26524138
-1.4435916	e f	-0.762023
-1.4783597	i f	-0.7719674
-1.4582558	a f	-0.88232595
-2.0572238	p f	-0.26524138
-1.6737545	m f	-0.2931869
-1.9444395	y f	-0.26524138
-1.8218417	d f	-0.3017083
-1.8420038	l f	-0.28424963
-2.0308204	b f	-0.29407513
-1.3946493	- f	-0.49087209
-1.9271477	s f	-0.28309223
-1.7452381	t f	-0.2867521
-1.7629656	r f	-0.3017083
-1.5211256	, f	-0.50227994
-1.8437686	f f	-0.26524138
-1.7252992	 f	-0.29407513
-1.4939606	. f	-0.47670084
-1.6948214	c f	-0.26524138
-1.7240492	( f	-0.26524138
-1.5096867	) f	-0.28815317
-1.526149	 f	-0.3017083
-1.7807884	 f	-0.26524138
-1.5378206	ó f	-0.26524138
-0.48245418	ë f	-0.29407513
-0.9774902	x f	-0.26524138
-1.4513295	ò f	-0.29407513
-1.4798988	ô f	-0.26524138
-2.2990446	o 	-0.26524138
-2.324664	u 	-0.2765462
-2.165491	n 	-0.28148273
-1.8799307	e 	-0.33841673
-2.2417545	g 	-0.26524138
-1.9513199	i 	-0.3426362
-1.9695371	a 	-0.30695876
-2.2075238	m 	-0.26524138
-1.8712281	, 	-0.28115666
-1.331156	 	-0.2837863
-1.6737365	. 	-0.3842082
-1.8217828	 	-0.2714855
-2.2020621	<s> .	-0.29407513
-1.5480418	o .	-0.5026789
-2.1036706	k .	-0.28875688
-1.5514401	u .	-0.41938698
-1.8259169	n .	-0.36034814
-1.5212926	e .	-0.7167453
-1.5840819	i .	-0.5896143
-1.688123	a .	-0.58097374
-1.8271023	m .	-0.2799216
-2.235445	b .	-0.26524138
-1.915706	- .	-0.26524138
-1.8422943	s .	-0.279419
-1.9504325	t .	-0.27464154
-1.9604639	r .	-0.28424963
-1.7326373	, .	-0.28538534
-1.3965806	 .	-0.3438406
-1.5761756	. .	-0.3415679
-1.7432641	c .	-0.26524138
-1.8512104	h .	-0.26524138
-1.5520471	) .	-0.27706003
-0.9994535	ç .	-0.26524138
-0.7226181	/ .	-0.26524138
-1.4946969	o c	-1.125617
-2.1489174	k c	-0.26524138
-1.7530268	u c	-0.64448303
-1.7998058	n c	-0.52355707
-1.9490082	w c	-0.26524138
-1.6425083	e c	-0.97071505
-2.0891924	g c	-0.26524138
-1.601616	i c	-0.78369457
-1.5239857	a c	-1.125617
-2.0995045	p c	-0.26524138
-1.6920104	m c	-0.36593336
-2.1025052	d c	-0.26524138
-1.7477894	l c	-0.28424963
-2.171023	b c	-0.26524138
-1.4083285	- c	-0.6027383
-1.7066869	s c	-0.38921052
-2.1261296	t c	-0.26524138
-2.0368214	r c	-0.26524138
-1.7070516	, c	-0.6027383
-1.5577736	. c	-0.72767705
-1.7161734	c c	-0.26524138
-1.812513	h c	-0.26524138
-1.548494	v c	-0.26524138
-1.6259105	( c	-0.29407513
-1.8066456	) c	-0.29407513
-1.8225172	 c	-0.26524138
-0.98733604	ç c	-0.26524138
-1.624962	ò c	-0.26524138
-2.353299	<s> h	-0.26524138
-1.9173383	o h	-0.4926021
-2.1043622	u h	-0.42664704
-2.0933948	n h	-0.29407513
-1.4146619	w h	-0.52355707
-1.7648304	e h	-0.4555115
-1.85028	g h	-0.28424963
-1.9250004	i h	-0.36739677
-1.888446	a h	-0.3225168
-2.177092	p h	-0.26524138
-2.2334783	m h	-0.26524138
-2.1366625	b h	-0.26524138
-2.0553634	- h	-0.26524138
-1.7359179	s h	-0.28883186
-1.5947585	t h	-0.5353386
-2.1069949	j h	-0.26524138
-1.9294327	, h	-0.38921052
-1.7991903	. h	-0.3017083
-0.19884662	c h	-0.76275957
-1.5169456	( h	-0.3017083
-1.6796253	o v	-0.71886
-2.4931512	u v	-0.28424963
-2.4817052	n v	-0.26524138
-1.8365666	e v	-0.56515276
-1.8501089	i v	-0.53100216
-1.74612	a v	-0.5479274
-2.3142228	, v	-0.26524138
-2.2909226	. v	-0.28424963
-1.7721187	ò v	-0.26524138
-1.1900111	á v	-0.26524138
-2.2990446	o (	-0.27856025
-2.4635468	u (	-0.26524138
-1.9952455	n (	-0.28883186
-1.8304874	e (	-0.45942378
-2.0163321	i (	-0.40841642
-2.3179035	a (	-0.28796408
-2.0575397	m (	-0.26524138
-2.1698012	l (	-0.26524138
-2.2250853	s (	-0.26524138
-2.2819326	, (	-0.27464154
-1.9022769	 (	-0.29407513
-1.6737365	. (	-0.32551986
-2.4523191	<s> )	-0.26524138
-2.4662569	o )	-0.27609098
-2.2078364	k )	-0.28693798
-2.4635468	u )	-0.26524138
-2.3081014	n )	-0.26924512
-2.165874	e )	-0.29607502
-2.304055	i )	-0.28309223
-2.1096885	a )	-0.28222483
-1.5534117	- )	-0.30683967
-1.8712281	, )	-0.2778207
-1.3794017	. )	-0.41389915
-1.4469199	 )	-0.2816192
-2.2851522	o 	-0.28983697
-2.1849084	k 	-0.27831185
-2.1436324	u 	-0.28424963
-2.1463141	n 	-0.28148273
-1.8732182	e 	-0.41243687
-2.4455345	i 	-0.27550623
-2.0997021	a 	-0.28966656
-2.319261	m 	-0.26524138
-2.1431406	l 	-0.26524138
-2.195834	b 	-0.28424963
-2.2974322	t 	-0.26524138
-2.3640876	, 	-0.26524138
-1.8819525	 	-0.26524138
-2.1034365	. 	-0.28498414
-2.7353961	o 	-0.26524138
-2.3555975	k 	-0.26524138
-1.8656933	u 	-0.3288448
-2.4428847	n 	-0.26524138
-1.8304874	e 	-0.35412455
-2.304055	i 	-0.28073114
-2.2014356	a 	-0.28843257
-1.7028753	, 	-0.3048166
-1.4303293	 	-0.27328613
-1.8432342	. 	-0.28115666
-2.1031787	) 	-0.26524138
-1.9917519	 	-0.26524138
-2.702673	u ö	-0.26524138
-2.804467	e ö	-0.26524138
-2.8405197	i ö	-0.26524138
-2.8466315	a ö	-0.26524138
-2.3676612	, ö	-0.279419
-2.1420107	 ö	-0.26524138
-2.3426123	. ö	-0.26524138
-2.755378	u y	-0.26524138
-2.8654068	e y	-0.26524138
-2.9055831	a y	-0.26524138
-2.1797404	 y	-0.26524138
-2.3808408	. y	-0.29407513
-2.6246812	n í	-0.26524138
-2.7219214	e í	-0.26524138
-2.9383593	a í	-0.26524138
-2.0570345	, í	-0.26524138
-2.7072735	, i	-0.26524138
-2.775773	o ó	-0.26524138
-2.4931512	u ó	-0.29407513
-2.4817052	n ó	-0.26524138
-1.8867488	e ó	-0.28367054
-2.4900765	i ó	-0.2765462
-2.3345344	a ó	-0.27328613
-2.3142228	, ó	-0.27328613
-2.2909226	. ó	-0.26524138
-2.0184221	 ó	-0.26524138
-1.5909139	] ó	-0.26524138
-2.7072735	, 	-0.26524138
-2.983132	e ë	-0.26524138
-2.6883564	, ë	-0.26524138
-2.9568913	o 	-0.26524138
-2.9363153	e 	-0.26524138
-2.9738126	a 	-0.26524138
-2.8215814	a t	-0.29407513
-2.9275174	i ä	-0.26524138
-2.9383593	a ä	-0.26524138
-2.6104121	, ä	-0.26524138
-2.4012957	. ä	-0.26524138
-2.7072735	, r	-0.26524138
-2.2319667	w q	-0.26524138
-2.9738126	a q	-0.26524138
-2.5420377	b q	-0.26524138
-3.0036263	e &	-0.26524138
-2.8654068	e ç	-0.26524138
-2.1709843	p ç	-0.29407513
-2.4916143	m ç	-0.26524138
-2.3031535	b ç	-0.28424963
-1.984363	h ç	-0.26524138
-2.408298	k [	-0.26524138
-2.6556776	u [	-0.26524138
-2.502499	n [	-0.26524138
-2.3073742	e [	-0.28424963
-2.790906	i [	-0.26524138
-2.5144014	a [	-0.26524138
-2.3131485	p [	-0.26524138
-2.470015	, [	-0.26524138
-1.9851335	. [	-0.2778207
-2.7282264	u ]	-0.26524138
-2.5186133	e ]	-0.26524138
-2.8676276	i ]	-0.26524138
-2.7154858	a ]	-0.26524138
-2.1972725	. ]	-0.27831185
-1.602978	[ ]	-0.26524138
-2.925918	o x	-0.26524138
-2.8994155	e x	-0.26524138
-2.7437143	i x	-0.26524138
-2.9383593	a x	-0.26524138
-3.0186157	a w	-0.26524138
-2.6883564	, w	-0.26524138
-0.5688033	w v	-0.26524138
-2.7282264	u à	-0.26524138
-2.5716188	n à	-0.26524138
-2.5186133	e à	-0.2765462
-2.8751078	a à	-0.26524138
-2.0388784	, à	-0.26524138
-2.361306	. à	-0.28424963
-2.256943	f \	-0.26524138
-2.650385	o ò	-0.26524138
-2.5087461	u ò	-0.26524138
-2.502499	n ò	-0.26524138
-2.1859314	e ò	-0.30814943
-2.5019646	i ò	-0.285812
-2.5144014	a ò	-0.2765462
-2.3797674	t ò	-0.26524138
-1.8897481	, ò	-0.28424963
-2.3074784	. ò	-0.27464154
-2.6833036	o ô	-0.26524138
-2.702673	u ô	-0.26524138
-2.3821373	n ô	-0.29407513
-1.9554045	e ô	-0.2911491
-2.2158318	i ô	-0.36593336
-2.6955707	a ô	-0.26524138
-2.0300775	, ô	-0.28148273
-2.8970075	o á	-0.26524138
-2.5335884	e á	-0.28424963
-2.7363582	a á	-0.26524138
-2.4916143	m á	-0.26524138
-2.2386897	, á	-0.26524138
-2.9955592	o x	-0.26524138
-2.983132	e x	-0.26524138
-2.5335884	e ì	-0.28424963
-2.723179	i ì	-0.26524138
-2.7363582	a ì	-0.26524138
-2.407329	, ì	-0.26524138
-2.3808408	. ì	-0.26524138
-3.0036263	e /	-0.26524138
-3.0209827	i `	-0.26524138
-3.0036263	e y	-0.26524138
-2.854123	u £	-0.26524138
-2.6602967	. £	-0.26524138
-2.5728657	m '	-0.26524138
-2.5338058	t '	-0.26524138
-2.854123	u +	-0.26524138
-2.6602967	. +	-0.26524138

\3-grams:
-2.252417	n o </s>	0
-2.1642065	w o </s>	0
-1.8691458	y o </s>	0
-2.5708838	b o </s>	0
-2.4511638	s o </s>	0
-2.2201045	u k </s>	0
-2.4359596	a k </s>	0
-2.3523817	k u </s>	0
-2.2416034	p u </s>	0
-2.1573017	b u </s>	0
-2.3199675	o n </s>	0
-2.3760521	u n </s>	0
-2.4357998	i n </s>	0
-2.5109093	i e </s>	0
-2.1023324	m e </s>	0
-2.4678724	y e </s>	0
-2.3592525	b e </s>	0
-2.1389394	s e </s>	0
-2.3462322	k i </s>	0
-1.9619825	n i </s>	0
-1.9933245	g i </s>	0
-1.7975316	m i </s>	0
-2.0808368	r i </s>	0
-2.3588116	k a </s>	0
-1.8684343	n a </s>	0
-2.3530703	i a </s>	0
-1.7913249	m a </s>	0
-2.3888032	b a </s>	0
-2.1717236	r a </s>	0
-2.409412	e m </s>	0
-2.3778398	i b </s>	0
-2.3796446	a b </s>	0
-2.494659	o s </s>	0
-1.8127103	s t </s>	0
-1.4695821	e z </s>	0
-2.3498168	e , </s>	0
-2.460121	a , </s>	0
-1.5384471	a  </s>	0
-2.001887	u . </s>	0
-2.2339883	e . </s>	0
-1.8785386	i . </s>	0
-2.0511444	a . </s>	0
-1.0826272	i ) </s>	0
-1.4362373	- ) </s>	0
-0.12018087	<s> ÿþ o	-0.2194534
-1.9782541	o o o	-0.2194534
-1.379419	k o o	-0.32024708
-1.7810918	u o o	-0.3079394
-1.5098963	n o o	-0.30993038
-1.4217186	w o o	-0.30245835
-1.9067398	e o o	-0.2194534
-1.5752558	g o o	-0.24497722
-1.6942625	i o o	-0.27209535
-1.9462037	a o o	-0.2194534
-1.539182	p o o	-0.2194534
-1.7586378	m o o	-0.2194534
-1.5370471	y o o	-0.2194534
-1.6134354	d o o	-0.2194534
-1.5803214	l o o	-0.2473737
-1.4499373	b o o	-0.60480034
-1.6374583	- o o	-0.2194534
-1.4659998	s o o	-0.4085736
-1.5254416	t o o	-0.27209535
-1.6112837	r o o	-0.26286653
-1.7447615	j o o	-0.2194534
-1.2664626	z o o	-0.2194534
-1.914352	, o o	-0.2194534
-1.5836635	f o o	-0.2194534
-1.4262928	h o o	-0.2194534
-0.87419283	o k o	-0.77605593
-0.69060546	k k o	-0.28572476
-0.7585905	u k o	-0.46274886
-0.86145866	n k o	-0.38319796
-0.87275404	w k o	-0.2194534
-0.85604733	e k o	-0.65903527
-0.88229907	i k o	-0.6724736
-0.87875473	a k o	-0.762231
-0.78546995	m k o	-0.27209535
-0.8303499	y k o	-0.2194534
-0.49493223	d k o	-0.2194534
-0.67732847	l k o	-0.2194534
-0.83421516	b k o	-0.2194534
-0.8577658	- k o	-0.27209535
-0.7349789	s k o	-0.41188067
-0.8803706	t k o	-0.2194534
-0.8145139	r k o	-0.25832465
-0.9011275	, k o	-0.45949182
-0.8303499	 k o	-0.2194534
-0.73802555	. k o	-0.4882358
-0.83421516	( k o	-0.2194534
-0.8803706	) k o	-0.2194534
-0.8303499	 k o	-0.2194534
-0.6824785	ò k o	-0.2194534
-1.2668821	o u o	-0.25832465
-1.3514177	k u o	-0.2889452
-1.042376	u u o	-0.31497067
-1.2497772	n u o	-0.24497722
-1.1926181	w u o	-0.25382975
-1.1259044	e u o	-0.30654672
-1.326653	g u o	-0.2194534
-1.18237	i u o	-0.26417297
-0.9866742	a u o	-0.4568581
-1.4086916	p u o	-0.28281257
-1.4810474	m u o	-0.26779145
-0.77109486	y u o	-0.30102018
-1.5213579	d u o	-0.2194534
-1.3692553	l u o	-0.24123786
-1.2219139	b u o	-0.57497096
-1.1980202	t u o	-0.2502671
-1.2385463	r u o	-0.33208075
-1.3088368	j u o	-0.3202907
-1.149138	z u o	-0.2194534
-0.9329264	, u o	-0.29411256
-1.6779392	f u o	-0.2194534
-0.93180734	. u o	-0.29076362
-1.327153	h u o	-0.2194534
-1.1997948	 u o	-0.2194534
-1.1292996	o n o	-0.5510982
-0.68313444	k n o	-0.2714404
-1.0745361	u n o	-0.40934128
-1.0472331	n n o	-0.29411256
-0.8861451	w n o	-0.2194534
-1.143588	e n o	-0.4648323
-0.44492397	g n o	-0.2502671
-1.2463745	i n o	-0.65143853
-1.1341578	a n o	-0.48099458
-1.0431759	m n o	-0.2194534
-0.73336536	d n o	-0.2194534
-1.2302382	- n o	-0.2194534
-0.7577183	s n o	-0.37721732
-1.1761866	t n o	-0.2194534
-1.1395608	r n o	-0.2194534
-1.3351942	, n o	-0.33095762
-1.5207413	. n o	-0.2194534
-0.9363653	ò n o	-0.2194534
-0.8802501	o w o	-0.5440008
-1.0447961	k w o	-0.2194534
-1.2296762	u w o	-0.2194534
-0.39944285	n w o	-0.76950073
-0.85907257	w w o	-0.2194534
-0.9056872	e w o	-0.28572476
-0.36511105	g w o	-0.43405265
-0.54958737	i w o	-0.5029557
-0.621221	a w o	-0.51774883
-0.9323602	- w o	-0.2194534
-0.5102978	t w o	-0.30102018
-0.9296534	, w o	-0.27209535
-0.53244364	ô w o	-0.2194534
-1.2404743	o e o	-0.27155587
-1.3611845	k e o	-0.44486016
-1.3958772	u e o	-0.28358305
-1.6307329	n e o	-0.28696522
-1.7065785	w e o	-0.2194534
-1.4934094	e e o	-0.3181363
-1.7336223	g e o	-0.2194534
-1.4071755	i e o	-0.43341586
-1.3607033	a e o	-0.31214452
-1.5715413	m e o	-0.5557982
-1.269469	y e o	-0.5962684
-1.5199517	d e o	-0.26144674
-1.6199574	l e o	-0.2194534
-1.3721675	b e o	-0.7710939
-1.4211584	- e o	-0.37268308
-1.2860821	s e o	-0.7136466
-1.5288861	r e o	-0.26417297
-1.6714166	f e o	-0.2194534
-1.6388097	h e o	-0.2194534
-0.9594736	 e o	-0.2194534
-0.60663414	 e o	-0.2194534
-0.87428224	<s> g o	-0.2194534
-0.6574831	o g o	-0.58940053
-0.5639094	k g o	-0.2194534
-0.90408003	u g o	-0.31214452
-0.8553168	n g o	-0.4214363
-0.8055254	w g o	-0.2194534
-0.74561757	e g o	-0.5061096
-0.678889	i g o	-0.64152044
-0.7022042	a g o	-0.6170387
-1.1934735	m g o	-0.2194534
-0.4898637	y g o	-0.30102018
-0.6332766	d g o	-0.2194534
-0.26973313	l g o	-0.2194534
-0.69988894	b g o	-0.2194534
-0.921233	- g o	-0.2194534
-0.51027185	t g o	-0.2194534
-0.99331987	, g o	-0.28572476
-0.9713958	. g o	-0.2502671
-0.26973313	ö g o	-0.2194534
-0.26973313	ó g o	-0.2194534
-0.26973313	' g o	-0.2194534
-1.4807851	o i o	-0.26459137
-1.429182	k i o	-0.3935151
-1.5497953	u i o	-0.27209535
-1.2962378	n i o	-0.46608993
-1.3278805	w i o	-0.2194534
-1.4465908	e i o	-0.37473518
-1.4931657	g i o	-0.2310475
-1.3992003	i i o	-0.4521783
-1.5097733	a i o	-0.29669008
-1.7041619	p i o	-0.2194534
-1.3521202	m i o	-0.6246192
-1.2176812	y i o	-0.27209535
-1.2590364	d i o	-0.40521947
-1.1337055	l i o	-0.3260382
-1.3665764	b i o	-0.34144506
-1.3015516	- i o	-0.2194534
-1.3633602	s i o	-0.4234891
-1.1012516	t i o	-0.26597846
-1.4629805	r i o	-0.44051963
-1.3371284	j i o	-0.26662508
-1.0443716	z i o	-0.27209535
-1.4846616	, i o	-0.33050752
-1.5761473	f i o	-0.31214452
-1.5977467	. i o	-0.27209535
-1.5543275	h i o	-0.2194534
-0.3192453	r i o	-0.2194534
-1.7494069	o a o	-0.25832465
-1.4832348	k a o	-0.38740104
-1.8105716	u a o	-0.2502671
-1.3713907	n a o	-0.66989505
-1.3424157	w a o	-0.47295588
-1.6198335	e a o	-0.3036658
-1.4942485	g a o	-0.23458701
-1.4024453	i a o	-0.46511543
-1.893507	a a o	-0.23630151
-1.3747383	p a o	-0.40054846
-1.3578378	m a o	-0.6353833
-1.3818341	y a o	-0.25026712
-1.3647397	d a o	-0.39960852
-1.3110186	l a o	-0.4207855
-1.5043908	b a o	-0.35651878
-1.4871767	- a o	-0.29036465
-1.4268179	s a o	-0.36574847
-1.796194	t a o	-0.2194534
-1.3741683	r a o	-0.28597847
-1.5161502	j a o	-0.2194534
-1.1834507	f a o	-0.4263423
-1.8676835	. a o	-0.2194534
-1.37186	h a o	-0.2194534
-0.16979319	<s> p o	-0.4770664
-0.8226273	o p o	-0.61478883
-0.6098661	k p o	-0.46731114
-0.832957	u p o	-0.36471707
-0.8153469	n p o	-0.33095762
-0.82888114	w p o	-0.2194534
-0.7875994	e p o	-0.69143957
-0.7976257	i p o	-0.62922007
-0.7717743	a p o	-0.69853663
-0.86937064	m p o	-0.2194534
-0.72593915	b p o	-0.2194534
-0.82888114	- p o	-0.2194534
-0.76766014	s p o	-0.2194534
-0.72593915	t p o	-0.2194534
-0.7670399	, p o	-0.45683497
-0.62982875	 p o	-0.2194534
-0.6259205	. p o	-0.5321193
-1.0366415	) p o	-0.2194534
-0.51967555	 p o	-0.2194534
-0.54786414	ó p o	-0.35212767
-0.7917086	ô p o	-0.2194534
-0.27511278	ì p o	-0.2194534
-1.2892932	<s> m o	-0.30102018
-0.93678546	o m o	-0.51444495
-1.1523818	u m o	-0.3299968
-1.2738879	n m o	-0.2194534
-1.1255548	e m o	-0.43756008
-1.0341398	i m o	-0.48948956
-1.0573847	a m o	-0.449361
-0.994511	p m o	-0.2194534
-1.39296	m m o	-0.2194534
-1.2180519	l m o	-0.2194534
-0.6769707	t m o	-0.41188067
-1.0343332	r m o	-0.2194534
-1.0032145	, m o	-0.37721732
-0.9971521	 m o	-0.2194534
-1.0713223	. m o	-0.35406694
-1.1295922	( m o	-0.2194534
-1.2078817	u y o	-0.2194534
-0.68673646	n y o	-0.5420732
-1.5116656	e y o	-0.2194534
-1.4071541	i y o	-0.24497722
-1.4066721	a y o	-0.2194534
-0.9183766	m y o	-0.27209535
-0.81273997	- y o	-0.2194534
-0.8847517	t y o	-0.2194534
-1.2606629	, y o	-0.2194534
-0.7403832	o d o	-0.6853515
-0.9857331	k d o	-0.2194534
-0.8531431	u d o	-0.49236962
-0.8879921	n d o	-0.32219145
-0.9374726	w d o	-0.2194534
-1.0790459	e d o	-0.42402744
-0.90995866	i d o	-0.6156349
-0.8093438	a d o	-0.7543034
-1.1397579	- d o	-0.2194534
-1.0202538	s d o	-0.2194534
-1.0276376	, d o	-0.31497067
-1.0714062	 d o	-0.2194534
-0.5985775	o l o	-0.6704206
-0.44253892	k l o	-0.49106193
-0.80319285	u l o	-0.34326467
-0.71942526	n l o	-0.27209535
-1.0202776	e l o	-0.27639794
-0.67966217	i l o	-0.42619848
-0.8545268	a l o	-0.43754995
-0.6680536	p l o	-0.2194534
-0.9932607	b l o	-0.2194534
-0.8251863	, l o	-0.31497067
-1.1307963	. l o	-0.2194534
-0.92720217	( l o	-0.2194534
-0.5504012	ò l o	-0.2194534
-0.72573966	<s> b o	-0.33095762
-0.72229505	o b o	-0.8500789
-0.67386407	k b o	-0.23630151
-0.7602364	u b o	-0.5768057
-0.6394266	n b o	-0.39139283
-0.80334866	w b o	-0.2194534
-0.7650058	e b o	-0.7245937
-0.53303516	g b o	-0.5525089
-0.7860005	i b o	-0.77150285
-0.7716144	a b o	-0.80816424
-0.75889534	m b o	-0.3277662
-0.80334866	y b o	-0.2194534
-1.0178658	l b o	-0.2194534
-0.94974834	b b o	-0.2194534
-0.53389746	- b o	-0.26459137
-1.1487383	s b o	-0.2194534
-0.7065934	t b o	-0.28196502
-0.94633394	r b o	-0.2194534
-0.7480576	, b o	-0.35138845
-0.506693	 b o	-0.2194534
-0.7505201	. b o	-0.37603658
-0.8072815	) b o	-0.2194534
-0.38526627	 b o	-0.28874105
-0.28013024	ö b o	-0.2194534
-0.6576779	ó b o	-0.2194534
-1.0178658	ò b o	-0.2194534
-0.6995773	ô b o	-0.25832465
-0.28013024	` b o	-0.2194534
-0.933065	o - o	-0.24827582
-0.88695115	u - o	-0.21945335
-1.142401	n - o	-0.2194534
-1.0587909	e - o	-0.2466712
-1.0890869	i - o	-0.23318923
-0.9805811	a - o	-0.25593925
-0.9209902	m - o	-0.2194534
-0.739113	- - o	-0.2194534
-0.63256764	<s> s o	-0.30102018
-0.9003868	o s o	-0.7345923
-0.9002502	k s o	-0.30102018
-0.8009638	u s o	-0.48188937
-0.76524633	n s o	-0.31073287
-0.69660383	w s o	-0.21945335
-0.797264	e s o	-0.66346097
-0.92792237	i s o	-0.5728545
-0.88721466	a s o	-0.7473836
-0.8209392	p s o	-0.2194534
-0.9305939	m s o	-0.25382975
-0.56384945	y s o	-0.2194534
-0.5355487	d s o	-0.2194534
-0.66715956	b s o	-0.2194534
-0.6791554	- s o	-0.25832465
-0.55109966	s s o	-0.24497722
-0.7380171	r s o	-0.2194534
-0.6726254	z s o	-0.2194534
-0.80446905	, s o	-0.3817071
-1.0068973	 s o	-0.2194534
-0.77384317	. s o	-0.3972259
-0.76571846	) s o	-0.29411256
-0.6077878	 s o	-0.35212767
-0.8654009	 s o	-0.2194534
-0.28408012	à s o	-0.2194534
-0.69880337	ò s o	-0.2194534
-0.7593063	ô s o	-0.2194534
-0.8203633	<s> t o	-0.27209535
-0.6364719	o t o	-0.7873478
-0.54661125	k t o	-0.28343517
-0.5346237	u t o	-0.54068035
-0.77749324	n t o	-0.3444479
-0.6465611	w t o	-0.2194534
-0.7684241	e t o	-0.68692243
-0.6957357	i t o	-0.7790479
-0.6871959	a t o	-0.9622983
-0.7609124	m t o	-0.27209535
-0.6465611	d t o	-0.2194534
-0.652645	b t o	-0.2194534
-0.68836176	- t o	-0.25832465
-0.88626486	s t o	-0.28196502
-0.87057126	t t o	-0.2194534
-0.83464426	r t o	-0.2194534
-0.27543506	z t o	-0.2194534
-0.6839781	, t o	-0.63467425
-0.652645	f t o	-0.2194534
-0.3999919	 t o	-0.2194534
-0.54973346	. t o	-0.66150075
-0.25950912	) t o	-0.3661232
-0.47081032	 t o	-0.31497067
-0.81844014	 t o	-0.27209535
-0.1302364	ó t o	-0.35212767
-0.27543506	x t o	-0.2194534
-0.35216844	ò t o	-0.28343517
-0.52024174	ô t o	-0.2194534
-0.8450703	o r o	-0.3904204
-1.170398	k r o	-0.2194534
-0.5805794	u r o	-0.3899195
-0.5269203	n r o	-0.2194534
-0.7719785	e r o	-0.46445346
-0.99575466	i r o	-0.42049006
-0.89532816	a r o	-0.4133322
-0.73631924	p r o	-0.2194534
-0.737648	m r o	-0.2194534
-1.1578286	d r o	-0.2194534
-1.0956568	b r o	-0.2194534
-0.372775	t r o	-0.35353717
-0.5269203	r r o	-0.2194534
-0.66133624	z r o	-0.2194534
-0.5533331	, r o	-0.35212767
-0.91526043	f r o	-0.2194534
-0.6555176	. r o	-0.2194534
-0.2792233	x r o	-0.2194534
-0.77036303	<s> j o	-0.5739764
-0.7892093	o j o	-0.52262425
-0.6279559	k j o	-0.35212767
-0.596691	u j o	-0.3649919
-0.76757365	n j o	-0.3476905
-0.72887665	e j o	-0.47944397
-0.8572756	i j o	-0.47606176
-0.7754872	a j o	-0.4682801
-0.83210534	m j o	-0.30102018
-0.789971	b j o	-0.2194534
-0.7605343	- j o	-0.30102018
-0.79058444	s j o	-0.2194534
-0.5948529	, j o	-0.517411
-0.69933736	 j o	-0.30102018
-0.58275366	. j o	-0.6423296
-0.6839827	( j o	-0.2194534
-0.5763439	) j o	-0.41188067
-0.551939	 j o	-0.4101389
-1.0953285	o z o	-0.2194534
-1.1939157	e z o	-0.2194534
-0.82882303	i z o	-0.3157439
-1.0225893	a z o	-0.25832465
-0.2704801	j z o	-0.30102018
-1.2616993	o , o	-0.34327537
-0.9740963	k , o	-0.2194534
-0.9961006	u , o	-0.40096155
-1.1777108	n , o	-0.33375162
-0.5837803	w , o	-0.2194534
-1.2438755	e , o	-0.7114261
-1.1349275	i , o	-0.56852293
-1.1628432	a , o	-0.5490546
-0.8342088	p , o	-0.2194534
-1.0761837	m , o	-0.25593925
-0.31044877	y , o	-0.2194534
-1.1245645	s , o	-0.29411256
-1.1106274	t , o	-0.2194534
-0.97212446	, , o	-0.2194534
-0.9649839	f , o	-0.2194534
-0.44515494	 , o	-0.30102018
-1.2596723	. , o	-0.2194534
-0.77543116	) , o	-0.2194534
-0.6511987	o f o	-0.6125751
-0.8139287	u f o	-0.28572476
-0.91183496	n f o	-0.33095762
-0.9676135	e f o	-0.43052912
-0.90129685	i f o	-0.5282189
-0.8780803	a f o	-0.48300934
-1.2004168	, f o	-0.27209535
-1.1534855	. f o	-0.27209535
-0.89929736	o  o	-0.2194534
-0.7243669	n  o	-0.2194534
-1.1625948	e  o	-0.2194534
-0.8675203	i  o	-0.25832465
-0.75190145	a  o	-0.28074372
-0.7846691	m  o	-0.2194534
-0.86487424	,  o	-0.29411256
-0.94529206	  o	-0.30102018
-0.8774004	.  o	-0.29076362
-1.0000347	  o	-0.2194534
-1.1930804	o . o	-0.3070289
-1.2791525	k . o	-0.2502671
-0.91119844	u . o	-0.40597448
-1.061092	n . o	-0.30635718
-1.2255591	e . o	-0.7391822
-1.2914567	i . o	-0.45032877
-1.192004	a . o	-0.49465317
-1.1079253	m . o	-0.23731327
-0.74177295	b . o	-0.2194534
-0.8442356	- . o	-0.2194534
-0.9811533	t . o	-0.2194534
-1.1603994	, . o	-0.2194534
-0.71914816	 . o	-0.2502671
-1.1289998	. . o	-0.25832465
-0.58938473	h . o	-0.2194534
-0.9780388	e h o	-0.2194534
-0.42880595	g h o	-0.2194534
-1.1427191	i h o	-0.2194534
-0.85078174	a h o	-0.27209535
-0.7012516	b h o	-0.2194534
-0.76889205	c h o	-0.42009896
-1.4675448	a v o	-0.2194534
-1.2331334	e ( o	-0.2194534
-1.1916704	i ( o	-0.2194534
-1.1384571	a ( o	-0.2194534
-0.9512966	, ( o	-0.2194534
-1.0252862	. ( o	-0.2194534
-1.1937139	k ) o	-0.23630151
-1.1939068	n ) o	-0.2194534
-1.1810998	e ) o	-0.2194534
-0.97428805	a ) o	-0.2194534
-1.0253398	- ) o	-0.2194534
-1.0061225	. ) o	-0.24497722
-0.88992906	 ) o	-0.27209535
-0.9023349	k  o	-0.2194534
-0.9029552	u  o	-0.2194534
-0.91128933	e  o	-0.30102018
-0.85605264	i  o	-0.2194534
-0.9651651	a  o	-0.2194534
-0.42387083	b  o	-0.30102018
-0.6916486	  o	-0.2194534
-1.1210971	.  o	-0.2194534
-1.1996043	e  o	-0.2194534
-0.9064039	i  o	-0.2194534
-1.2154872	a  o	-0.2194534
-1.047631	,  o	-0.27914792
-1.2114091	.  o	-0.2194534
-0.3072267	  o	-0.2194534
-0.28204498	k [ o	-0.2194534
-0.644988	e [ o	-0.30102018
-0.8493486	a [ o	-0.2194534
-0.9422958	. [ o	-0.2194534
-1.0349967	e ] o	-0.2194534
-0.80760765	a ] o	-0.2194534
-0.9358191	. ] o	-0.2194534
-0.7113868	e ì o	-0.2194534
-0.36241567	<s> o k	-0.58623016
-0.31423762	ÿþ o k	-0.2194534
-0.9873326	o o k	-0.5746834
-1.0295612	k o k	-0.54885525
-0.9675839	u o k	-0.615839
-1.299736	n o k	-0.40905455
-1.2111827	w o k	-0.34290668
-1.1197176	e o k	-0.7900254
-1.5225908	g o k	-0.26417297
-1.1033694	i o k	-0.712345
-1.0588636	a o k	-0.82455814
-0.7603496	p o k	-0.71291065
-1.3579715	m o k	-0.28874105
-1.4553998	y o k	-0.2194534
-0.5127232	d o k	-0.5730972
-1.0047617	l o k	-0.42209458
-1.2623091	b o k	-0.69311535
-1.2109902	- o k	-0.37329382
-1.2151791	s o k	-0.6563476
-0.8641156	t o k	-0.7745425
-1.2479784	r o k	-0.33475387
-1.0818996	j o k	-0.53507763
-1.1171393	, o k	-0.6084588
-0.6320493	 o k	-0.6671532
-0.9705642	. o k	-0.5673748
-1.3585256	h o k	-0.2194534
-0.5622275	( o k	-0.31497067
-0.7597136	) o k	-0.41188067
-1.0709202	 o k	-0.2194534
-1.1880144	 o k	-0.2194534
-0.8497471	[ o k	-0.2194534
-0.56520927	] o k	-0.30102018
-1.4871027	o k k	-0.31497067
-1.4012285	u k k	-0.35406694
-2.109068	e k k	-0.2194534
-2.1642714	i k k	-0.2194534
-1.9032854	a k k	-0.25832465
-1.7742972	, k k	-0.2194534
-0.8888824	o u k	-0.25832465
-1.107548	k u k	-0.531687
-1.3362358	w u k	-0.28343517
-1.4628624	e u k	-0.2194534
-1.3388686	g u k	-0.2194534
-1.3004057	i u k	-0.30102018
-1.5767317	a u k	-0.2194534
-0.9896394	p u k	-0.4879989
-1.3519292	m u k	-0.37329382
-0.58942187	d u k	-0.7475539
-0.63971174	l u k	-0.54797256
-1.1975653	b u k	-0.6669503
-0.72140193	s u k	-0.5321193
-1.4697981	t u k	-0.2194534
-1.245555	r u k	-0.3429133
-1.237101	j u k	-0.4462421
-1.1585088	z u k	-0.2194534
-1.2695937	, u k	-0.2194534
-1.1089462	f u k	-0.33095762
-1.3207234	. u k	-0.2194534
-1.3410621	h u k	-0.2194534
-0.5910876	v u k	-0.2194534
-0.9905155	 u k	-0.30102018
-1.6205609	o n k	-0.37094206
-1.7167438	u n k	-0.33475387
-1.9488077	e n k	-0.2194534
-1.4879644	i n k	-0.6559209
-1.6051326	a n k	-0.30654672
-1.211192	b n k	-0.2194534
-1.497736	r n k	-0.2194534
-1.8294657	o w k	-0.2194534
-1.0503213	o e k	-0.5794658
-1.501916	k e k	-0.33877596
-1.1987194	u e k	-0.45827255
-1.3102746	n e k	-0.41907474
-1.228821	e e k	-0.48145908
-1.4540763	g e k	-0.31497067
-1.2612305	i e k	-0.6609846
-1.0008026	a e k	-0.74974835
-0.7046354	p e k	-0.6786837
-1.5061556	m e k	-0.46789646
-1.3471725	y e k	-0.56619453
-1.1950022	d e k	-0.47544473
-1.0748527	l e k	-0.30509552
-1.3950135	b e k	-0.78803825
-1.3386956	- e k	-0.5005625
-1.4412521	s e k	-0.68468225
-0.733709	t e k	-0.6385124
-1.522976	r e k	-0.26417297
-0.81288904	j e k	-0.7780964
-1.5145631	, e k	-0.2194534
-1.4006793	f e k	-0.25832465
-1.4610395	h e k	-0.2194534
-1.1363468	o i k	-0.4432642
-1.177644	k i k	-0.5829315
-1.1454864	u i k	-0.35215467
-1.2934881	n i k	-0.5216047
-0.7750565	w i k	-0.4770664
-1.1992705	e i k	-0.6591006
-1.6212097	g i k	-0.2194534
-1.2383397	i i k	-0.6265179
-1.1568503	a i k	-0.764253
-0.7437331	p i k	-0.62881666
-1.3837732	m i k	-0.6538312
-1.1031083	y i k	-0.37721732
-0.7668165	d i k	-0.8738962
-1.380577	l i k	-0.32582256
-1.1212449	b i k	-0.6411042
-1.2965441	- i k	-0.2194534
-1.0170609	s i k	-0.5657407
-1.0256624	t i k	-0.439652
-1.26767	r i k	-0.47864652
-1.0599481	j i k	-0.40041703
-1.0417712	z i k	-0.2194534
-1.2247838	, i k	-0.4993499
-1.315471	f i k	-0.4770735
-1.1530592	 i k	-0.2194534
-1.1575062	. i k	-0.3300183
-1.5470027	h i k	-0.2194534
-1.4164336	 i k	-0.2194534
-1.2673893	o a k	-0.44490102
-1.5541838	k a k	-0.37094206
-1.1769712	u a k	-0.48465687
-1.442786	n a k	-0.59639335
-1.1946	w a k	-0.5392246
-1.3004233	e a k	-0.5703863
-1.4820422	g a k	-0.25832465
-1.3642005	i a k	-0.6142804
-1.1768637	a a k	-0.612663
-0.9874092	p a k	-0.6064855
-1.3866847	m a k	-0.5921087
-1.2636673	y a k	-0.2971691
-1.417759	d a k	-0.3921662
-1.3058273	l a k	-0.4521783
-1.1922286	b a k	-0.55212784
-1.1610532	- a k	-0.37650976
-1.0379473	s a k	-0.5823195
-1.3362314	t a k	-0.44024062
-1.3654013	r a k	-0.2815336
-0.6438741	z a k	-0.6153691
-1.3596017	, a k	-0.3921662
-1.1167803	f a k	-0.3423768
-1.1882236	 a k	-0.2194534
-1.34716	. a k	-0.33550525
-1.1177518	( a k	-0.2194534
-1.271202	o p k	-0.37721732
-1.785447	e p k	-0.2194534
-1.552369	i p k	-0.30102018
-1.9086012	a p k	-0.27209535
-1.6735457	, p k	-0.2194534
-2.236407	o m k	-0.2194534
-2.085307	u m k	-0.2194534
-2.187965	e m k	-0.2194534
-2.2088013	i m k	-0.2194534
-1.7093426	a m k	-0.32377958
-1.0176117	k y k	-0.2194534
-1.6573864	e y k	-0.2194534
-0.9545559	g y k	-0.2194534
-1.8449265	i y k	-0.2194534
-1.8331242	a y k	-0.2194534
-1.7906065	o d k	-0.2194534
-1.7656869	u d k	-0.2194534
-1.6919733	e d k	-0.2194534
-1.9796222	i d k	-0.2194534
-2.043735	a d k	-0.2194534
-1.5900768	. d k	-0.2194534
-0.7582914	ò d k	-0.2194534
-2.1293037	e l k	-0.2194534
-1.8153145	a l k	-0.2194534
-2.0803728	u b k	-0.2194534
-2.197087	e b k	-0.2194534
-2.0343733	g b k	-0.2194534
-2.0058124	a b k	-0.30102018
-1.614612	m b k	-0.2194534
-1.5908906	o - k	-0.2194534
-1.3409648	n - k	-0.2194534
-1.5877292	e - k	-0.27209535
-1.5673714	i - k	-0.25832465
-1.5140411	a - k	-0.30102018
-1.8949832	o s k	-0.2194534
-1.5629947	n s k	-0.2194534
-1.7410039	e s k	-0.2194534
-1.2492071	i s k	-0.49106193
-1.4002981	a s k	-0.3368773
-1.4842757	m s k	-0.2194534
-1.733179	. s k	-0.2194534
-2.0674767	o t k	-0.2194534
-1.581767	u t k	-0.30102018
-1.8133597	e t k	-0.30102018
-2.0572698	i t k	-0.2194534
-1.276286	p t k	-0.2194534
-0.77677846	d t k	-0.2194534
-1.6677186	o r k	-0.27209535
-1.8357273	e r k	-0.2194534
-1.6501309	i r k	-0.27209535
-1.7141651	a r k	-0.27209535
-1.3165193	o , k	-0.3130294
-1.5456622	u , k	-0.25382975
-1.3971486	n , k	-0.27209535
-1.3720706	e , k	-0.60219383
-1.3771846	i , k	-0.44480956
-1.462803	a , k	-0.4626611
-1.295853	m , k	-0.30102018
-1.216801	l , k	-0.2194534
-1.3200575	s , k	-0.30102018
-1.1866689	t , k	-0.2194534
-0.57787997	 , k	-0.30102018
-1.5586171	e  k	-0.2194534
-1.3534409	,  k	-0.2194534
-1.3942717	.  k	-0.2194534
-1.1636349	  k	-0.2194534
-1.415099	o . k	-0.25832465
-1.34635	k . k	-0.2502671
-1.4845147	u . k	-0.27209535
-1.4597371	n . k	-0.25832465
-1.4153544	e . k	-0.5875999
-1.2664282	i . k	-0.427605
-1.4347032	a . k	-0.372764
-1.4502537	m . k	-0.2194534
-0.84396267	s . k	-0.2194534
-0.7635244	r . k	-0.2194534
-1.2980496	. . k	-0.30102018
-1.2574803	u c k	-0.2194534
-1.0415845	n ( k	-0.2194534
-1.4737754	e ( k	-0.2194534
-1.1957607	a ( k	-0.2194534
-1.1904533	. ( k	-0.2194534
-1.3318944	o ) k	-0.2194534
-1.3042662	k ) k	-0.2194534
-1.3097848	n ) k	-0.2194534
-1.4800342	. ) k	-0.2194534
-1.3448784	e  k	-0.30102018
-1.2441217	i  k	-0.2194534
-1.2651286	a  k	-0.27209535
-1.2623345	u  k	-0.2194534
-1.4411058	,  k	-0.2194534
-1.0958718	  k	-0.2194534
-1.0754619	e ó k	-0.2194534
-0.94935817	a ó k	-0.2194534
-0.94935817	, ó k	-0.2194534
-0.78990173	. ó k	-0.2194534
-0.28927183	e ç k	-0.2194534
-1.3736081	e ò k	-0.2194534
-0.31554142	t ò k	-0.2194534
-1.1182415	, ò k	-0.2194534
-0.14228767	u £ k	-0.2194534
-0.14228767	. £ k	-0.2194534
-1.760969	k o u	-0.2194534
-1.9591827	n o u	-0.2194534
-1.8726842	w o u	-0.2194534
-2.0912645	e o u	-0.2194534
-2.1010406	i o u	-0.2194534
-2.1307068	a o u	-0.2194534
-1.8961977	p o u	-0.2194534
-1.8819976	m o u	-0.2194534
-1.8277143	l o u	-0.2194534
-1.7924488	b o u	-0.26417297
-1.6598262	s o u	-0.44024062
-1.8595451	t o u	-0.2194534
-1.704897	r o u	-0.2194534
-1.8491737	j o u	-0.2194534
-2.0380454	, o u	-0.2194534
-1.6579033	f o u	-0.2194534
-0.31325898	<s> k u	-0.9433596
-0.7638203	o k u	-0.8423649
-1.0896262	k k u	-0.2194534
-0.7516257	u k u	-0.5217207
-0.95071614	n k u	-0.33013377
-0.85234094	w k u	-0.2194534
-0.8772795	e k u	-0.6910662
-0.8967345	i k u	-0.6931211
-0.8911516	a k u	-0.6947441
-1.0266304	p k u	-0.2194534
-0.76964295	m k u	-0.25832465
-0.8122627	y k u	-0.2194534
-1.0116372	d k u	-0.2194534
-0.4416765	b k u	-0.2194534
-0.5493028	- k u	-0.2194534
-0.979847	s k u	-0.2194534
-0.86042225	t k u	-0.2194534
-0.7975129	r k u	-0.27209535
-0.7658927	, k u	-0.50122917
-0.5859666	 k u	-0.2194534
-0.73067737	. k u	-0.567417
-0.28285342	c k u	-0.2194534
-0.4416765	( k u	-0.35212767
-0.4436655	 k u	-0.35212767
-0.8122627	 k u	-0.2194534
-0.4416765	ó k u	-0.25832465
-0.40947354	ò k u	-0.2194534
-1.359868	o u u	-0.2194534
-1.8372347	k u u	-0.2194534
-1.4006084	u u u	-0.2194534
-1.6508735	n u u	-0.2194534
-1.2960846	e u u	-0.2194534
-1.5787786	i u u	-0.2194534
-1.576276	a u u	-0.2194534
-1.8742286	p u u	-0.2194534
-1.8548689	m u u	-0.2194534
-1.9283319	b u u	-0.28572476
-1.6003073	s u u	-0.2194534
-1.7483728	t u u	-0.2194534
-0.96896994	. u u	-0.24497722
-1.4595006	h u u	-0.2194534
-1.4201547	o n u	-0.6156349
-1.3933868	u n u	-0.34213692
-1.3758788	n n u	-0.30102018
-1.61388	e n u	-0.31497067
-1.4962246	i n u	-0.48227906
-1.4076343	a n u	-0.3803959
-1.4250438	m n u	-0.2194534
-1.103227	l n u	-0.2194534
-1.1523705	b n u	-0.2194534
-1.4483619	s n u	-0.2194534
-1.2278458	t n u	-0.2194534
-1.508184	, n u	-0.30102018
-1.2129163	 n u	-0.2194534
-0.7062096	o w u	-0.60746765
-1.2981231	k w u	-0.2194534
-1.102409	u w u	-0.25832465
-1.2737247	n w u	-0.2620372
-0.9312807	w w u	-0.2194534
-1.0604799	e w u	-0.30102018
-1.6193565	i w u	-0.2194534
-0.77586174	a w u	-0.34213692
-0.30115768	ö w u	-0.2194534
-1.7907873	o e u	-0.24123786
-1.5687926	k e u	-0.26439604
-2.004753	n e u	-0.2194534
-1.8258916	e e u	-0.23630151
-1.7676034	i e u	-0.25832465
-1.7200775	m e u	-0.26249236
-2.2452111	y e u	-0.2194534
-1.7594898	l e u	-0.2194534
-2.2289624	b e u	-0.26249236
-2.265262	s e u	-0.2194534
-1.7410403	r e u	-0.2194534
-1.8119389	f e u	-0.2194534
-1.0964936	o g u	-0.50259244
-1.0354978	u g u	-0.2194534
-1.2393507	n g u	-0.24497722
-0.9988499	w g u	-0.2194534
-1.8718033	e g u	-0.2194534
-1.4942126	i g u	-0.41188067
-1.9730895	a g u	-0.2194534
-1.9171898	o i u	-0.2194534
-1.9197009	k i u	-0.24123786
-1.9006829	n i u	-0.2194534
-1.4170104	w i u	-0.2194534
-1.7810955	g i u	-0.2194534
-2.235748	i i u	-0.2194534
-1.8142847	p i u	-0.2194534
-1.923188	m i u	-0.27914792
-2.037938	d i u	-0.2194534
-1.8848568	l i u	-0.2194534
-1.7454062	b i u	-0.2194534
-2.0501144	s i u	-0.30102018
-1.8828417	r i u	-0.2194534
-2.0165262	f i u	-0.30102018
-1.6922737	h i u	-0.2194534
-1.8946185	o a u	-0.2194534
-1.8309261	k a u	-0.2194534
-1.8501756	u a u	-0.2194534
-1.9881219	n a u	-0.27209535
-1.7517501	e a u	-0.25382975
-1.7907287	g a u	-0.2194534
-1.6529205	i a u	-0.3279993
-1.4170845	a a u	-0.32983828
-1.7438055	p a u	-0.2194534
-1.7819654	m a u	-0.26653457
-1.9420612	d a u	-0.2194534
-1.8929567	l a u	-0.2194534
-1.9606168	b a u	-0.30102018
-1.3145673	- a u	-0.3822948
-1.8384117	t a u	-0.27209535
-1.8637581	r a u	-0.2194534
-1.5566599	j a u	-0.2194534
-1.9264348	. a u	-0.2194534
-1.4776391	 a u	-0.2194534
-0.7176422	o p u	-0.690903
-0.8273958	k p u	-0.50259244
-0.79743046	u p u	-0.38668993
-0.8531339	n p u	-0.2772131
-0.87268937	w p u	-0.2194534
-1.0123637	e p u	-0.4432642
-0.8976684	i p u	-0.5051997
-0.7001336	a p u	-0.85292053
-0.6122349	p p u	-0.2194534
-0.54108936	d p u	-0.2194534
-0.87268937	l p u	-0.2194534
-0.7609064	b p u	-0.2194534
-0.65391237	- p u	-0.30102018
-0.7609064	t p u	-0.2194534
-0.9806614	, p u	-0.30654672
-0.8768121	 p u	-0.2194534
-1.0861503	. p u	-0.2194534
-0.28717658	v p u	-0.2194534
-1.2639349	<s> m u	-0.30102018
-0.950858	o m u	-0.67952234
-0.95039445	k m u	-0.27209535
-0.9659054	u m u	-0.46514213
-0.9701555	n m u	-0.31027055
-0.9178	w m u	-0.2194534
-1.041614	e m u	-0.7028934
-0.9412075	i m u	-0.70285773
-0.98272866	a m u	-0.68059105
-1.0793345	m m u	-0.29607496
-1.1746254	l m u	-0.2194534
-1.2066486	- m u	-0.2194534
-0.9347094	s m u	-0.29411256
-0.7859256	t m u	-0.31027055
-1.0023719	r m u	-0.2194534
-0.9876413	, m u	-0.49106193
-1.3210509	. m u	-0.30102018
-0.749389	 m u	-0.30102018
-0.27116662	ä m u	-0.30102018
-0.946232	ò m u	-0.2194534
-1.7572898	o y u	-0.2194534
-1.6610438	e y u	-0.2194534
-1.6244041	i y u	-0.2194534
-1.3811705	, y u	-0.2194534
-1.3145145	. y u	-0.2194534
-0.8938	<s> d u	-0.2194534
-0.7644923	o d u	-0.72010463
-0.62549883	u d u	-0.50924474
-0.8985977	n d u	-0.35107958
-0.77862597	w d u	-0.2194534
-0.7217617	e d u	-0.7184955
-0.67484605	i d u	-0.8106173
-0.65759754	a d u	-0.9337082
-0.26016125	y d u	-0.2194534
-0.6185531	d d u	-0.2194534
-0.7359011	l d u	-0.2194534
-0.68497854	b d u	-0.2194534
-0.93141323	- d u	-0.2194534
-0.559392	s d u	-0.25832465
-0.47458518	t d u	-0.30102018
-0.26016125	r d u	-0.2194534
-0.750067	, d u	-0.46623832
-0.26016125	f d u	-0.2194534
-0.78318965	 d u	-0.2194534
-0.89359283	. d u	-0.35406694
-0.6114799	 d u	-0.2194534
-0.8893429	 d u	-0.2194534
-0.49375063	ó d u	-0.2194534
-0.26016125	à d u	-0.2194534
-0.6114799	ò d u	-0.2194534
-0.26016125	á d u	-0.2194534
-0.26016125	ì d u	-0.2194534
-0.43384087	<s> l u	-0.35212767
-0.8720994	o l u	-0.37236223
-1.0606129	k l u	-0.2194534
-0.77061737	u l u	-0.2977547
-0.8708352	n l u	-0.2194534
-0.9875469	e l u	-0.5951426
-1.0842487	i l u	-0.29411256
-1.1380246	a l u	-0.29768986
-0.27550584	d l u	-0.2194534
-0.64672744	l l u	-0.2194534
-0.9177064	b l u	-0.2194534
-0.5774642	- l u	-0.30102018
-0.6804107	, l u	-0.5739764
-0.49078614	. l u	-0.5739764
-0.32319587	( l u	-0.4770664
-0.5203661	) l u	-0.2194534
-0.2514706	 l u	-0.30102018
-0.2514706	] l u	-0.30102018
-1.1605935	<s> b u	-0.2194534
-0.6940689	o b u	-0.90040946
-0.8033354	k b u	-0.2502671
-0.7977274	u b u	-0.53066945
-0.785791	n b u	-0.33192757
-0.7932103	e b u	-0.71227086
-0.9021671	g b u	-0.53015816
-0.7562407	i b u	-0.8616117
-0.77875495	a b u	-0.8080189
-0.77647287	m b u	-0.3197536
-0.8325486	y b u	-0.2194534
-0.75922716	l b u	-0.21945335
-0.7005189	b b u	-0.24123786
-0.98260796	- b u	-0.2194534
-0.81790465	s b u	-0.2502671
-1.1177706	t b u	-0.2194534
-0.76877266	r b u	-0.2194534
-0.8951397	, b u	-0.349913
-0.6840141	f b u	-0.2194534
-0.76065993	. b u	-0.33357644
-0.28890693	c b u	-0.2194534
-1.0257173	) b u	-0.2194534
-0.5893528	ò b u	-0.2194534
-0.72143865	ô b u	-0.2194534
-1.9426016	e - u	-0.2194534
-1.758164	a - u	-0.2194534
-1.3753085	o s u	-0.4532734
-1.5152051	u s u	-0.2194534
-1.4567188	n s u	-0.2194534
-1.0396893	w s u	-0.2194534
-1.4105126	e s u	-0.29076362
-1.1836984	i s u	-0.48196268
-1.1884362	a s u	-0.59935284
-1.3748431	m s u	-0.2194534
-0.82784647	r s u	-0.2194534
-1.4524564	, s u	-0.2194534
-1.4328023	. s u	-0.27209535
-1.3858182	) s u	-0.2194534
-1.2314727	<s> t u	-0.2194534
-0.9396448	o t u	-0.59935284
-0.9728401	k t u	-0.2194534
-1.1633661	u t u	-0.3476905
-1.097861	n t u	-0.24123786
-0.92183435	e t u	-0.60561985
-1.0850621	i t u	-0.36409122
-1.043983	a t u	-0.4054373
-0.95868975	m t u	-0.2194534
-1.0857419	- t u	-0.2194534
-1.3214164	s t u	-0.2194534
-0.9461301	, t u	-0.44024062
-1.0237919	. t u	-0.37329382
-0.30058762	c t u	-0.2194534
-0.30058762	v t u	-0.2194534
-1.0230336	) t u	-0.2194534
-0.898007	 t u	-0.30102018
-0.767746	o r u	-0.54263806
-0.70251864	u r u	-0.45085743
-1.3705328	e r u	-0.29411256
-0.84914064	i r u	-0.61569846
-0.9571248	a r u	-0.52677464
-1.1283205	p r u	-0.2194534
-0.78951573	m r u	-0.2194534
-0.8757077	d r u	-0.25832465
-0.8858182	b r u	-0.21945335
-0.9353024	t r u	-0.2194534
-0.6979948	. r u	-0.2194534
-0.5581088	( r u	-0.2194534
-0.29657912	ó r u	-0.2194534
-0.8760483	<s> j u	-0.4770664
-0.52741235	o j u	-0.58834267
-0.8683394	k j u	-0.2194534
-0.85427094	u j u	-0.29026744
-0.8843751	n j u	-0.24497722
-0.6205172	e j u	-0.5084999
-0.5800462	i j u	-0.5288147
-0.64637476	a j u	-0.49032134
-0.9571403	m j u	-0.2194534
-0.25860056	d j u	-0.2194534
-0.7782147	b j u	-0.2194534
-0.6395871	- j u	-0.28343517
-0.77884257	s j u	-0.2194534
-0.47211277	r j u	-0.2194534
-0.6922332	, j u	-0.427605
-0.80997735	. j u	-0.4532734
-0.6749553	( j u	-0.2194534
-1.0114648	 j u	-0.2194534
-0.25860056	 j u	-0.2194534
-0.4539962	o z u	-0.53138286
-1.4087213	a z u	-0.2194534
-1.8900353	o , u	-0.2194534
-1.8251287	e , u	-0.2518085
-2.2403653	i , u	-0.2194534
-1.9703084	a , u	-0.27209535
-1.7496854	m , u	-0.2194534
-0.72857594	o f u	-0.5167312
-0.7051178	k f u	-0.2194534
-0.84002495	u f u	-0.29607496
-0.5477011	n f u	-0.35406694
-0.86130667	e f u	-0.4713475
-0.7309457	i f u	-0.55674654
-0.7272497	a f u	-0.6163319
-0.69181913	m f u	-0.30102018
-0.23690344	d f u	-0.27209535
-0.24252613	b f u	-0.2194534
-0.9662051	- f u	-0.2194534
-0.8002373	s f u	-0.2194534
-0.81275034	, f u	-0.27163678
-0.5027891	f f u	-0.2194534
-0.7649508	. f u	-0.33095762
-0.7627451	) f u	-0.2194534
-0.48659816	ò f u	-0.30102018
-1.4697424	o . u	-0.25832465
-1.6774306	u . u	-0.2194534
-1.7256674	n . u	-0.2194534
-1.607267	e . u	-0.35292256
-1.4339159	i . u	-0.3368773
-1.410335	a . u	-0.2971691
-1.5548899	m . u	-0.2194534
-1.2678668	a h u	-0.2194534
-0.3152789	p h u	-0.2194534
-0.7467576	b h u	-0.2194534
-0.75085735	c h u	-0.5274467
-0.7579591	u v u	-0.2194534
-1.4257959	a v u	-0.2194534
-0.31442672	o  u	-0.2194534
-1.4158611	e  u	-0.2194534
-1.1653386	i  u	-0.2194534
-1.4469658	,  u	-0.2194534
-0.93879455	.  u	-0.2194534
-1.150605	<s> o n	-0.30102018
-1.1158262	o o n	-0.5205303
-1.1045792	k o n	-0.60148686
-1.2241986	u o n	-0.5386846
-1.139689	n o n	-0.37857547
-1.3879074	w o n	-0.35216144
-1.1769065	e o n	-0.7095058
-1.2177879	g o n	-0.3300183
-1.2366016	i o n	-0.5455273
-1.2073262	a o n	-0.6663478
-1.0447471	p o n	-0.37473518
-0.8841365	m o n	-0.4550608
-1.2482737	y o n	-0.2502671
-1.0769846	d o n	-0.23318923
-1.0695295	l o n	-0.32368463
-1.3590091	b o n	-0.587318
-1.3601948	- o n	-0.25832465
-1.0482247	s o n	-0.64445716
-0.83965886	t o n	-0.6115585
-1.1793181	r o n	-0.32726288
-0.6321506	j o n	-0.6629616
-1.0800966	, o n	-0.57774246
-0.66230726	f o n	-0.5351603
-1.3172951	 o n	-0.25832465
-1.1902187	. o n	-0.48038986
-1.2065517	h o n	-0.2194534
-1.0687312	) o n	-0.27209535
-0.97138506	 o n	-0.2194534
-0.5669273	[ o n	-0.30102018
-1.9546455	o k n	-0.2502671
-2.005437	u k n	-0.2194534
-1.7881693	e k n	-0.35212767
-1.7186522	i k n	-0.25832465
-1.7508482	a k n	-0.2194534
-1.2480261	o u n	-0.2194534
-1.0606221	k u n	-0.52914596
-1.28446	u u n	-0.2194534
-0.8075334	n u n	-0.3300183
-1.0794677	w u n	-0.2714404
-1.3413055	e u n	-0.2194534
-1.304135	g u n	-0.2194534
-1.2702023	i u n	-0.2194534
-1.089215	a u n	-0.34063995
-1.0630755	p u n	-0.40532526
-0.61653477	m u n	-0.6555935
-1.0132693	y u n	-0.2194534
-1.5058241	d u n	-0.2194534
-1.3503234	l u n	-0.29607496
-1.346196	b u n	-0.5001848
-0.8340045	- u n	-0.2194534
-0.88511014	s u n	-0.32490525
-0.74911594	t u n	-0.87500644
-1.225407	r u n	-0.43052912
-1.3870075	j u n	-0.28572476
-1.1317052	z u n	-0.2194534
-0.9226267	, u n	-0.27209535
-0.7594179	f u n	-0.41478938
-1.1860394	. u n	-0.2194534
-1.3016515	h u n	-0.2194534
-0.97300035	 u n	-0.30102018
-1.4503636	o n n	-0.49482858
-1.3506625	k n n	-0.2194534
-1.5961661	u n n	-0.33039105
-1.7815769	e n n	-0.24123786
-1.4153563	i n n	-0.66894656
-1.5362998	a n n	-0.38191745
-1.7991798	, n n	-0.2194534
-1.4145938	o w n	-0.24123786
-1.6692355	n w n	-0.2194534
-1.6749856	e w n	-0.2194534
-1.5492442	i w n	-0.30102018
-1.0864197	o e n	-0.4481585
-1.275741	k e n	-0.52840453
-1.1741667	u e n	-0.36259335
-1.1105198	n e n	-0.40773547
-0.8033812	w e n	-0.461816
-1.0217285	e e n	-0.5623616
-0.9324793	g e n	-0.36258182
-1.2457975	i e n	-0.57374674
-0.89899826	a e n	-0.7023833
-1.401318	p e n	-0.35212767
-1.1766253	m e n	-0.57821214
-1.2518722	y e n	-0.63892156
-1.4759883	d e n	-0.24123786
-1.4034916	l e n	-0.24497722
-1.2935777	b e n	-0.8034207
-1.2442249	- e n	-0.4325961
-1.0886557	s e n	-0.7095929
-1.5907305	t e n	-0.24497722
-1.1735654	r e n	-0.31144083
-1.3411696	j e n	-0.31497067
-0.84263337	, e n	-0.34901688
-0.94723225	f e n	-0.72010446
-0.5953902	 e n	-0.2194534
-0.5905822	. e n	-0.58181405
-1.4118544	h e n	-0.2194534
-0.3985944	) e n	-0.27209535
-0.23817226	 e n	-0.4770664
-0.4531979	[ e n	-0.30102018
-1.8798866	o g n	-0.2194534
-1.7636667	i g n	-0.35212767
-0.28480053	<s> i n	-0.72010446
-0.88722706	o i n	-0.528612
-1.2741438	k i n	-0.3833836
-0.7905633	u i n	-0.57365704
-1.3074352	n i n	-0.4602309
-0.93400896	w i n	-0.26417297
-1.0119104	e i n	-0.76022446
-1.1984925	g i n	-0.26417297
-0.99982935	i i n	-0.66465616
-1.0223496	a i n	-0.6540392
-1.3166509	p i n	-0.28874105
-1.0305359	m i n	-0.8144188
-1.1749887	y i n	-0.24123786
-0.99910486	d i n	-0.48925793
-1.1649894	l i n	-0.31498927
-1.2449175	b i n	-0.3899195
-1.0396216	- i n	-0.27209535
-1.2922536	s i n	-0.5531892
-1.2603636	t i n	-0.3476905
-1.3413622	r i n	-0.41566342
-0.88044834	j i n	-0.62135035
-1.2179743	z i n	-0.2194534
-1.0048665	, i n	-0.5632758
-1.1380198	f i n	-0.53446805
-0.5163878	 i n	-0.4770664
-0.79094195	. i n	-0.58179545
-0.5854274	c i n	-0.2194534
-1.3299974	h i n	-0.22569507
-0.35976255	v i n	-0.5287628
-0.15337439	( i n	-0.72010446
-0.20613864	) i n	-0.6365352
-0.41660678	 i n	-0.4770664
-0.8951687	 i n	-0.3899285
-0.31132573	í i n	-0.2194534
-0.27613473	[ i n	-0.35212767
-0.31132573	\ i n	-0.2194534
-0.13017017	<s> a n	-0.7543034
-0.89151067	o a n	-0.6592955
-1.1555961	k a n	-0.5549628
-0.96353215	u a n	-0.63875234
-1.3095844	n a n	-0.6429287
-0.9892533	w a n	-0.7239702
-1.0287777	e a n	-0.735902
-1.2919424	g a n	-0.3235992
-1.1869946	i a n	-0.68979156
-1.0612515	a a n	-0.72133577
-1.1624571	p a n	-0.42098778
-1.1989298	m a n	-0.68958914
-1.0787164	y a n	-0.3235992
-1.38413	d a n	-0.38596088
-1.3316454	l a n	-0.3787967
-1.2933156	b a n	-0.48431808
-1.2566307	- a n	-0.43052912
-1.3221142	s a n	-0.36259335
-1.0813987	t a n	-0.39213663
-1.184869	r a n	-0.35211468
-0.7404181	j a n	-0.2714404
-1.2276125	z a n	-0.2194534
-0.840093	, a n	-0.5854635
-1.1542823	f a n	-0.3921662
-0.38411617	 a n	-0.8292489
-0.7965145	. a n	-0.6092886
-1.1016858	h a n	-0.2194534
-1.2076942	v a n	-0.2194534
-0.18152772	( a n	-0.65315765
-0.40601453	) a n	-0.5649203
-0.6427413	 a n	-0.5580088
-0.72622305	 a n	-0.3476905
-0.28256017	[ a n	-0.4770664
-0.2853447	] a n	-0.30102018
-1.8112677	o p n	-0.2194534
-2.2372823	a p n	-0.2194534
-1.2577381	o m n	-0.40268442
-1.8500681	u m n	-0.2194534
-1.673251	e m n	-0.33095762
-1.4731064	i m n	-0.37329382
-1.461991	a m n	-0.34157497
-1.3902489	r m n	-0.2194534
-1.4869595	n y n	-0.2714404
-1.6457083	e y n	-0.2194534
-1.8329132	i y n	-0.2194534
-1.819586	a y n	-0.2194534
-1.233737	m y n	-0.2194534
-1.8278812	e d n	-0.30102018
-1.9870034	a d n	-0.2194534
-1.6431658	o l n	-0.28074372
-1.5861939	u l n	-0.2194534
-1.8014936	e l n	-0.2194534
-1.731473	a l n	-0.30102018
-1.9562826	e b n	-0.2194534
-2.0187714	g b n	-0.2194534
-1.8582292	i b n	-0.27209535
-1.8599354	a b n	-0.2194534
-1.6479858	s b n	-0.2194534
-1.5731877	o - n	-0.27209535
-1.5139818	n - n	-0.2194534
-1.457443	e - n	-0.2194534
-1.1930397	i - n	-0.26417297
-1.3467729	a - n	-0.32219145
-1.1795387	o s n	-0.69175637
-1.6732843	u s n	-0.2194534
-1.505388	n s n	-0.2194534
-1.6927005	e s n	-0.27209535
-1.0839113	i s n	-0.5844306
-1.4412605	a s n	-0.49823254
-1.4248598	m s n	-0.2194534
-1.6777179	. s n	-0.2194534
-0.7600298	v s n	-0.2194534
-1.8300897	o t n	-0.2194534
-1.3410232	n t n	-0.27209535
-1.9320316	e t n	-0.2194534
-2.0019684	i t n	-0.2194534
-2.0400467	a t n	-0.2194534
-1.2456805	p t n	-0.2194534
-1.5532339	s t n	-0.2194534
-1.6770072	o r n	-0.2194534
-1.5133603	k r n	-0.2194534
-1.3666306	u r n	-0.30102018
-1.2536578	e r n	-0.3079394
-1.2615533	g r n	-0.2194534
-1.2835906	i r n	-0.2714404
-1.347776	a r n	-0.26417297
-0.8403254	m r n	-0.2194534
-1.2495912	k j n	-0.2194534
-1.5597043	n j n	-0.2194534
-1.072868	m j n	-0.30102018
-1.4951347	o , n	-0.28874105
-1.397408	u , n	-0.33890015
-1.3866093	n , n	-0.2194534
-1.2750171	e , n	-0.73335457
-1.2749627	i , n	-0.4487183
-1.26241	a , n	-0.56159997
-1.553591	m , n	-0.2194534
-1.2076657	l , n	-0.2194534
-1.48749	s , n	-0.2194534
-1.1780488	t , n	-0.2194534
-1.2091765	) , n	-0.2194534
-2.055264	e f n	-0.2194534
-0.97177154	o  n	-0.2194534
-1.1777756	e  n	-0.2194534
-0.83922136	m  n	-0.2194534
-0.9288011	,  n	-0.27209535
-1.1950003	.  n	-0.2194534
-1.0921158	  n	-0.2194534
-1.3223367	o . n	-0.26417297
-1.5332124	k . n	-0.2194534
-1.7324405	u . n	-0.2194534
-1.6342435	n . n	-0.2194534
-1.4249206	e . n	-0.6426922
-1.4042908	i . n	-0.34901688
-1.5273646	a . n	-0.3079394
-1.4792336	m . n	-0.2194534
-0.32275385	ç . n	-0.2194534
-1.4038024	a h n	-0.2194534
-1.6184305	e ( n	-0.2194534
-1.2752748	o ) n	-0.2194534
-1.4226453	k ) n	-0.2194534
-1.2365105	e ) n	-0.27209535
-1.2408926	a ) n	-0.2194534
-1.5787269	. ) n	-0.2194534
-0.81293076	o  n	-0.2194534
-1.2786139	a  n	-0.30102018
-0.28895345	k  n	-0.2194534
-1.0417913	u  n	-0.2194534
-1.2058638	e  n	-0.2194534
-1.0150292	i  n	-0.2194534
-1.091696	a  n	-0.2194534
-1.0643781	,  n	-0.29607496
-0.9161631	  n	-0.2194534
-1.0868226	.  n	-0.2194534
-0.28895345	)  n	-0.2194534
-0.5361226	a í n	-0.2194534
-0.8128345	, í n	-0.2194534
-0.119063534	, i n	-0.2194534
-0.76005363	e ó n	-0.27209535
-0.8514681	i ó n	-0.2194534
-0.93918204	a ó n	-0.2194534
-0.93918204	, ó n	-0.2194534
-0.47133508	, ë n	-0.2194534
-0.6866101	, ä n	-0.2194534
-0.2570553	m ç n	-0.2194534
-0.3766892	b ç n	-0.2194534
-1.0849396	e ] n	-0.2194534
-1.1825831	. ] n	-0.2194534
-0.28646353	a x n	-0.2194534
-0.85439086	e à n	-0.2194534
-0.6991401	. à n	-0.2194534
-0.76970804	u ò n	-0.2194534
-0.8223724	e ò n	-0.4770664
-0.95769435	i ò n	-0.2194534
-0.982654	, ò n	-0.2194534
-0.8838613	. ò n	-0.2194534
-0.8964304	e ô n	-0.25832465
-1.0330552	, ô n	-0.2194534
-0.7073659	, á n	-0.2194534
-0.64352876	i ì n	-0.2194534
-0.51797277	a ì n	-0.2194534
-0.51797277	. ì n	-0.2194534
-0.119063534	e y n	-0.2194534
-1.2104182	o o w	-0.59935284
-1.5643964	k o w	-0.41907445
-1.3405676	u o w	-0.5951426
-0.93509203	n o w	-0.58287805
-1.5627396	w o w	-0.31027055
-1.2867365	e o w	-0.6066204
-1.8268629	g o w	-0.2194534
-1.2821639	i o w	-0.5613228
-1.189026	a o w	-0.75185466
-1.7991881	p o w	-0.2194534
-1.550915	m o w	-0.28343517
-1.5555196	y o w	-0.2194534
-1.5955453	l o w	-0.2194534
-1.6059741	b o w	-0.4487183
-1.5130968	- o w	-0.30102018
-1.4133584	s o w	-0.68791974
-1.685893	t o w	-0.2194534
-1.6270952	r o w	-0.30102018
-1.3715755	, o w	-0.41188067
-1.5964319	f o w	-0.2194534
-1.3425236	. o w	-0.44711214
-1.4531729	) o w	-0.2194534
-0.9956807	 o w	-0.30102018
-1.1192745	o k w	-0.6545672
-1.3624434	k k w	-0.2194534
-1.6507903	u k w	-0.25832465
-1.0256802	w k w	-0.2194534
-1.5795352	e k w	-0.25832465
-1.5701518	i k w	-0.37329382
-1.3783116	a k w	-0.36953706
-1.7206125	, k w	-0.2194534
-1.93256	k u w	-0.27209535
-1.6102289	w u w	-0.2194534
-1.841568	e u w	-0.2194534
-1.7651343	a u w	-0.30102018
-1.8289566	p u w	-0.27209535
-1.5289762	b u w	-0.639806
-1.9329107	r u w	-0.2194534
-1.6985807	j u w	-0.27209535
-1.4304662	, u w	-0.2194534
-1.0085301	o n w	-0.898507
-0.81669855	k n w	-0.27209535
-0.94139636	u n w	-0.7780964
-0.8056292	n n w	-0.48540947
-1.0201136	w n w	-0.2194534
-1.0341926	e n w	-0.77985746
-1.1777886	i n w	-0.8692578
-0.9600132	a n w	-0.92598546
-0.7816102	p n w	-0.2194534
-0.8281874	m n w	-0.41188067
-0.66426724	y n w	-0.35212767
-0.6915804	d n w	-0.2194534
-0.76522803	l n w	-0.30102018
-0.95739096	- n w	-0.2194534
-0.63624114	s n w	-0.65315765
-0.57343096	t n w	-0.4770664
-1.2247431	r n w	-0.2194534
-0.93732446	, n w	-0.5739764
-0.56594336	 n w	-0.31497067
-0.8247123	. n w	-0.53507763
-0.5534513	h n w	-0.2194534
-0.671885	) n w	-0.2194534
-1.178422	 n w	-0.2194534
-0.45870933	ó n w	-0.35212767
-0.53200054	] n w	-0.30102018
-0.29402247	x n w	-0.2194534
-0.26852006	ò n w	-0.41188067
-0.785941	ô n w	-0.2194534
-0.29402247	á n w	-0.2194534
-1.8127546	o w w	-0.2194534
-1.2831565	k w w	-0.2194534
-1.4576901	k e w	-0.5580088
-1.701979	u e w	-0.30102018
-1.6864477	n e w	-0.28343517
-1.7829491	e e w	-0.27209535
-1.5863601	i e w	-0.61600065
-2.0342507	a e w	-0.2194534
-1.6084931	m e w	-0.4263423
-1.4137926	y e w	-0.5580088
-1.7116352	d e w	-0.2194534
-1.6976326	l e w	-0.2194534
-1.6413645	b e w	-0.66150075
-1.5627952	- e w	-0.4770664
-1.5777645	s e w	-0.48348042
-2.0059037	t e w	-0.2194534
-1.6888584	r e w	-0.2194534
-0.9583429	z e w	-0.30102018
-0.989272	o g w	-0.87500644
-1.2160491	u g w	-0.35212767
-1.4085476	n g w	-0.29411256
-0.99955964	w g w	-0.2194534
-1.688174	e g w	-0.2194534
-0.947656	i g w	-0.65315765
-1.0836022	a g w	-0.6153691
-1.4206688	o i w	-0.49823254
-1.7463208	k i w	-0.29607496
-1.6876819	u i w	-0.30102018
-1.4366597	n i w	-0.45082468
-1.4064169	e i w	-0.65315765
-1.6839228	g i w	-0.2194534
-1.4120597	i i w	-0.6113005
-1.5842493	a i w	-0.4863618
-1.890381	p i w	-0.2194534
-1.6285672	m i w	-0.56733024
-1.7758195	l i w	-0.2194534
-1.9281011	b i w	-0.27209535
-1.7422998	s i w	-0.31497067
-1.5985806	t i w	-0.30102018
-1.5860153	r i w	-0.34292653
-1.8810709	j i w	-0.2194534
-1.5098636	, i w	-0.4770664
-2.057856	f i w	-0.2194534
-1.1773279	 i w	-0.2194534
-1.3769871	. i w	-0.4770664
-1.6045583	h i w	-0.2194534
-1.4633542	 i w	-0.2194534
-1.6170324	o a w	-0.41188067
-1.679495	k a w	-0.37329382
-1.4300644	u a w	-0.34292653
-1.5525628	n a w	-0.5921539
-1.5725657	w a w	-0.49106193
-1.4122658	e a w	-0.49236962
-1.7643937	g a w	-0.2194534
-1.4470155	i a w	-0.5067863
-1.2832332	a a w	-0.6895295
-1.8297251	p a w	-0.30102018
-1.5715072	m a w	-0.5525438
-1.2801075	y a w	-0.35406694
-1.2304605	d a w	-0.6591006
-1.7776288	l a w	-0.27209535
-1.6000783	b a w	-0.37721732
-1.3941914	- a w	-0.4101389
-2.0238814	s a w	-0.2194534
-1.9709519	t a w	-0.2194534
-1.6261553	r a w	-0.29411256
-1.6457105	, a w	-0.28343517
-1.4786845	. a w	-0.4770664
-2.3679829	i m w	-0.2194534
-2.4632654	a m w	-0.2194534
-1.7237241	n y w	-0.2194534
-1.2772745	b y w	-0.2194534
-2.3636463	o b w	-0.2194534
-2.1902745	u b w	-0.2194534
-1.3172588	o - w	-0.4770664
-1.6750909	u - w	-0.2194534
-1.3475016	n - w	-0.30102018
-1.4121169	i - w	-0.31497067
-1.6341689	a - w	-0.30102018
-2.0188441	o s w	-0.35212767
-1.4235696	k s w	-0.2194534
-2.0066867	a s w	-0.27209535
-2.1984262	a t w	-0.2194534
-1.327045	p t w	-0.2194534
-1.6938245	s t w	-0.2194534
-1.7481047	. t w	-0.2194534
-2.2139144	a r w	-0.2194534
-2.0318992	i j w	-0.2194534
-1.561849	o , w	-0.29411256
-1.462327	k , w	-0.2194534
-1.6245006	u , w	-0.35212767
-1.4808972	e , w	-0.5809407
-1.470958	i , w	-0.61600065
-1.4998828	a , w	-0.72010446
-1.4881165	m , w	-0.30102018
-1.4751353	,  w	-0.2194534
-1.421793	u . w	-0.4770664
-1.5048672	e . w	-0.71291065
-1.445626	i . w	-0.65315765
-1.5843428	a . w	-0.49106193
-1.5872085	m . w	-0.2194534
-1.4017645	 . w	-0.2194534
-1.2934167	e  w	-0.30102018
-1.3314949	a  w	-0.2194534
-1.3834465	,  w	-0.30102018
-1.3284007	.  w	-0.2194534
-0.82941407	, ö w	-0.2194534
-1.0531584	e ô w	-0.30102018
-1.0202543	i ô w	-0.2194534
-0.5619967	a ì w	-0.2194534
-0.5619967	, ì w	-0.2194534
-2.0648396	o o e	-0.2194534
-1.8297952	k o e	-0.2620372
-2.0732245	u o e	-0.2194534
-1.6935537	n o e	-0.25026712
-1.6056645	w o e	-0.2502671
-1.6217672	g o e	-0.2194534
-2.195471	i o e	-0.2194534
-1.699333	p o e	-0.2194534
-1.8439713	m o e	-0.2194534
-1.6142876	y o e	-0.21945335
-1.6431954	l o e	-0.25832465
-1.3543334	b o e	-0.55853176
-1.429079	s o e	-0.42603868
-1.9992347	t o e	-0.2194534
-1.5727003	r o e	-0.2620372
-1.8174793	j o e	-0.2194534
-1.999906	, o e	-0.2194534
-1.4882889	h o e	-0.2194534
-1.0911769	o k e	-0.5331592
-1.0318907	k k e	-0.2194534
-1.1571472	u k e	-0.40521944
-1.0155972	n k e	-0.3262466
-0.9413078	w k e	-0.2194534
-0.7541754	e k e	-0.74415296
-0.8608986	i k e	-0.6986037
-0.9602189	a k e	-0.6176407
-0.74709976	p k e	-0.35212767
-0.89034986	y k e	-0.2194534
-0.9133834	- k e	-0.2194534
-0.77251804	s k e	-0.31497067
-0.54190195	t k e	-0.2194534
-0.87059164	r k e	-0.2194534
-1.1370167	, k e	-0.28343517
-1.2653031	. k e	-0.35212767
-1.4798969	k u e	-0.24588466
-1.556739	u u e	-0.2194534
-1.6154492	n u e	-0.2194534
-1.3980727	w u e	-0.2194534
-1.363204	i u e	-0.2194534
-1.6107737	p u e	-0.23458701
-1.6612222	m u e	-0.2194534
-1.0729233	y u e	-0.2194534
-1.1911733	d u e	-0.45683497
-1.6991369	l u e	-0.2194534
-1.5418805	b u e	-0.3734813
-1.7118757	t u e	-0.2194534
-1.6354387	r u e	-0.2194534
-1.8328719	j u e	-0.2194534
-1.339235	, u e	-0.2194534
-1.4259614	h u e	-0.2194534
-1.1082629	o n e	-0.6836934
-1.3549376	u n e	-0.31888855
-1.0477853	n n e	-0.31027055
-1.1127776	w n e	-0.2194534
-0.9728559	e n e	-0.6932604
-1.1324445	i n e	-0.6157149
-1.1111388	a n e	-0.5459522
-0.8341141	p n e	-0.2194534
-1.3471836	m n e	-0.2194534
-1.1046476	b n e	-0.2194534
-1.0276775	- n e	-0.30102018
-0.7026321	r n e	-0.26662508
-0.7337591	j n e	-0.2194534
-1.1795759	, n e	-0.30509552
-1.068877	. n e	-0.4770664
-0.3104204	ë n e	-0.2194534
-0.28223795	à n e	-0.30102018
-0.5572355	ô n e	-0.30102018
-0.726864	o w e	-0.7062495
-0.43963337	k w e	-0.5439851
-0.6095053	u w e	-0.37329382
-0.53699595	n w e	-0.66510344
-0.61789757	w w e	-0.2194534
-0.8006042	e w e	-0.5580088
-0.80993843	g w e	-0.26417297
-0.65977776	i w e	-0.59710497
-0.7917533	a w e	-0.6743238
-0.509978	m w e	-0.2194534
-0.39251974	y w e	-0.2194534
-0.49307388	s w e	-0.2194534
-0.71625525	t w e	-0.2194534
-0.2695642	j w e	-0.2194534
-0.7759331	, w e	-0.2194534
-0.24620588	ì w e	-0.30102018
-1.8443213	o e e	-0.2194534
-1.6183153	k e e	-0.27784172
-1.801268	u e e	-0.2194534
-1.7448443	n e e	-0.2473737
-1.7275307	w e e	-0.2194534
-1.7466773	e e e	-0.3079394
-1.5918677	g e e	-0.2194534
-1.5111779	i e e	-0.34732834
-1.7747332	p e e	-0.2194534
-1.5849541	m e e	-0.421421
-1.3552654	y e e	-0.5193308
-1.9119561	d e e	-0.2194534
-1.4833952	l e e	-0.2194534
-1.4843214	b e e	-0.5351467
-1.6644135	- e e	-0.3079394
-1.5025787	s e e	-0.44330427
-1.4055847	r e e	-0.2560766
-1.5363493	f e e	-0.30102018
-1.4829504	h e e	-0.2194534
-0.91328317	<s> g e	-0.2194534
-0.9822263	o g e	-0.6113005
-0.8064303	k g e	-0.2194534
-0.7441633	u g e	-0.4263423
-0.72252476	n g e	-0.3688783
-0.82689154	e g e	-0.34920257
-0.52756083	g g e	-0.2194534
-1.022432	i g e	-0.49236962
-1.0292554	a g e	-0.4221078
-0.95808476	m g e	-0.2194534
-0.6563791	d g e	-0.2194534
-0.9128183	b g e	-0.2194534
-0.743937	s g e	-0.2194534
-0.52756083	t g e	-0.2194534
-0.7561482	, g e	-0.44024062
-0.52756083	 g e	-0.2194534
-0.900187	. g e	-0.35212767
-0.9916501	) g e	-0.2194534
-1.4912193	o i e	-0.24123786
-1.3755875	k i e	-0.37705904
-1.6642705	u i e	-0.2194534
-1.498195	n i e	-0.3543964
-1.9921196	e i e	-0.2194534
-0.72840923	g i e	-0.56159097
-1.8926837	i i e	-0.2194534
-2.0386019	a i e	-0.2194534
-1.7223976	p i e	-0.2502671
-1.132902	m i e	-0.6644695
-1.382408	y i e	-0.30102018
-0.8922852	d i e	-0.55694485
-1.3968325	l i e	-0.23630151
-0.9696601	b i e	-0.7348664
-1.725813	s i e	-0.26556057
-1.5779403	t i e	-0.30102018
-1.3991046	r i e	-0.38028944
-1.6057898	j i e	-0.25639257
-1.2918686	z i e	-0.2194534
-1.8596538	, i e	-0.2194534
-1.276062	f i e	-0.41510788
-0.6035336	c i e	-0.2194534
-1.2987186	h i e	-0.23318923
-1.4137279	v i e	-0.2194534
-1.497365	k a e	-0.3496631
-1.5887405	u a e	-0.29076362
-1.5544231	n a e	-0.44897932
-2.0758367	w a e	-0.2194534
-1.7429307	e a e	-0.29607496
-1.7705652	g a e	-0.2194534
-1.795387	i a e	-0.38735372
-1.9217016	a a e	-0.2194534
-1.8343987	p a e	-0.2194534
-1.4783546	m a e	-0.54697204
-1.6666381	y a e	-0.24497722
-1.5898397	d a e	-0.29997054
-1.3207486	l a e	-0.40521947
-1.517306	b a e	-0.3120537
-1.7528598	- a e	-0.27209535
-1.526276	s a e	-0.31027055
-1.976948	t a e	-0.2194534
-1.63038	r a e	-0.27163678
-1.629067	f a e	-0.30102018
-1.4656444	 a e	-0.2194534
-0.97447324	o p e	-0.5148672
-0.6770929	k p e	-0.5470333
-0.87030625	u p e	-0.4532734
-1.0212882	n p e	-0.25832465
-0.9286543	w p e	-0.2194534
-0.8482044	e p e	-0.4568632
-0.81951517	i p e	-0.63458484
-0.84226793	a p e	-0.62735957
-0.9286543	- p e	-0.2194534
-0.8045045	t p e	-0.2194534
-1.0182457	, p e	-0.2971691
-1.1508607	) p e	-0.2194534
-0.5668435	x p e	-0.2194534
-0.9501657	o m e	-0.64890075
-0.8167272	k m e	-0.2194534
-0.96490043	u m e	-0.55051327
-0.68981045	n m e	-0.40552217
-0.8208381	e m e	-0.7021943
-0.89361966	i m e	-0.74684
-0.9448164	a m e	-0.7706268
-0.80923724	m m e	-0.27209535
-0.8475821	l m e	-0.2502671
-0.86549914	b m e	-0.2194534
-1.0648991	s m e	-0.2194534
-0.78472036	t m e	-0.3368773
-0.71018773	r m e	-0.29607496
-0.7041096	j m e	-0.2194534
-0.89628786	, m e	-0.427605
-0.76911896	. m e	-0.37235034
-0.29724672	v m e	-0.2194534
-1.1023544	( m e	-0.2194534
-0.7640249	) m e	-0.30102018
-0.94421846	ò m e	-0.2194534
-0.14987813	<s> y e	-0.25832465
-0.41835296	o y e	-0.7501112
-0.7187951	k y e	-0.2194534
-0.17774458	u y e	-0.4878652
-0.7004571	n y e	-0.4835835
-0.28124404	e y e	-0.72129613
-0.5081617	g y e	-0.2194534
-0.45241514	i y e	-0.7555211
-0.39296588	a y e	-0.86149824
-0.64230794	m y e	-0.23630151
-0.14987813	y y e	-0.2194534
-0.441483	- y e	-0.25832465
-0.5119697	s y e	-0.2194534
-0.6875132	t y e	-0.2194534
-0.3211699	r y e	-0.2384543
-0.31580034	, y e	-0.47672027
-0.45811248	f y e	-0.2194534
-0.21899226	 y e	-0.30102018
-0.08945809	. y e	-0.41691315
-0.7413579	h y e	-0.2194534
-0.23899518	( y e	-0.2194534
-0.23899518	) y e	-0.2194534
-0.23899518	 y e	-0.2194534
-0.14987813	 y e	-0.2714404
-0.21405879	ó y e	-0.27209535
-0.8116066	o d e	-0.51036876
-0.8977299	k d e	-0.2194534
-0.88514864	u d e	-0.35406694
-0.40925783	n d e	-0.53678584
-0.6434578	w d e	-0.25832465
-0.71612287	e d e	-0.45137239
-0.5328293	g d e	-0.2194534
-0.7376192	i d e	-0.6002531
-0.7708209	a d e	-0.5920097
-0.58816755	m d e	-0.27209535
-0.74728847	b d e	-0.2194534
-0.74333733	- d e	-0.27209535
-0.92511725	s d e	-0.2194534
-0.70834434	, d e	-0.4112267
-0.8593365	 d e	-0.2194534
-0.5963865	. d e	-0.3843215
-0.44126567	) d e	-0.27209535
-0.9762698	 d e	-0.2194534
-0.5328293	ô d e	-0.2194534
-1.0971645	o l e	-0.5580088
-1.1630912	k l e	-0.2194534
-1.1893435	u l e	-0.2194534
-0.55735755	w l e	-0.2194534
-0.68847597	e l e	-0.62503767
-1.2393826	i l e	-0.2473737
-0.9977598	a l e	-0.4048494
-0.67680186	p l e	-0.2194534
-0.80739033	b l e	-0.2194534
-0.86172277	s l e	-0.2194534
-0.29616755	j l e	-0.2194534
-1.3045115	, l e	-0.2194534
-0.25106812	<s> b e	-0.3255257
-0.7119884	o b e	-0.70513386
-0.5621914	k b e	-0.31684506
-0.77433485	u b e	-0.49500418
-0.62015975	n b e	-0.40586078
-0.54695886	w b e	-0.23202784
-0.73262966	e b e	-0.6752074
-0.7614492	g b e	-0.5488765
-0.75357854	i b e	-0.76363325
-0.7235506	a b e	-0.9430174
-0.36720532	p b e	-0.23731327
-0.7245987	m b e	-0.30691665
-0.54695886	y b e	-0.2194534
-0.16291955	d b e	-0.30546618
-0.54511034	l b e	-0.2811403
-0.5436261	b b e	-0.27174255
-0.5839233	- b e	-0.28631696
-0.46573985	s b e	-0.39445743
-0.5236981	t b e	-0.3179205
-0.26249367	j b e	-0.2194534
-0.16291955	z b e	-0.26417297
-0.58886576	, b e	-0.46336114
-0.38355678	f b e	-0.2194534
-0.697374	 b e	-0.2194534
-0.6333564	. b e	-0.41615206
-0.33768472	( b e	-0.35212767
-0.48653144	) b e	-0.28343517
-0.38355678	 b e	-0.2194534
-0.67283094	 b e	-0.2194534
-0.61673504	ó b e	-0.2194534
-0.26249367	 b e	-0.2194534
-0.26249367	ç b e	-0.2194534
-0.23993021	] b e	-0.30102018
-0.6953025	ò b e	-0.25832465
-0.90306985	ô b e	-0.2194534
-0.49775213	á b e	-0.2194534
-0.26249367	x b e	-0.2194534
-0.77829176	o - e	-0.39073026
-0.5467013	u - e	-0.4114353
-0.8515165	n - e	-0.32308406
-0.70003825	e - e	-0.46395826
-0.7707089	i - e	-0.48424393
-0.7553079	a - e	-0.48986533
-0.47355548	m - e	-0.27209535
-0.27823368	y - e	-0.2194534
-0.57520425	r - e	-0.2194534
-0.30585727	h - e	-0.2194534
-1.1128942	<s> s e	-0.2194534
-0.86396897	o s e	-0.8471507
-0.89369035	k s e	-0.2194534
-0.6094206	u s e	-0.61244047
-0.7616011	n s e	-0.4146493
-0.6921195	w s e	-0.25832465
-0.73263824	e s e	-0.8043477
-0.86316	i s e	-0.8826623
-0.8505461	a s e	-0.8463983
-0.58763087	p s e	-0.2194534
-0.78887814	m s e	-0.25255406
-0.5323311	d s e	-0.2194534
-0.6628088	b s e	-0.2194534
-0.84122956	- s e	-0.2194534
-0.71655005	s s e	-0.2384543
-0.58763087	t s e	-0.2194534
-0.73314494	r s e	-0.2194534
-0.7420358	, s e	-0.59264433
-0.5160266	 s e	-0.2502671
-0.6564941	. s e	-0.4550761
-0.76225734	) s e	-0.2194534
-0.73531055	 s e	-0.30102018
-0.6454935	 s e	-0.27209535
-0.40873125	ó s e	-0.27209535
-0.28227392	v s e	-0.2194534
-0.8966376	ò s e	-0.2194534
-0.7549349	ô s e	-0.2194534
-0.28227392	ì s e	-0.2194534
-0.9549772	<s> t e	-0.30102018
-0.7679422	o t e	-0.70846546
-0.7894138	u t e	-0.42362025
-0.8865634	n t e	-0.33095765
-0.6571996	w t e	-0.2194534
-0.82760566	e t e	-0.65835327
-0.7412077	i t e	-0.6859188
-0.72691816	a t e	-0.8825232
-0.974987	p t e	-0.2194534
-0.88866186	m t e	-0.2194534
-0.6571996	d t e	-0.2194534
-0.85439456	l t e	-0.2194534
-0.8161112	- t e	-0.2194534
-1.0131713	s t e	-0.27209535
-0.68865913	t t e	-0.2194534
-0.82205987	, t e	-0.45949182
-0.96790123	. t e	-0.35629278
-0.27992967	( t e	-0.2194534
-0.95307887	) t e	-0.2194534
-0.7824911	 t e	-0.30102018
-1.0028036	 t e	-0.2194534
-0.27992967	& t e	-0.2194534
-0.50941324	] t e	-0.30102018
-0.24937028	à t e	-0.35212767
-0.7495656	ò t e	-0.2194534
-0.27992967	ì t e	-0.2194534
-1.4339801	o r e	-0.24123786
-1.131415	u r e	-0.2194534
-0.5453514	e r e	-0.73381835
-1.1452061	g r e	-0.2194534
-1.0078373	i r e	-0.31826907
-1.0231183	a r e	-0.26854792
-0.85545945	b r e	-0.27209535
-0.5388814	- r e	-0.2194534
-0.82651645	s r e	-0.2194534
-1.091328	t r e	-0.2194534
-0.5388814	r r e	-0.2194534
-0.4134381	z r e	-0.27209535
-0.9111229	, r e	-0.2194534
-0.7451491	f r e	-0.2194534
-0.6716782	. r e	-0.2194534
-0.5388814	( r e	-0.2194534
-1.1633699	<s> j e	-0.30102018
-0.7136919	o j e	-0.6089694
-0.917816	k j e	-0.2194534
-0.8768656	u j e	-0.31497067
-0.60146224	n j e	-0.25382975
-0.6963554	e j e	-0.5813621
-0.92663616	i j e	-0.48348042
-0.7450342	a j e	-0.57365704
-0.85801476	m j e	-0.30102018
-0.81833225	b j e	-0.2194534
-0.95107615	- j e	-0.2194534
-0.6206261	s j e	-0.30102018
-0.7654631	, j e	-0.42428714
-0.82537955	. j e	-0.5268022
-0.8822187	( j e	-0.2194534
-0.87055194	) j e	-0.30102018
-0.98329794	e z e	-0.2194534
-1.0655619	i z e	-0.31497067
-0.98352045	a z e	-0.30102018
-0.50275946	, z e	-0.41188067
-0.52113473	. z e	-0.2194534
-0.26187664	 z e	-0.30102018
-1.7981246	o , e	-0.2194534
-1.4418466	u , e	-0.29411256
-1.7277272	n , e	-0.2194534
-1.5145764	e , e	-0.53632104
-1.7247778	i , e	-0.28343517
-1.6426474	a , e	-0.34883347
-1.6430992	m , e	-0.2194534
-1.2523321	l , e	-0.2194534
-1.4226391	o f e	-0.27209535
-1.1418126	u f e	-0.2194534
-1.1353405	n f e	-0.2194534
-0.67421687	w f e	-0.2194534
-0.8417833	e f e	-0.3526189
-1.0619495	i f e	-0.29228267
-1.026483	a f e	-0.3704174
-0.94764966	m f e	-0.2194534
-0.8756136	s f e	-0.2194534
-0.8299711	t f e	-0.2194534
-1.0132244	, f e	-0.26459137
-0.9664535	. f e	-0.31497067
-1.4288275	i  e	-0.2194534
-1.4330342	,  e	-0.2194534
-1.8578423	o . e	-0.2194534
-1.3973272	k . e	-0.30102018
-1.7829404	u . e	-0.2194534
-1.516213	n . e	-0.2194534
-1.4369266	e . e	-0.50280154
-1.7535594	i . e	-0.25832465
-1.4658753	a . e	-0.28874105
-1.319398	m . e	-0.2194534
-0.23086937	<s> h e	-0.2194534
-0.31275284	o h e	-0.65315765
-0.14529544	u h e	-0.31497067
-0.43392965	n h e	-0.2194534
-0.6790307	e h e	-0.34292653
-0.55693805	g h e	-0.2194534
-0.42870122	i h e	-0.3476905
-0.55083156	a h e	-0.41188067
-0.23086937	m h e	-0.2194534
-0.23086937	- h e	-0.2194534
-0.4706607	s h e	-0.24497722
-0.14671558	t h e	-0.65315765
-0.22282846	, h e	-0.37329382
-0.4312293	. h e	-0.29411256
-0.76967716	c h e	-0.48558426
-1.1296237	o v e	-0.30102018
-1.1776354	i v e	-0.2194534
-1.1337714	a v e	-0.2194534
-1.5638816	k ) e	-0.2194534
-1.3500515	n ) e	-0.2194534
-1.3843445	. ) e	-0.27209535
-1.5622051	e  e	-0.2194534
-1.2402722	i  e	-0.2194534
-1.4720101	a  e	-0.2194534
-0.92032766	u  e	-0.30102018
-1.3495084	e  e	-0.2194534
-1.0382874	a  e	-0.30102018
-1.261214	,  e	-0.2194534
-0.99923545	  e	-0.2194534
-1.2136601	.  e	-0.2194534
-0.24963328	e  e	-0.2194534
-0.9333865	e [ e	-0.2194534
-0.9267042	a [ e	-0.2194534
-1.0372144	. [ e	-0.2194534
-0.3210737	[ ] e	-0.2194534
-1.2570201	o o g	-0.52582407
-1.5612065	k o g	-0.3476905
-1.339199	u o g	-0.5531368
-1.6462028	n o g	-0.31214452
-1.4289432	w o g	-0.3130294
-1.3244389	e o g	-0.59417266
-1.3264576	g o g	-0.31027055
-1.2488595	i o g	-0.64743876
-1.3162549	a o g	-0.6743238
-1.7934573	p o g	-0.2194534
-1.5473275	m o g	-0.27209535
-1.3991402	y o g	-0.2194534
-1.3527119	l o g	-0.29411256
-1.4534225	b o g	-0.5739764
-1.141088	- o g	-0.5739764
-1.6178212	s o g	-0.42428714
-1.7890288	t o g	-0.30102018
-1.3920832	r o g	-0.24497722
-1.4555193	, o g	-0.39700598
-1.6860664	. o g	-0.33050752
-1.4368517	h o g	-0.2194534
-1.2011433	( o g	-0.2194534
-0.6041728	ì o g	-0.2194534
-2.3847911	o k g	-0.2194534
-1.9057224	u k g	-0.27209535
-2.340709	a k g	-0.2194534
-1.5367999	o u g	-0.2194534
-1.8150479	k u g	-0.2502671
-1.7047548	e u g	-0.2194534
-0.7383392	g u g	-0.5739764
-1.8164626	a u g	-0.2194534
-1.6226248	p u g	-0.29607496
-1.6734173	m u g	-0.30102018
-1.8951805	d u g	-0.2194534
-1.4493526	l u g	-0.2194534
-1.3952355	b u g	-0.56159997
-1.5824035	s u g	-0.2194534
-1.6494801	r u g	-0.27209535
-1.6177887	j u g	-0.27209535
-1.5792826	. u g	-0.2194534
-1.4398764	h u g	-0.2194534
-1.5969229	<s> n g	-0.2194534
-1.3677397	o n g	-0.55338955
-1.3761617	u n g	-0.38531533
-1.2297424	n n g	-0.2194534
-0.90445715	w n g	-0.30102018
-1.2572366	e n g	-0.55540365
-1.3550143	i n g	-0.72465026
-1.1175458	a n g	-0.7758944
-1.3892858	m n g	-0.2194534
-1.1136564	y n g	-0.2194534
-1.0498754	- n g	-0.2194534
-1.4147339	s n g	-0.2194534
-1.3745421	r n g	-0.2194534
-0.9084377	, n g	-0.3973439
-0.96086395	. n g	-0.33050752
-2.0731332	o w g	-0.2194534
-1.8158718	o e g	-0.2194534
-1.6027974	k e g	-0.37329382
-1.6408206	u e g	-0.27209535
-1.6319174	n e g	-0.29607496
-1.7078212	w e g	-0.2194534
-1.8163133	e e g	-0.27209535
-1.5746197	g e g	-0.2194534
-1.5030854	i e g	-0.4863618
-1.9517949	a e g	-0.2194534
-1.7526516	p e g	-0.2194534
-1.4563388	m e g	-0.53901774
-1.3955888	y e g	-0.61600065
-1.7571222	d e g	-0.2194534
-1.6215694	l e g	-0.2194534
-1.4224964	b e g	-0.68028975
-1.4219303	- e g	-0.39132577
-1.4944755	s e g	-0.62231046
-1.7441525	r e g	-0.2194534
-1.7171516	j e g	-0.2194534
-1.518365	f e g	-0.2194534
-1.1777666	h e g	-0.31497067
-1.0826292	w g g	-0.2194534
-2.2023256	a g g	-0.2194534
-1.4101491	o i g	-0.30285138
-1.514961	k i g	-0.33053505
-1.3120787	u i g	-0.33095762
-1.498195	n i g	-0.46721506
-1.342932	w i g	-0.2194534
-1.3999796	e i g	-0.60596454
-1.5107268	g i g	-0.2194534
-1.1811115	i i g	-0.7158584
-1.160733	a i g	-0.7028934
-1.859018	p i g	-0.2194534
-1.4278991	m i g	-0.7147643
-1.382408	y i g	-0.25832465
-1.6238912	l i g	-0.30102018
-1.9016569	b i g	-0.2502671
-0.94473857	- i g	-0.25832465
-1.6273466	s i g	-0.3826348
-1.4751805	r i g	-0.37786278
-1.8501655	j i g	-0.2194534
-1.3897198	, i g	-0.37827402
-1.3752234	f i g	-0.54401314
-1.2541463	. i g	-0.32479325
-1.5765862	h i g	-0.2194534
-1.2416785	 i g	-0.2194534
-0.29138297	] i g	-0.30102018
-1.4981468	o a g	-0.3079394
-1.4200554	k a g	-0.41092974
-1.424729	u a g	-0.44711214
-1.4114493	n a g	-0.5092614
-1.4792442	w a g	-0.4532734
-1.306687	e a g	-0.51659423
-1.1555164	g a g	-0.4770664
-1.3384334	i a g	-0.6398869
-1.2799219	a a g	-0.5569127
-1.4649397	p a g	-0.41188067
-1.6204323	m a g	-0.4681946
-1.6483401	y a g	-0.27209535
-1.4279332	d a g	-0.44068262
-1.4440106	l a g	-0.4048494
-1.9224077	b a g	-0.25832465
-1.4936779	- a g	-0.29607496
-1.6259336	s a g	-0.41188067
-1.9509292	t a g	-0.2194534
-1.6119237	r a g	-0.28572476
-1.2812787	, a g	-0.36471707
-1.349755	f a g	-0.31027055
-1.4711086	. a g	-0.3079394
-1.2772797	o m g	-0.8292489
-1.1756346	u m g	-0.6671532
-1.1907455	n m g	-0.27209535
-1.232044	e m g	-0.6733803
-0.5904082	g m g	-0.2194534
-1.0472214	i m g	-0.7992625
-1.1788892	a m g	-0.69063425
-0.9692616	m m g	-0.4770664
-1.2881488	- m g	-0.2194534
-1.3620156	t m g	-0.2194534
-1.1463411	, m g	-0.4770664
-1.4043936	. m g	-0.30102018
-1.5928206	o y g	-0.2194534
-1.9421636	n y g	-0.2194534
-1.2475615	b y g	-0.2194534
-2.1832926	o d g	-0.2194534
-1.8370461	e d g	-0.2194534
-2.1290872	o l g	-0.2194534
-2.2362847	o b g	-0.2194534
-2.07678	u b g	-0.2194534
-1.963672	e b g	-0.2194534
-1.8669497	a b g	-0.27209535
-1.6116503	m b g	-0.2194534
-1.5867409	o - g	-0.30102018
-1.5303932	n - g	-0.2194534
-1.5836253	e - g	-0.30102018
-1.6770006	i - g	-0.2194534
-1.6207623	a - g	-0.30102018
-2.352901	o s g	-0.2194534
-1.8106498	a s g	-0.33095762
-1.8657517	, s g	-0.2194534
-1.8179196	i t g	-0.27209535
-0.923268	l j g	-0.2194534
-1.7104692	o , g	-0.30102018
-1.3595687	k , g	-0.2194534
-1.526602	u , g	-0.31497067
-1.4841194	n , g	-0.2194534
-1.4390616	e , g	-0.60561985
-1.5724294	i , g	-0.41188067
-1.5187517	a , g	-0.4423355
-1.5443954	m , g	-0.2194534
-0.9488569	d , g	-0.2194534
-1.3042419	s , g	-0.27209535
-1.1734686	t , g	-0.2194534
-1.3483527	. , g	-0.2194534
-1.6751868	e  g	-0.2194534
-1.6936204	.  g	-0.2194534
-0.29238102	<s> . g	-0.30102018
-1.795196	o . g	-0.2194534
-1.3607197	k . g	-0.27209535
-1.5945059	u . g	-0.27209535
-1.4755852	n . g	-0.2194534
-1.465581	e . g	-0.52053916
-1.7122036	i . g	-0.25832465
-1.5216049	a . g	-0.5739764
-1.4689755	m . g	-0.2194534
-1.3093953	. . g	-0.30102018
-2.0427706	c h g	-0.2194534
-1.2867033	i ( g	-0.2194534
-1.0238026	, ( g	-0.2194534
-1.449881	. ( g	-0.2194534
-1.2490474	o ) g	-0.2194534
-1.2278614	k ) g	-0.27209535
-1.2629019	- ) g	-0.2194534
-1.115952	, ) g	-0.2194534
-1.3953753	. ) g	-0.30102018
-1.1471224	 ) g	-0.2194534
-1.2389607	k  g	-0.2194534
-1.4907993	e  g	-0.2194534
-1.1923286	i  g	-0.2194534
-1.3092191	.  g	-0.2194534
-1.5446779	e  g	-0.2194534
-1.6074094	,  g	-0.2194534
-1.3768249	.  g	-0.2194534
-0.3061945	i ö g	-0.2194534
-1.272691	e ó g	-0.2194534
-1.0994154	e ] g	-0.2194534
-1.2002352	. ] g	-0.2194534
-0.67821515	i x g	-0.2194534
-1.072243	e ò g	-0.35212767
-0.9286796	a ò g	-0.2194534
-0.98830837	. ò g	-0.2194534
-0.7204967	o ô g	-0.2194534
-0.9940951	e ô g	-0.30102018
-0.88810575	a ô g	-0.2194534
-0.21356404	m ' g	-0.2194534
-1.8651112	o o i	-0.2194534
-1.5590929	k o i	-0.2770162
-1.398243	u o i	-0.29411256
-1.5151496	n o i	-0.26861152
-1.2468165	w o i	-0.29412675
-1.9134125	e o i	-0.2502671
-1.5810523	g o i	-0.27209535
-1.6985266	i o i	-0.25933802
-2.165444	a o i	-0.2194534
-1.6492127	p o i	-0.2194534
-1.5449522	m o i	-0.21945335
-1.5463846	y o i	-0.2194534
-1.6202899	d o i	-0.2194534
-1.2447873	l o i	-0.26653457
-1.3751588	b o i	-0.51576966
-1.4015342	- o i	-0.27209535
-1.4690671	s o i	-0.40418312
-1.786337	t o i	-0.2194534
-1.5268736	r o i	-0.25520787
-1.4752916	j o i	-0.27209535
-1.9246098	, o i	-0.2194534
-1.0476384	f o i	-0.3368773
-1.4339013	h o i	-0.2194534
-1.5619309	<s> k i	-0.2194534
-0.95346665	o k i	-0.7355896
-0.97755146	k k i	-0.25832465
-0.9784858	u k i	-0.47601837
-0.869995	n k i	-0.3368773
-0.8875271	w k i	-0.2194534
-0.98241675	e k i	-0.45768476
-0.8664869	i k i	-0.65299755
-0.9429749	a k i	-0.52970994
-0.4085318	p k i	-0.26781154
-0.79681873	m k i	-0.2194534
-0.60417575	y k i	-0.2194534
-0.499361	d k i	-0.25832465
-0.68669003	l k i	-0.2194534
-0.74329466	s k i	-0.25832465
-0.89479387	t k i	-0.2194534
-1.0161614	r k i	-0.2194534
-0.9091787	, k i	-0.45683497
-0.8433783	 k i	-0.2194534
-1.0685753	. k i	-0.3476905
-0.89479387	) k i	-0.2194534
-0.8470519	ó k i	-0.2194534
-1.3159386	o u i	-0.2194534
-1.3844076	k u i	-0.2849961
-1.0694965	u u i	-0.29411256
-1.4095188	n u i	-0.27209535
-1.6138268	w u i	-0.2194534
-1.4111941	e u i	-0.2194534
-1.5090932	i u i	-0.2194534
-1.1187235	a u i	-0.36888987
-1.6722796	p u i	-0.26781154
-1.529706	m u i	-0.25832465
-1.4185252	l u i	-0.25832465
-1.3408837	b u i	-0.51673996
-1.2252219	t u i	-0.25832465
-1.2719057	r u i	-0.2473737
-1.2592282	j u i	-0.45683497
-1.3603426	. u i	-0.2194534
-1.3954781	h u i	-0.2194534
-0.6004688	v u i	-0.2194534
-1.0628874	o n i	-0.5684167
-1.1885467	k n i	-0.2194534
-1.2883607	u n i	-0.33847243
-1.0345838	n n i	-0.2194534
-1.0910428	w n i	-0.2194534
-1.0560355	e n i	-0.57100534
-1.0379366	i n i	-0.92855847
-0.87051785	a n i	-0.96189284
-0.8222357	p n i	-0.2194534
-1.1485976	m n i	-0.27209535
-0.72430503	d n i	-0.2194534
-1.0857123	b n i	-0.2194534
-1.1681952	s n i	-0.2194534
-1.309991	r n i	-0.2194534
-0.72430503	j n i	-0.2194534
-1.1664689	, n i	-0.27209535
-1.1368594	 n i	-0.2194534
-1.2179785	. n i	-0.25832465
-0.5770134	í n i	-0.2194534
-0.30682936	ä n i	-0.2194534
-1.621203	o w i	-0.2194534
-0.9951364	k w i	-0.2194534
-1.683744	n w i	-0.2194534
-1.3206522	e w i	-0.2194534
-1.6106888	i w i	-0.2194534
-1.5479314	a w i	-0.2194534
-0.56408024	b w i	-0.2194534
-1.1954758	, w i	-0.2194534
-1.0783458	. w i	-0.2194534
-1.3173265	o e i	-0.3235992
-1.3514266	k e i	-0.42459068
-1.5222694	u e i	-0.26459137
-1.4825342	n e i	-0.26566988
-0.6543501	w e i	-0.4214681
-1.4813315	e e i	-0.29141852
-1.0066974	g e i	-0.42402744
-1.3999763	i e i	-0.43715036
-1.4393427	a e i	-0.40521947
-1.1360785	p e i	-0.3300183
-1.4977984	m e i	-0.46515423
-1.3426777	y e i	-0.46887612
-0.974	d e i	-0.43818465
-1.5927026	l e i	-0.2194534
-1.3231912	b e i	-0.6024311
-1.4078819	- e i	-0.3381405
-1.21973	s e i	-0.6531609
-1.1540673	t e i	-0.467735
-1.1944509	r e i	-0.29121065
-1.6952484	j e i	-0.2194534
-1.2976083	, e i	-0.2194534
-1.236856	f e i	-0.41188067
-1.6136589	h e i	-0.2194534
-0.761127	<s> g i	-0.30102018
-1.1804874	o g i	-0.5580088
-1.2119462	u g i	-0.2194534
-0.6590029	n g i	-0.41568768
-0.88917065	w g i	-0.2194534
-0.8405967	e g i	-0.38962755
-0.5506424	g g i	-0.2194534
-1.0939484	i g i	-0.4080559
-0.8517194	a g i	-0.7158584
-1.1173161	m g i	-0.2194534
-0.7813072	y g i	-0.2194534
-0.96826696	b g i	-0.2194534
-0.9946046	- g i	-0.2194534
-1.0553961	. g i	-0.30102018
-1.4796898	o i i	-0.28572476
-1.2623351	k i i	-0.3762122
-1.2178347	u i i	-0.29116297
-1.4117246	n i i	-0.43482584
-1.2676439	e i i	-0.43520927
-1.6266538	g i i	-0.2194534
-1.4495769	i i i	-0.29580286
-1.5090826	a i i	-0.35671997
-1.3535956	p i i	-0.25933802
-1.4213023	m i i	-0.52749807
-1.4736954	y i i	-0.2194534
-1.9010379	d i i	-0.2194534
-1.5141108	l i i	-0.24123786
-1.3659059	b i i	-0.3211164
-1.4134884	s i i	-0.30415165
-1.7027934	t i i	-0.2194534
-1.3246019	r i i	-0.37671566
-1.4449666	j i i	-0.27209535
-1.3798742	, i i	-0.34503263
-1.494757	f i i	-0.3405062
-0.89117247	 i i	-0.2194534
-1.4970239	. i i	-0.2714404
-1.5520256	h i i	-0.21945335
-1.3997577	v i i	-0.2194534
-1.0763155	 i i	-0.2194534
-1.4205737	 i i	-0.2194534
-1.3893363	o a i	-0.27784172
-1.2057977	k a i	-0.39911678
-1.6451287	u a i	-0.25832465
-1.3573763	n a i	-0.57623935
-1.276669	w a i	-0.4798478
-1.4486866	e a i	-0.2971691
-1.2181579	g a i	-0.3070289
-1.4657755	i a i	-0.4116376
-1.8499155	a a i	-0.2502671
-1.0881298	p a i	-0.44864002
-1.2591478	m a i	-0.5579444
-1.5947502	y a i	-0.2502671
-1.5475733	d a i	-0.31763673
-1.3523088	l a i	-0.33902338
-1.3092583	b a i	-0.32644176
-1.4580209	- a i	-0.34256095
-0.9741411	s a i	-0.6382208
-1.0921793	t a i	-0.50813675
-1.3475919	r a i	-0.28281912
-0.84662265	j a i	-0.49106193
-0.94377315	z a i	-0.4770664
-1.4517798	, a i	-0.27784172
-1.2409295	f a i	-0.34334478
-1.2487115	. a i	-0.24123786
-1.332092	h a i	-0.2194534
-0.24900693	v a i	-0.41903886
-1.4287478	) a i	-0.2194534
-1.1962975	 a i	-0.30102018
-0.7143656	o p i	-0.814891
-1.1335547	k p i	-0.27209535
-0.63991004	u p i	-0.5155703
-0.63225275	n p i	-0.32377958
-0.5850625	w p i	-0.30102018
-0.59094644	e p i	-0.7634275
-0.6140816	i p i	-0.60175353
-0.7151241	a p i	-0.743901
-0.6644483	p p i	-0.2194534
-0.631774	m p i	-0.2194534
-0.25558615	y p i	-0.2194534
-0.48594558	d p i	-0.2194534
-0.6729153	b p i	-0.2194534
-0.7640232	- p i	-0.2194534
-0.71877205	s p i	-0.2194534
-0.6729153	t p i	-0.2194534
-0.23378822	r p i	-0.2194534
-0.52084905	, p i	-0.6156349
-0.58858573	 p i	-0.2194534
-0.54584056	. p i	-0.5334316
-0.32208148	) p i	-0.35212767
-0.48594558	 p i	-0.2194534
-0.51434857	ó p i	-0.27209535
-0.23378822	] p i	-0.30102018
-0.48594558	x p i	-0.2194534
-0.25558615	w p i	-0.2194534
-0.25558615	à p i	-0.2194534
-0.24092941	ò p i	-0.30102018
-0.40469068	ô p i	-0.35212767
-0.20458873	<s> m i	-0.47709024
-0.70122457	o m i	-0.8672596
-0.595114	k m i	-0.27185392
-0.7431047	u m i	-0.6793672
-0.72161824	n m i	-0.40672937
-0.62078744	w m i	-0.25832465
