\data\
ngram 1=110
ngram 2=479
ngram 3=2603
ngram 4=10110
ngram 5=27813

\1-grams:
-2.5335438	<unk>	0
0	<s>	-3.251334
-1.1833763	</s>	0
-2.4847658	WARNING:	-0.16424198
-2.4847658	Logging	-0.16424198
-2.4847658	before	-0.16424198
-2.4847658	flag	-0.16424198
-2.4847658	parsing	-0.16424198
-2.4847658	goes	-0.16424198
-2.5335438	to	-0.16424194
-2.4847658	stderr.	-0.16424198
-2.4847658	W0722	-0.16424194
-2.4847658	08:08:32.174363	-0.16424198
-2.5335438	4630754752	-0.42414674
-2.4847658	deprecation_wrapper.py:119]	-0.16424198
-2.176837	From	-0.16424194
-2.4847658	rnn_play.py:52:	-0.16424198
-2.176837	The	-0.65303785
-2.4847658	name	-0.16424198
-2.4847658	tf.Session	-0.16424198
-2.5335438	is	-0.42414674
-2.4847658	deprecated.	-0.16424198
-2.4847658	Please	-0.16424198
-2.4847658	use	-0.16424198
-2.4847658	tf.compat.v1.Session	-0.16424198
-2.176837	instead.	-0.65303785
-2.4847658	2019-07-22	-0.16424198
-2.4847658	08:08:32.216630:	-0.16424198
-2.4847658	I	-0.16424198
-2.4847658	tensorflow/core/platform/cpu_feature_guard.cc:142]	-0.16424198
-2.4847658	Your	-0.16424198
-2.4847658	CPU	-0.16424198
-2.4847658	supports	-0.16424198
-2.4847658	instructions	-0.16424198
-2.4847658	that	-0.16424198
-2.176837	this	-0.16424198
-2.4847658	TensorFlow	-0.16424198
-2.4847658	binary	-0.16424198
-2.4847658	was	-0.16424198
-2.4847658	not	-0.16424198
-2.4847658	compiled	-0.16424198
-2.4847658	use:	-0.16424198
-2.4847658	AVX2	-0.16424198
-2.4847658	FMA	-0.16424198
-2.4847658	08:08:32.219285	-0.16424198
-2.4847658	rnn_play.py:54:	-0.16424198
-2.4847658	tf.train.import_meta_graph	-0.16424198
-2.4847658	tf.compat.v1.train.import_meta_graph	-0.16424198
-2.4847658	08:08:32.841989	-0.16424198
-2.4847658	deprecation.py:323]	-0.16424198
-2.4847658	/anaconda3/lib/python3.7/site-packages/tensorflow/python/training/saver.py:1276:	-0.16424198
-2.4847658	checkpoint_exists	-0.16424198
-2.4847658	(from	-0.16424198
-2.4847658	tensorflow.python.training.checkpoint_management)	-0.16424198
-2.4847658	deprecated	-0.16424198
-2.4847658	and	-0.16424198
-2.4847658	will	-0.16424198
-2.4847658	be	-0.16424198
-2.4847658	removed	-0.16424198
-2.4847658	in	-0.16424198
-1.2425511	a	-1.0841018
-2.4847658	future	-0.16424198
-2.4847658	version.	-0.16424198
-2.4847658	Instructions	-0.16424198
-2.176837	for	-0.16424198
-2.4847658	updating:	-0.16424198
-2.4847658	Use	-0.16424198
-2.4847658	standard	-0.16424198
-2.4847658	file	-0.16424198
-2.4847658	APIs	-0.16424198
-2.4847658	check	-0.16424198
-2.4847658	files	-0.16424198
-2.4847658	with	-0.16424198
-2.4847658	prefix.	-0.16424198
-1.5219085	m	-0.7338706
-1.2929076	i	-1.0697514
-1.3300459	e	-1.0182642
-1.8109782	y	-0.6070163
-1.3498783	b	-0.9811549
-1.3924859	u	-0.8033233
-1.2586964	o	-1.0147531
-1.7559456	r	-0.68586236
-1.6233491	s	-0.72287554
-1.7559456	k	-0.6424558
-1.4927545	n	-0.72047806
-1.7559456	d	-0.77655256
-1.8109782	p	-0.7611751
-1.5868388	,	-0.81799436
-1.7559456	.	-0.6095286
-1.8109782	c	-0.54980814
-2.5335438	h	-0.3618927
-1.7559456	w	-0.604003
-1.8109782	l	-0.6660368
-1.8740103	g	-0.7479227
-1.6632128	t	-0.7551721
-2.0366716	-	-0.3564273
-1.9477696	f	-0.6040245
-1.6632128	j	-0.83502764
-2.5335438	z	-0.30104
-2.1485832	v	-0.39309722
-2.176837	)	-0.65303785
-2.4847658	pii	-0.16424198
-2.4847658	ss	-0.16424198
-2.4847658	yaa	-0.16424198
-2.4847658	diu	-0.16424198
-2.4847658	ork	-0.16424198
-2.4847658	rie	-0.16424198
-2.176837	yye	-0.16424198
-2.4847658	jo	-0.16424198
-2.4847658	ll	-0.16424198

\2-grams:
-3.6025784	<s> </s>	0
-0.44392967	stderr. </s>	0
-0.101130836	instead. </s>	0
-0.44392967	FMA </s>	0
-1.1949631	a </s>	0
-0.44392967	version. </s>	0
-0.44392967	updating: </s>	0
-0.44392967	prefix. </s>	0
-1.0497668	m </s>	0
-1.1377666	i </s>	0
-1.1330845	e </s>	0
-0.8204723	y </s>	0
-0.900884	b </s>	0
-1.0324124	u </s>	0
-1.1219802	o </s>	0
-0.88867885	r </s>	0
-0.8905116	s </s>	0
-0.9608121	k </s>	0
-1.1140693	n </s>	0
-0.85022885	d </s>	0
-0.7945709	p </s>	0
-1.0119002	, </s>	0
-0.9305128	. </s>	0
-0.6940597	c </s>	0
-1.2432177	h </s>	0
-0.88830197	w </s>	0
-0.83718383	l </s>	0
-0.89754057	g </s>	0
-0.9137653	t </s>	0
-0.79134345	- </s>	0
-0.87526023	f </s>	0
-0.7963401	j </s>	0
-1.0188303	z </s>	0
-5.175589	<s> WARNING:	-0.3047334
-0.49875247	WARNING: Logging	-0.3047334
-0.49875247	Logging before	-0.3047334
-0.49875247	before flag	-0.3047334
-0.49875247	flag parsing	-0.3047334
-0.49875247	parsing goes	-0.3047334
-0.49907905	goes to	-0.3047334
-0.49907905	compiled to	-0.3047334
-0.49907905	APIs to	-0.3047334
-0.9697713	to stderr.	-0.3047334
-4.5170116	<s> W0722	-0.30473343
-0.9697713	W0722 08:08:32.174363	-0.3047334
-0.49907905	08:08:32.174363 4630754752	-0.3047334
-0.49907905	08:08:32.219285 4630754752	-0.3047334
-0.49907905	08:08:32.841989 4630754752	-0.3047334
-0.28425378	4630754752 deprecation_wrapper.py:119]	-0.23945047
-0.49559283	deprecation_wrapper.py:119] From	-0.3047334
-0.49559283	deprecation.py:323] From	-0.3047334
-0.9697713	From rnn_play.py:52:	-0.3047334
-0.49559283	rnn_play.py:52: The	-0.3047334
-0.49559283	rnn_play.py:54: The	-0.3047334
-0.10878796	The name	-0.3047334
-0.7967205	name tf.Session	-0.3047334
-0.49907905	tf.Session is	-0.3047334
-0.49907905	tf.train.import_meta_graph is	-0.3047334
-0.49907905	tensorflow.python.training.checkpoint_management) is	-0.3047334
-0.28425378	is deprecated.	-0.23945047
-0.49875247	deprecated. Please	-0.3047334
-0.49875247	Please use	-0.3047334
-0.7967205	use tf.compat.v1.Session	-0.3047334
-0.49559283	tf.compat.v1.Session instead.	-0.3047334
-0.49559283	tf.compat.v1.train.import_meta_graph instead.	-0.3047334
-5.175589	<s> 2019-07-22	-0.3047334
-0.49875247	2019-07-22 08:08:32.216630:	-0.3047334
-0.49875247	08:08:32.216630: I	-0.3047334
-0.49875247	I tensorflow/core/platform/cpu_feature_guard.cc:142]	-0.3047334
-0.49875247	tensorflow/core/platform/cpu_feature_guard.cc:142] Your	-0.3047334
-0.49875247	Your CPU	-0.3047334
-0.49875247	CPU supports	-0.3047334
-0.49875247	supports instructions	-0.3047334
-0.49875247	instructions that	-0.3047334
-0.49559283	that this	-0.3047334
-0.49559283	with this	-0.3047334
-0.7967205	this TensorFlow	-0.3047334
-0.49875247	TensorFlow binary	-0.3047334
-0.49875247	binary was	-0.3047334
-0.49875247	was not	-0.3047334
-0.49875247	not compiled	-0.3047334
-0.9697713	to use:	-0.3047334
-0.49875247	use: AVX2	-0.3047334
-0.49875247	AVX2 FMA	-0.3047334
-0.9697713	W0722 08:08:32.219285	-0.3047334
-0.9697713	From rnn_play.py:54:	-0.3047334
-0.7967205	name tf.train.import_meta_graph	-0.3047334
-0.7967205	use tf.compat.v1.train.import_meta_graph	-0.3047334
-0.9697713	W0722 08:08:32.841989	-0.3047334
-0.9738841	4630754752 deprecation.py:323]	-0.3047334
-0.9697713	From /anaconda3/lib/python3.7/site-packages/tensorflow/python/training/saver.py:1276:	-0.3047334
-0.49875247	/anaconda3/lib/python3.7/site-packages/tensorflow/python/training/saver.py:1276: checkpoint_exists	-0.3047334
-0.49875247	checkpoint_exists (from	-0.3047334
-0.49875247	(from tensorflow.python.training.checkpoint_management)	-0.3047334
-0.9738841	is deprecated	-0.3047334
-0.49875247	deprecated and	-0.3047334
-0.49875247	and will	-0.3047334
-0.49875247	will be	-0.3047334
-0.49875247	be removed	-0.3047334
-0.49875247	removed in	-0.3047334
-0.9363364	<s> a	-2.4243727
-0.4508907	in a	-0.3047334
-1.2616923	a a	-0.78755933
-0.8422062	m a	-0.6730424
-1.2410877	i a	-0.74747574
-1.2273382	e a	-0.74334323
-0.8264419	y a	-0.4076734
-0.8638738	b a	-0.6420665
-1.0678172	u a	-0.6250128
-1.4349695	o a	-0.4602911
-0.8201449	r a	-0.4476917
-0.89587975	s a	-0.6019684
-0.9077365	k a	-0.53786653
-1.0004281	n a	-0.6577861
-0.85454744	d a	-0.55281407
-0.742862	p a	-0.57340634
-0.97005475	, a	-0.6941225
-0.8041952	. a	-0.5540594
-1.2717286	h a	-0.30473343
-0.8224431	w a	-0.3546387
-0.9330945	l a	-0.39562947
-0.9026892	g a	-0.38272098
-0.7242759	t a	-0.55474293
-0.63934344	- a	-0.29086813
-0.7918355	f a	-0.34488449
-1.038192	z a	-0.30473343
-0.7078347	v a	-0.3047334
-0.10214968	) a	-0.26013994
-0.4508907	ll a	-0.3047334
-2.938581	a future	-0.3047334
-0.49875247	future version.	-0.3047334
-5.175589	<s> Instructions	-0.3047334
-0.49559283	Instructions for	-0.3047334
-0.49559283	check for	-0.3047334
-0.7967205	for updating:	-0.3047334
-5.175589	<s> Use	-0.3047334
-0.49875247	Use standard	-0.3047334
-0.49875247	standard file	-0.3047334
-0.49875247	file APIs	-0.3047334
-0.9697713	to check	-0.3047334
-0.7967205	for files	-0.3047334
-0.49875247	files with	-0.3047334
-0.7967205	this prefix.	-0.3047334
-1.1836615	<s> m	-2.5277212
-1.2153289	a m	-0.8829369
-1.5776864	m m	-0.28219116
-1.236348	i m	-0.94062877
-1.1751349	e m	-0.77449316
-1.228513	y m	-0.2708664
-1.0593518	u m	-0.65201294
-1.1421722	o m	-1.0022495
-1.3642101	r m	-0.30473343
-1.957482	s m	-0.3047334
-1.9234301	k m	-0.3047334
-1.2696041	n m	-0.5515356
-1.0366821	, m	-0.52308416
-1.400201	. m	-0.3047334
-1.3599683	w m	-0.23945047
-0.74946785	yye m	-0.3047334
-0.76886714	<s> i	-2.5259733
-1.2888409	a i	-0.70832396
-0.78218037	m i	-0.68290806
-1.2925633	i i	-0.7518457
-1.1842527	e i	-0.71148896
-0.92153645	y i	-0.2517455
-0.8659551	b i	-0.62460333
-1.3111949	u i	-0.48057023
-1.4421871	o i	-0.52728224
-0.704139	r i	-0.5085731
-0.75262946	s i	-0.62460715
-0.9742272	k i	-0.5259817
-1.1809663	n i	-0.54305416
-0.8578148	d i	-0.51884186
-0.8014796	p i	-0.4864084
-0.9307124	, i	-0.6359932
-1.0318599	. i	-0.40098763
-1.5322554	c i	-0.3047334
-0.7185272	h i	-0.2557016
-1.3111293	w i	-0.23945047
-0.9381545	l i	-0.3318893
-0.90659124	g i	-0.38301998
-1.0147101	t i	-0.40540498
-0.79604745	f i	-0.4489438
-0.5845959	j i	-0.5731019
-0.4706511	v i	-0.43268085
-1.0815177	<s> e	-2.2746668
-1.4650549	a e	-0.51073945
-1.0134913	m e	-0.6081374
-1.4104522	i e	-0.59858423
-1.5569398	e e	-0.5162513
-0.69442683	y e	-0.5988097
-0.6574592	b e	-0.78902894
-1.6130182	u e	-0.3375873
-1.6370728	o e	-0.35406458
-1.1094369	r e	-0.29411045
-0.7985618	s e	-0.64454377
-0.91616803	k e	-0.4698403
-1.1862338	n e	-0.4482786
-0.93623877	d e	-0.36571774
-0.9440547	p e	-0.49124825
-0.79122466	h e	-0.2874699
-0.9042962	w e	-0.3883652
-0.849457	l e	-0.32125396
-0.84509516	g e	-0.4297862
-0.92568403	t e	-0.4636461
-0.8141446	- e	-0.31584597
-1.1675543	f e	-0.2708664
-0.9755086	j e	-0.35972533
-1.2683679	v e	-0.3047334
-2.0512283	<s> y	-2.155066
-1.3675759	a y	-0.8321434
-2.1944895	m y	-0.3047334
-1.4073977	i y	-0.7493086
-1.550918	e y	-0.5376947
-1.9007844	y y	-0.3047334
-1.5950949	u y	-0.51186204
-1.6981744	o y	-0.40277517
-1.1715717	n y	-0.6256272
-0.9703356	<s> b	-2.9828777
-1.206827	a b	-1.0949513
-1.287248	m b	-0.3380158
-1.1860402	i b	-1.0999576
-1.2901732	e b	-0.89069796
-1.4076129	b b	-0.32517666
-1.1446761	u b	-0.7815535
-1.2158358	o b	-1.0478388
-1.7770896	r b	-0.3047334
-1.3982029	s b	-0.32938337
-1.8165306	k b	-0.3047334
-1.2476926	n b	-0.5385154
-1.8394741	d b	-0.3047334
-1.8359692	p b	-0.3047334
-1.3038342	, b	-0.40299615
-1.3626759	. b	-0.26013994
-1.0621618	c b	-0.3047334
-1.7341576	w b	-0.3047334
-1.2225808	l b	-0.2708664
-0.8462306	g b	-0.7020176
-1.3000365	t b	-0.30053917
-1.6848269	f b	-0.3047334
-0.46154594	jo b	-0.3047334
-1.6629212	<s> u	-1.7657835
-2.3747404	a u	-0.3047334
-1.0728893	m u	-0.49943107
-2.305292	e u	-0.3047334
-1.004699	b u	-0.5900028
-1.8060703	u u	-0.30473343
-2.0536783	o u	-0.2708664
-0.906391	r u	-0.41592714
-1.0574603	k u	-0.4578266
-1.6891227	n u	-0.27743185
-0.6911044	d u	-0.64316946
-0.9482189	p u	-0.41320133
-1.7821476	. u	-0.3047334
-1.0001208	c u	-0.2708664
-0.7289566	h u	-0.30311543
-1.0007011	w u	-0.34933516
-0.77700746	l u	-0.37617326
-1.4232541	g u	-0.27743185
-0.7266664	f u	-0.48838168
-0.8843006	j u	-0.3730101
-1.0797148	z u	-0.3047334
-0.8778727	<s> o	-2.482847
-1.2630591	a o	-0.86075675
-1.1885953	m o	-0.36076772
-1.2653515	i o	-0.7684279
-1.2045647	e o	-0.83009833
-0.9178114	y o	-0.33169663
-0.7626091	b o	-0.745262
-1.2560796	u o	-0.49250427
-1.3081475	o o	-0.65412796
-0.89597136	r o	-0.38167307
-0.794266	s o	-0.6224199
-0.85597646	k o	-0.5274081
-1.2982267	n o	-0.48217744
-0.85563385	d o	-0.4297769
-0.9385638	p o	-0.5463736
-0.97134346	, o	-0.6790103
-0.80561703	. o	-0.6043434
-1.5151805	c o	-0.3047334
-1.2791587	h o	-0.3047334
-0.7066394	w o	-0.38772693
-0.93477464	l o	-0.36548764
-0.8405826	g o	-0.5401391
-0.6312169	t o	-0.68383765
-0.99839	f o	-0.36160347
-0.62851197	j o	-0.5657235
-0.47026896	z o	-0.26013994
-0.45264852	ss o	-0.3047334
-0.45264852	ork o	-0.3047334
-1.4187601	<s> r	-2.5653405
-1.2654144	a r	-0.85029787
-1.2674294	i r	-0.71883583
-1.2561523	e r	-0.7287445
-1.4991477	u r	-0.43874645
-1.2119893	o r	-0.96987927
-1.5363686	k r	-0.26013994
-1.4335321	p r	-0.23945047
-1.9322307	w r	-0.3047334
-0.48557037	pii r	-0.3047334
-1.340319	<s> s	-2.6129646
-1.1993337	a s	-0.9807429
-1.5970978	m s	-0.32938337
-1.2186918	i s	-0.9733199
-1.3074706	e s	-0.8879577
-1.165044	u s	-0.68905264
-1.2304858	o s	-0.91369164
-1.9787539	k s	-0.3047334
-1.279344	n s	-0.5684787
-1.041206	, s	-0.4658335
-1.9062341	. s	-0.3047334
-1.8778642	w s	-0.3047334
-1.3505038	v s	-0.3047334
-1.5811136	<s> k	-2.1949272
-1.3950441	a k	-0.7530882
-1.3448763	i k	-0.85048544
-1.2835517	e k	-0.7815535
-1.1713454	u k	-0.60219616
-1.1693676	o k	-0.8850341
-1.4579403	s k	-0.28186458
-1.7309284	n k	-0.2849458
-1.9322307	w k	-0.3047334
-0.48557037	diu k	-0.3047334
-1.1033541	<s> n	-2.401408
-1.1946305	a n	-0.9114254
-1.5714041	m n	-0.3012354
-1.155073	i n	-0.8698579
-1.1738356	e n	-0.7299389
-1.777426	y n	-0.3047334
-2.1455739	b n	-0.3047334
-1.2381256	u n	-0.50928086
-1.1409581	o n	-0.7860237
-1.8499968	r n	-0.3047334
-1.9421927	s n	-0.3047334
-1.529305	n n	-0.32620412
-1.0909425	, n	-0.42547792
-1.8397741	. n	-0.3047334
-1.8145735	w n	-0.3047334
-0.47246927	yaa n	-0.3047334
-0.47246927	rie n	-0.3047334
-1.6634859	<s> d	-2.3206809
-1.3658378	a d	-0.8473398
-2.1690626	m d	-0.3047334
-1.3740983	i d	-0.8472322
-1.6666571	e d	-0.46222752
-1.8833082	y d	-0.3047334
-1.4243817	u d	-0.4353546
-1.3414646	o d	-0.82144237
-1.5722247	n d	-0.31031713
-1.9322307	w d	-0.3047334
-1.4807483	<s> p	-2.472612
-1.2898818	a p	-0.92386633
-1.4073977	i p	-0.757227
-1.550918	e p	-0.532019
-1.5950949	u p	-0.36160347
-1.3433927	o p	-0.9174322
-1.3041476	k p	-0.30210727
-1.5787176	n p	-0.30053917
-1.466955	, p	-0.34039152
-1.8593261	<s> ,	-1.9353366
-1.3876859	a ,	-0.7171746
-1.4328731	m ,	-0.3023983
-1.5487882	i ,	-0.6123457
-1.3057095	e ,	-0.7632493
-1.6758502	u ,	-0.35482755
-1.5626496	o ,	-0.4514737
-1.5049648	s ,	-0.26013994
-1.6952822	n ,	-0.27743185
-1.1608778	, ,	-0.44451368
-1.4115462	. ,	-0.3047334
-1.3990355	t ,	-0.3047334
-1.7962615	f ,	-0.3047334
-0.7565021	yye ,	-0.3047334
-2.5545986	<s> .	-1.5573843
-1.8222461	a .	-0.50963306
-2.1690626	m .	-0.3047334
-2.004174	i .	-0.39028662
-1.4146073	e .	-0.74688613
-1.9202017	u .	-0.26013994
-2.569923	o .	-0.30473343
-1.468663	k .	-0.24413824
-1.7935065	n .	-0.30473343
-1.9637399	. .	-0.30473343
-3.0251403	<s> c	-1.5261025
-2.18828	a c	-0.3012354
-1.8066274	i c	-0.5788089
-1.8366897	e c	-0.43268085
-1.5950949	u c	-0.45011538
-1.6344889	o c	-0.56447685
-2.0828981	s c	-0.3047334
-2.2578702	n c	-0.3047334
-1.7132697	c c	-0.3047334
-3.1803455	<s> h	-1.1387461
-0.48482615	c h	-0.56450784
-2.1740923	g h	-0.3047334
-1.9457124	<s> w	-2.21031
-1.8222461	a w	-0.43709314
-2.1690626	m w	-0.3047334
-1.8912481	i w	-0.35972533
-1.9440359	e w	-0.43268085
-1.7037705	u w	-0.27545747
-1.6938224	o w	-0.34297663
-1.5363686	k w	-0.28186458
-1.0749208	n w	-0.78941166
-1.4023434	g w	-0.26013994
-2.456639	<s> l	-1.4710702
-1.4283555	a l	-0.64540666
-1.6677381	i l	-0.41852325
-1.4168714	e l	-0.5663779
-1.8696852	u l	-0.26013994
-1.4855199	o l	-0.5228508
-2.065546	k l	-0.3047334
-1.4412777	. l	-0.26013994
-1.5332252	- l	-0.3047334
-2.0840282	<s> g	-1.8213316
-1.4644356	a g	-0.628929
-1.0994112	m g	-0.50080776
-1.4804585	i g	-0.5993122
-1.5042617	e g	-0.6148377
-1.944608	u g	-0.27450162
-1.3768874	o g	-0.664162
-1.4662302	n g	-0.44453257
-2.3990827	<s> t	-1.5667812
-1.4223872	a t	-0.7616033
-1.4349729	i t	-0.64587194
-1.4932966	e t	-0.53726774
-1.8390974	u t	-0.30473343
-1.4381256	o t	-0.7344663
-2.0246675	s t	-0.3047334
-1.7725656	n t	-0.23945047
-1.335487	, t	-0.41416526
-1.9245695	. t	-0.3047334
-1.4941686	- t	-0.3047334
-1.3588023	v t	-0.3047334
-3.8499272	<s> -	-0.7337108
-2.785346	a -	-0.3047334
-2.203981	i -	-0.3012354
-2.710274	e -	-0.3047334
-1.8386849	n -	-0.26013994
-1.2087806	. -	-0.27743185
-2.5273075	<s> f	-1.5171181
-1.6393147	a f	-0.532019
-1.482799	i f	-0.539229
-1.8487941	e f	-0.3228535
-1.8913435	u f	-0.26013994
-1.7833452	o f	-0.5303463
-2.32535	n f	-0.3047334
-2.6241188	<s> j	-1.419648
-1.8996142	a j	-0.41087788
-1.792035	i j	-0.41392285
-1.5962791	e j	-0.50806993
-1.8390974	u j	-0.2849458
-1.7575206	o j	-0.31808063
-1.9988806	k j	-0.3047334
-1.5595231	n j	-0.32517666
-1.6204396	, j	-0.33577082
-1.4231957	. j	-0.3047334
-1.4070959	t j	-0.23945047
-1.4941686	- j	-0.3047334
-3.295403	<s> z	-1.4009876
-2.2427082	i z	-0.2517455
-2.2835772	o z	-0.23945047
-4.55471	<s> v	-0.23945047
-2.306096	a v	-0.23945047
-2.2857113	i v	-0.30473343
-1.9141388	u v	-0.26013994
-2.0116274	o v	-0.37972042
-1.4680216	. )	-0.23945047
-1.5947987	- )	-0.3047334
-2.8817098	o pii	-0.3047334
-2.8817098	o ss	-0.3047334
-2.4942424	n yaa	-0.3047334
-2.8817098	o diu	-0.3047334
-2.2347043	k ork	-0.3047334
-2.8596601	e rie	-0.3047334
-2.8445396	a yye	-0.3047334
-2.7852108	o yye	-0.3047334
-5.175589	<s> jo	-0.3047334
-5.175589	<s> ll	-0.3047334

\3-grams:
-0.16581985	to stderr. </s>	0
-0.047201116	tf.compat.v1.Session instead. </s>	0
-0.047201116	tf.compat.v1.train.import_meta_graph instead. </s>	0
-0.16581985	AVX2 FMA </s>	0
-0.99946404	a a </s>	0
-1.2336682	m a </s>	0
-1.0814954	i a </s>	0
-0.99622196	e a </s>	0
-1.0971787	y a </s>	0
-1.1552684	b a </s>	0
-0.98690206	u a </s>	0
-1.1687753	o a </s>	0
-1.1324077	r a </s>	0
-1.1471729	s a </s>	0
-1.066087	k a </s>	0
-1.1311103	n a </s>	0
-1.020607	d a </s>	0
-0.99968183	p a </s>	0
-1.0734488	, a </s>	0
-0.8555092	. a </s>	0
-1.005031	w a </s>	0
-1.0660825	l a </s>	0
-1.1485908	g a </s>	0
-0.80090165	t a </s>	0
-1.0804197	- a </s>	0
-1.1597977	f a </s>	0
-0.16581985	future version. </s>	0
-0.16581985	for updating: </s>	0
-0.16581985	this prefix. </s>	0
-0.8159517	a m </s>	0
-0.9011818	i m </s>	0
-0.90014553	e m </s>	0
-0.7598136	y m </s>	0
-0.84988296	u m </s>	0
-0.79369175	o m </s>	0
-0.9846748	n m </s>	0
-1.1603813	, m </s>	0
-3.5810268	<s> i </s>	0
-1.0564754	a i </s>	0
-1.1564466	m i </s>	0
-1.1155449	i i </s>	0
-0.9537825	e i </s>	0
-0.9011829	y i </s>	0
-1.0836792	b i </s>	0
-1.0917293	u i </s>	0
-1.1043104	o i </s>	0
-1.1836784	r i </s>	0
-1.1348872	s i </s>	0
-1.2440001	k i </s>	0
-1.2053362	n i </s>	0
-0.8661536	d i </s>	0
-0.87140214	p i </s>	0
-1.086155	, i </s>	0
-0.8997909	. i </s>	0
-1.1742284	h i </s>	0
-1.1597022	l i </s>	0
-1.2850015	g i </s>	0
-1.1280129	t i </s>	0
-0.9836932	f i </s>	0
-0.76409554	j i </s>	0
-0.89368415	v i </s>	0
-0.9344762	a e </s>	0
-1.0804889	m e </s>	0
-1.1435931	i e </s>	0
-1.0396236	e e </s>	0
-1.1112905	y e </s>	0
-1.1586291	b e </s>	0
-1.129614	u e </s>	0
-1.038657	o e </s>	0
-1.2150943	r e </s>	0
-1.0834224	s e </s>	0
-1.1410844	k e </s>	0
-1.0892775	n e </s>	0
-1.0215784	d e </s>	0
-0.8724208	p e </s>	0
-0.9956738	h e </s>	0
-1.1397697	w e </s>	0
-1.2043103	l e </s>	0
-1.1692463	g e </s>	0
-1.106307	t e </s>	0
-1.0826982	- e </s>	0
-1.021448	j e </s>	0
-0.51372945	a y </s>	0
-0.48535037	m y </s>	0
-0.526913	i y </s>	0
-0.81303364	e y </s>	0
-0.9030486	o y </s>	0
-0.76708394	n y </s>	0
-0.8058925	a b </s>	0
-0.96837956	m b </s>	0
-0.842243	i b </s>	0
-0.9753752	e b </s>	0
-0.93680185	u b </s>	0
-0.84460634	o b </s>	0
-0.7967026	s b </s>	0
-0.88278365	n b </s>	0
-0.71354854	l b </s>	0
-0.7912848	g b </s>	0
-0.63372296	t b </s>	0
-0.88351727	m u </s>	0
-1.1692921	b u </s>	0
-0.9697014	r u </s>	0
-1.0488318	k u </s>	0
-0.82435906	n u </s>	0
-0.76677334	d u </s>	0
-0.911033	p u </s>	0
-0.52558994	. u </s>	0
-0.75497335	c u </s>	0
-1.0707341	h u </s>	0
-0.891652	w u </s>	0
-1.0511279	l u </s>	0
-0.82435906	g u </s>	0
-0.6587731	f u </s>	0
-0.7812443	j u </s>	0
-1.0182939	a o </s>	0
-1.1038929	m o </s>	0
-1.0144621	i o </s>	0
-0.9906754	e o </s>	0
-1.1624205	y o </s>	0
-1.2394866	b o </s>	0
-1.1598821	u o </s>	0
-1.117166	o o </s>	0
-1.2437851	r o </s>	0
-1.192398	s o </s>	0
-1.0860386	k o </s>	0
-1.1869287	n o </s>	0
-0.9218714	d o </s>	0
-0.8680351	p o </s>	0
-1.1354047	, o </s>	0
-1.0869137	. o </s>	0
-1.1416941	w o </s>	0
-1.1638904	l o </s>	0
-1.0364293	g o </s>	0
-0.82832855	t o </s>	0
-1.0795346	f o </s>	0
-1.1336857	j o </s>	0
-0.6786796	z o </s>	0
-0.68108195	a r </s>	0
-0.6240107	i r </s>	0
-0.7995784	e r </s>	0
-0.85795146	u r </s>	0
-0.6682982	o r </s>	0
-0.6214763	k r </s>	0
-0.76867914	a s </s>	0
-0.75994277	i s </s>	0
-0.8145914	e s </s>	0
-1.1173944	u s </s>	0
-0.7491156	o s </s>	0
-0.99682045	n s </s>	0
-1.0404202	, s </s>	0
-0.5004323	. s </s>	0
-0.8070912	a k </s>	0
-0.7228144	i k </s>	0
-0.71081525	e k </s>	0
-0.93417907	u k </s>	0
-0.77565753	o k </s>	0
-0.85006887	s k </s>	0
-0.78849506	n k </s>	0
-0.90067923	a n </s>	0
-0.9119592	m n </s>	0
-0.9558744	i n </s>	0
-0.9101299	e n </s>	0
-0.53723276	b n </s>	0
-1.0618478	u n </s>	0
-0.8331059	o n </s>	0
-1.1245158	n n </s>	0
-1.1471936	, n </s>	0
-0.7220177	a d </s>	0
-0.7227135	i d </s>	0
-0.8680031	e d </s>	0
-1.0353856	u d </s>	0
-0.71990633	o d </s>	0
-0.8872491	n d </s>	0
-0.49199164	w d </s>	0
-3.1107872	<s> p </s>	0
-0.75514483	a p </s>	0
-0.80703527	i p </s>	0
-0.8026134	e p </s>	0
-0.81089866	u p </s>	0
-0.82825637	o p </s>	0
-0.84444106	k p </s>	0
-0.83766305	, p </s>	0
-1.0174974	a , </s>	0
-0.98078895	m , </s>	0
-0.81771976	i , </s>	0
-0.90238273	e , </s>	0
-1.0687267	u , </s>	0
-1.0094478	o , </s>	0
-0.9922964	n , </s>	0
-0.9449686	, , </s>	0
-0.52236044	t , </s>	0
-0.7528584	a . </s>	0
-0.24993698	m . </s>	0
-0.96528196	i . </s>	0
-0.7641089	e . </s>	0
-0.8282461	u . </s>	0
-0.87912035	k . </s>	0
-0.61552763	a c </s>	0
-0.90175545	i c </s>	0
-0.6204398	e c </s>	0
-0.87037075	u c </s>	0
-0.8787691	o c </s>	0
-0.84950554	c h </s>	0
-0.87929976	a w </s>	0
-0.92255634	i w </s>	0
-0.81430745	u w </s>	0
-0.87390435	o w </s>	0
-0.819234	k w </s>	0
-0.6521404	n w </s>	0
-1.1563245	a l </s>	0
-0.71008146	i l </s>	0
-1.0977225	e l </s>	0
-0.7852495	u l </s>	0
-0.85926116	o l </s>	0
-0.60553837	. l </s>	0
-1.0719287	a g </s>	0
-0.63443357	m g </s>	0
-0.97695225	i g </s>	0
-0.78015035	e g </s>	0
-0.908972	u g </s>	0
-0.8153676	o g </s>	0
-0.9191251	n g </s>	0
-0.8528335	a t </s>	0
-1.0734262	i t </s>	0
-0.66913116	e t </s>	0
-0.86478543	o t </s>	0
-0.7292606	s t </s>	0
-0.8802058	, t </s>	0
-0.65349257	i - </s>	0
-0.5902307	n - </s>	0
-0.73001266	. - </s>	0
-0.8252273	a f </s>	0
-0.94507235	i f </s>	0
-0.9342362	e f </s>	0
-0.66858864	u f </s>	0
-0.76503855	o f </s>	0
-2.0298991	<s> j </s>	0
-0.9278125	a j </s>	0
-0.9527847	i j </s>	0
-0.86509424	e j </s>	0
-0.7237949	u j </s>	0
-0.7915456	o j </s>	0
-0.79687405	n j </s>	0
-0.81112456	i z </s>	0
-0.17949127	<s> WARNING: Logging	-0.27567813
-0.17949127	WARNING: Logging before	-0.27567813
-0.17949127	Logging before flag	-0.27567813
-0.17949127	before flag parsing	-0.27567813
-0.17949127	flag parsing goes	-0.27567813
-0.17956887	parsing goes to	-0.27567813
-0.17956887	not compiled to	-0.27567813
-0.17956887	file APIs to	-0.27567813
-0.25383723	goes to stderr.	-0.27567813
-0.6551542	<s> W0722 08:08:32.174363	-0.27567813
-0.17956887	W0722 08:08:32.174363 4630754752	-0.27567813
-0.17956887	W0722 08:08:32.219285 4630754752	-0.27567813
-0.17956887	W0722 08:08:32.841989 4630754752	-0.27567813
-0.11811042	08:08:32.174363 4630754752 deprecation_wrapper.py:119]	-0.27567813
-0.11811042	08:08:32.219285 4630754752 deprecation_wrapper.py:119]	-0.27567813
-0.21617478	4630754752 deprecation_wrapper.py:119] From	-0.27567813
-0.17873815	4630754752 deprecation.py:323] From	-0.27567813
-0.5153133	deprecation_wrapper.py:119] From rnn_play.py:52:	-0.27567813
-0.17873815	From rnn_play.py:52: The	-0.27567813
-0.17873815	From rnn_play.py:54: The	-0.27567813
-0.050537292	rnn_play.py:52: The name	-0.27567813
-0.050537292	rnn_play.py:54: The name	-0.27567813
-0.47979152	The name tf.Session	-0.27567813
-0.17956887	name tf.Session is	-0.27567813
-0.17956887	name tf.train.import_meta_graph is	-0.27567813
-0.17956887	(from tensorflow.python.training.checkpoint_management) is	-0.27567813
-0.11811042	tf.Session is deprecated.	-0.27567813
-0.11811042	tf.train.import_meta_graph is deprecated.	-0.27567813
-0.21712907	is deprecated. Please	-0.26582104
-0.17949127	deprecated. Please use	-0.27567813
-0.47979152	Please use tf.compat.v1.Session	-0.27567813
-0.17873815	use tf.compat.v1.Session instead.	-0.27567813
-0.17873815	use tf.compat.v1.train.import_meta_graph instead.	-0.27567813
-0.17949127	<s> 2019-07-22 08:08:32.216630:	-0.27567813
-0.17949127	2019-07-22 08:08:32.216630: I	-0.27567813
-0.17949127	08:08:32.216630: I tensorflow/core/platform/cpu_feature_guard.cc:142]	-0.27567813
-0.17949127	I tensorflow/core/platform/cpu_feature_guard.cc:142] Your	-0.27567813
-0.17949127	tensorflow/core/platform/cpu_feature_guard.cc:142] Your CPU	-0.27567813
-0.17949127	Your CPU supports	-0.27567813
-0.17949127	CPU supports instructions	-0.27567813
-0.17949127	supports instructions that	-0.27567813
-0.17873815	instructions that this	-0.27567813
-0.17873815	files with this	-0.27567813
-0.23402394	that this TensorFlow	-0.27567813
-0.17949127	this TensorFlow binary	-0.27567813
-0.17949127	TensorFlow binary was	-0.27567813
-0.17949127	binary was not	-0.27567813
-0.17949127	was not compiled	-0.27567813
-0.25383723	compiled to use:	-0.27567813
-0.17949127	to use: AVX2	-0.27567813
-0.17949127	use: AVX2 FMA	-0.27567813
-0.6551542	<s> W0722 08:08:32.219285	-0.27567813
-0.5153133	deprecation_wrapper.py:119] From rnn_play.py:54:	-0.27567813
-0.47979152	The name tf.train.import_meta_graph	-0.27567813
-0.47979152	Please use tf.compat.v1.train.import_meta_graph	-0.27567813
-0.6551542	<s> W0722 08:08:32.841989	-0.27567813
-0.25422773	08:08:32.841989 4630754752 deprecation.py:323]	-0.27567813
-0.25383723	deprecation.py:323] From /anaconda3/lib/python3.7/site-packages/tensorflow/python/training/saver.py:1276:	-0.27567813
-0.17949127	From /anaconda3/lib/python3.7/site-packages/tensorflow/python/training/saver.py:1276: checkpoint_exists	-0.27567813
-0.17949127	/anaconda3/lib/python3.7/site-packages/tensorflow/python/training/saver.py:1276: checkpoint_exists (from	-0.27567813
-0.17949127	checkpoint_exists (from tensorflow.python.training.checkpoint_management)	-0.27567813
-0.25422773	tensorflow.python.training.checkpoint_management) is deprecated	-0.27567813
-0.17949127	is deprecated and	-0.27567813
-0.17949127	deprecated and will	-0.27567813
-0.17949127	and will be	-0.27567813
-0.17949127	will be removed	-0.27567813
-0.17949127	be removed in	-0.27567813
-0.16762811	removed in a	-0.27567813
-1.6141531	<s> a a	-1.1007916
-1.3777535	a a a	-0.3833991
-1.1911447	m a a	-0.5910451
-1.3214153	i a a	-0.4019614
-0.95968306	y a a	-0.29376817
-1.2360916	b a a	-0.32506514
-1.643518	u a a	-0.27567813
-1.4738848	o a a	-0.26582104
-1.151945	r a a	-0.35707015
-1.1612543	s a a	-0.39014167
-1.1626863	k a a	-0.3244766
-1.143014	n a a	-0.49307972
-1.0323578	d a a	-0.34737584
-1.208091	p a a	-0.3814983
-0.7094765	h a a	-0.27567813
-1.0849745	l a a	-0.29485607
-1.3411603	g a a	-0.27567813
-1.1054474	- a a	-0.27567813
-0.9859441	f a a	-0.27319276
-0.5084318	<s> m a	-1.8517417
-0.7320038	a m a	-0.8232794
-0.70732695	m m a	-0.27567813
-0.64753187	i m a	-0.73045826
-0.682987	e m a	-0.6537242
-0.692207	y m a	-0.27567813
-0.7323277	u m a	-0.60646516
-0.70914197	o m a	-0.74514526
-0.62091744	r m a	-0.27567813
-0.58204067	n m a	-0.44483393
-0.48731747	, m a	-0.38798434
-0.4902358	. m a	-0.27567813
-0.2399239	yye m a	-0.27567813
-0.9405892	<s> i a	-1.7522137
-1.1768396	m i a	-0.6114626
-1.391724	i i a	-0.34985602
-1.7395072	e i a	-0.27346823
-0.93212885	y i a	-0.27567813
-1.0524715	b i a	-0.6286049
-1.4392593	u i a	-0.27567813
-1.5186859	o i a	-0.2682644
-1.1396811	r i a	-0.45023304
-1.2396226	s i a	-0.3222259
-1.1820543	k i a	-0.36788774
-1.1594317	n i a	-0.3957528
-1.4796672	d i a	-0.27567813
-1.5123755	p i a	-0.27567813
-1.1165017	h i a	-0.2728389
-1.0201738	l i a	-0.2707216
-0.8447225	g i a	-0.29241127
-1.1648852	t i a	-0.27567813
-0.893624	f i a	-0.3157236
-1.29203	<s> e a	-1.3590763
-1.5057465	a e a	-0.27567813
-1.0993998	m e a	-0.5039335
-1.1097924	i e a	-0.38283238
-1.0609506	e e a	-0.38942134
-1.314608	y e a	-0.37005058
-1.3079417	b e a	-0.54228896
-0.814178	u e a	-0.37360498
-1.0699228	o e a	-0.2723675
-1.3555046	r e a	-0.27567813
-1.0040578	s e a	-0.58343387
-0.9867007	k e a	-0.3670936
-1.1174583	n e a	-0.28195113
-1.2356285	d e a	-0.2707216
-1.0287547	h e a	-0.27567813
-1.0889205	l e a	-0.27110085
-0.919846	- e a	-0.3230184
-0.664888	<s> y a	-1.3211441
-0.7348703	a y a	-0.33722195
-0.52745044	i y a	-0.5632311
-1.001093	e y a	-0.26908192
-1.0097556	o y a	-0.27567813
-0.4967162	n y a	-0.5635878
-0.70083094	<s> b a	-1.8860418
-0.8300148	a b a	-0.67565423
-0.83956987	i b a	-0.6699964
-0.9095855	e b a	-0.4633103
-0.46900022	b b a	-0.27319276
-0.8603718	u b a	-0.37660939
-0.7562924	o b a	-0.711821
-0.78269476	s b a	-0.27567813
-0.87219036	n b a	-0.41992843
-1.0002948	, b a	-0.27567813
-0.6139618	. b a	-0.27567813
-0.7136934	g b a	-0.46186823
-1.2828423	<s> u a	-0.7935442
-0.26228768	a u a	-0.27567813
-0.8912263	m u a	-0.33474493
-1.2485896	b u a	-0.41373733
-0.6767685	u u a	-0.27567813
-0.98114467	r u a	-0.26908192
-1.0613142	k u a	-0.3351724
-0.83562094	n u a	-0.27567813
-0.77098817	d u a	-0.47919503
-1.140804	p u a	-0.28985977
-0.5308691	. u a	-0.27567813
-0.7709537	h u a	-0.28277022
-0.7502712	w u a	-0.2960833
-0.7893983	j u a	-0.26908192
-1.861139	<s> o a	-1.1331778
-1.2947379	y o a	-0.27567813
-1.3563757	b o a	-0.49195084
-1.6911358	u o a	-0.27567813
-1.387854	r o a	-0.27101162
-1.238873	k o a	-0.35707015
-1.6030118	n o a	-0.27567813
-0.8408214	h o a	-0.27567813
-1.5583352	w o a	-0.27567813
-1.2852529	l o a	-0.27567813
-1.6927838	g o a	-0.27567813
-0.62125576	<s> r a	-1.5657926
-0.7549481	a r a	-0.48852816
-0.91400236	i r a	-0.35042652
-1.3148098	e r a	-0.27567813
-0.8334692	u r a	-0.26908192
-0.97513694	o r a	-0.3567594
-0.43690336	k r a	-0.26908192
-1.4974383	<s> s a	-1.0118692
-1.047127	a s a	-0.4532681
-0.82880485	i s a	-0.5322813
-0.8690518	e s a	-0.36839086
-0.6430072	u s a	-0.33191794
-0.779649	o s a	-0.5027893
-0.99866503	n s a	-0.27001816
-1.0430055	, s a	-0.27567813
-1.1569486	<s> k a	-1.096425
-0.71186525	a k a	-0.45527864
-0.7919032	i k a	-0.49084282
-0.7530997	e k a	-0.5344876
-0.7728832	u k a	-0.29477912
-1.0991273	o k a	-0.3064032
-0.82778925	s k a	-0.27567813
-0.76922995	n k a	-0.27567813
-0.68371356	<s> n a	-1.7190286
-0.7741772	a n a	-0.7839736
-0.7185024	m n a	-0.26721558
-0.9200653	i n a	-0.66937906
-0.8016567	e n a	-0.684513
-0.95433426	u n a	-0.43624538
-0.9574292	o n a	-0.6045486
-0.2566689	r n a	-0.27567813
-0.2566689	s n a	-0.27567813
-0.6004196	n n a	-0.27126956
-0.56866693	, n a	-0.31281734
-0.2566689	yaa n a	-0.27567813
-0.4328101	<s> d a	-1.7245991
-0.57203424	a d a	-0.6560514
-0.72316915	i d a	-0.6687589
-0.8695502	e d a	-0.29119396
-0.64765555	u d a	-0.335671
-0.6469225	o d a	-0.7110741
-0.7299395	n d a	-0.2707216
-1.592797	<s> p a	-0.8124523
-0.71476316	a p a	-0.6951717
-0.66317254	i p a	-0.53037894
-0.48126775	e p a	-0.38018245
-0.46398312	u p a	-0.41992843
-0.7083291	o p a	-0.66188896
-0.70747507	k p a	-0.26908192
-0.58498955	n p a	-0.27567813
-0.49729997	, p a	-0.26721558
-0.628381	<s> , a	-1.2976476
-0.8160668	a , a	-0.59373343
-0.6258392	m , a	-0.2960833
-0.69894785	i , a	-0.5270342
-0.8596895	e , a	-0.72156876
-0.74520195	u , a	-0.3466756
-0.66411567	o , a	-0.40822268
-0.9706768	n , a	-0.27567813
-0.7833998	, , a	-0.33125246
-0.25386426	f , a	-0.27567813
-0.2849104	<s> . a	-1.3635002
-0.6432566	a . a	-0.42744136
-0.5966165	i . a	-0.35019577
-0.5683981	e . a	-0.65213734
-0.6430025	u . a	-0.26908192
-0.81058663	k . a	-0.2677746
-0.60924447	n . a	-0.27567813
-0.60924447	. . a	-0.27567813
-1.3584272	c h a	-0.2707216
-2.7930079	<s> w a	-0.27567813
-0.4012871	i w a	-0.3230184
-0.23249048	e w a	-0.4649579
-0.611244	u w a	-0.3066582
-0.84374523	o w a	-0.34001914
-1.3721095	n w a	-0.27567813
-0.77800167	g w a	-0.27567813
-0.5904188	<s> l a	-0.7118101
-0.39527804	a l a	-0.44836786
-0.6260187	i l a	-0.3643577
-0.5967654	e l a	-0.293632
-1.0272882	o l a	-0.27001816
-1.9062841	<s> g a	-0.2990782
-0.734272	a g a	-0.31426835
-1.1802542	m g a	-0.27567813
-0.7249001	i g a	-0.36325374
-0.7940304	u g a	-0.26908192
-1.1954042	o g a	-0.31312853
-0.9210622	n g a	-0.30385017
-0.6592531	<s> t a	-1.3657079
-0.5527006	a t a	-0.60841596
-0.3873561	i t a	-0.5469005
-0.56535447	e t a	-0.49633905
-0.5823283	u t a	-0.27567813
-0.56253254	o t a	-0.56186795
-0.4940002	n t a	-0.26582104
-0.6240529	, t a	-0.31312853
-0.46134916	. t a	-0.27567813
-1.032529	<s> - a	-0.27567813
-0.43667868	a - a	-0.27567813
-0.7017948	i - a	-0.27567813
-0.38870513	n - a	-0.27126956
-1.2232698	<s> f a	-0.4164032
-0.6176773	a f a	-0.3066582
-1.0696157	i f a	-0.2707216
-0.8868255	e f a	-0.27567813
-0.76255286	u f a	-0.27567813
-1.1376573	o f a	-0.27567813
-0.6559496	i z a	-0.27567813
-0.57637835	i v a	-0.27567813
-0.5595087	u v a	-0.27567813
-0.05589325	. ) a	-0.27567813
-0.04764697	- ) a	-0.27567813
-0.16762811	<s> ll a	-0.27567813
-0.29686633	in a future	-0.27567813
-0.17949127	a future version.	-0.27567813
-0.17873815	<s> Instructions for	-0.27567813
-0.17873815	to check for	-0.27567813
-0.23402394	Instructions for updating:	-0.27567813
-0.17949127	<s> Use standard	-0.27567813
-0.17949127	Use standard file	-0.27567813
-0.17949127	standard file APIs	-0.27567813
-0.25383723	APIs to check	-0.27567813
-0.23402394	check for files	-0.27567813
-0.17949127	for files with	-0.27567813
-0.23402394	with this prefix.	-0.27567813
-1.0566342	<s> a m	-1.739945
-1.1058503	a a m	-0.6229479
-1.088428	m a m	-0.6535435
-1.0502255	i a m	-0.6185258
-1.0871025	e a m	-0.42804253
-0.8372164	y a m	-0.3903888
-1.1019435	b a m	-0.58203506
-1.1682218	u a m	-0.39299333
-0.9945247	o a m	-0.41236714
-1.0366426	r a m	-0.40926588
-0.9964157	s a m	-0.60723937
-1.2514156	k a m	-0.39014167
-1.1918585	n a m	-0.56269443
-1.0243521	d a m	-0.4062846
-1.5973985	p a m	-0.27567813
-1.1645343	, a m	-0.41992843
-1.4708962	. a m	-0.27567813
-0.9688486	l a m	-0.42274642
-1.0139439	g a m	-0.31749624
-0.5069722	t a m	-0.5631963
-0.8133377	f a m	-0.3600868
-0.27210045	ll a m	-0.27567813
-1.9728143	a m m	-0.26582104
-1.5474405	e m m	-0.2707216
-1.7133756	u m m	-0.27567813
-1.2609863	<s> i m	-2.0039623
-1.333013	a i m	-0.42490375
-1.2251929	m i m	-0.6162256
-1.6193999	i i m	-0.31312853
-1.2339185	e i m	-0.48512506
-0.9308204	y i m	-0.26582104
-1.3049288	b i m	-0.49952716
-1.1292629	o i m	-0.41992843
-1.1385128	r i m	-0.51051104
-0.97495526	s i m	-0.6878887
-1.1008445	k i m	-0.5249059
-1.1583023	n i m	-0.5117974
-1.3559455	d i m	-0.27567813
-1.2350165	p i m	-0.31312853
-1.6493355	, i m	-0.27567813
-1.2310199	h i m	-0.27567813
-0.8619467	l i m	-0.38821504
-1.0364038	g i m	-0.31749624
-1.0062698	f i m	-0.3230184
-1.2212039	j i m	-0.2707216
-0.83014524	<s> e m	-2.0517328
-1.3731751	a e m	-0.2707216
-1.0893319	m e m	-0.5161104
-1.0505962	i e m	-0.5637566
-1.5248173	e e m	-0.27567813
-0.995679	y e m	-0.6265813
-1.29722	b e m	-0.6009848
-1.1482846	u e m	-0.27567813
-1.098198	r e m	-0.32758936
-1.2133794	s e m	-0.42196178
-1.2831349	k e m	-0.29608235
-0.7895959	n e m	-0.5256557
-0.8795752	p e m	-0.39230976
-1.0110085	h e m	-0.27567813
-1.2795637	w e m	-0.27567813
-1.0700866	l e m	-0.28575975
-0.8210144	g e m	-0.3230184
-0.6002096	t e m	-0.49910966
-0.7908311	f e m	-0.27567813
-1.0352014	j e m	-0.27567813
-1.677881	a y m	-0.27567813
-0.27283475	y y m	-0.27567813
-1.4858892	n y m	-0.27567813
-0.47672412	<s> u m	-1.8369488
-0.8047297	m u m	-0.36887223
-1.1785926	b u m	-0.5161104
-0.5872611	o u m	-0.27567813
-0.87906283	r u m	-0.38263112
-1.0583894	k u m	-0.3472358
-0.66638917	n u m	-0.27170837
-0.7700077	d u m	-0.5898967
-1.0142621	p u m	-0.3479949
-1.0851682	h u m	-0.27567813
-1.077606	w u m	-0.26908192
-0.87382364	l u m	-0.2990782
-0.832985	g u m	-0.27567813
-1.2149286	j u m	-0.27567813
-0.26162502	z u m	-0.27567813
-0.89389116	<s> o m	-2.2053206
-1.0523423	a o m	-0.5959412
-0.97878206	m o m	-0.39014167
-1.0947868	i o m	-0.56269443
-0.96314275	e o m	-0.7281631
-0.67733026	y o m	-0.2960833
-1.1534133	b o m	-0.66157895
-0.99141484	u o m	-0.41042045
-1.1215148	o o m	-0.434386
-0.8522479	r o m	-0.3971382
-0.99410665	s o m	-0.63673615
-1.1662865	k o m	-0.44544291
-1.1021262	n o m	-0.4022138
-1.2611524	d o m	-0.27567813
-1.1424682	p o m	-0.26582104
-0.9604556	, o m	-0.5844108
-0.8906622	. o m	-0.44000235
-0.791031	h o m	-0.27567813
-0.91808873	w o m	-0.37795812
-0.8271284	l o m	-0.28985977
-1.2798125	g o m	-0.26582104
-0.6884292	t o m	-0.5240862
-0.26762182	ork o m	-0.27567813
-1.5983795	i r m	-0.27567813
-1.697257	e r m	-0.27567813
-2.1338162	o s m	-0.27567813
-2.1414638	o k m	-0.27567813
-1.7923822	<s> n m	-1.3048548
-1.8755357	a n m	-0.26908192
-1.20274	i n m	-0.6357469
-1.7290848	e n m	-0.27567813
-1.0992991	u n m	-0.4022138
-1.4176037	o n m	-0.44000235
-1.1927992	n n m	-0.27567813
-1.6195997	<s> , m	-0.95658123
-1.0222026	a , m	-0.46957004
-0.99211144	m , m	-0.27567813
-1.3798385	i , m	-0.26908192
-1.2452148	e , m	-0.37861466
-1.0810275	u , m	-0.26908192
-1.2849069	o , m	-0.27567813
-1.243868	, , m	-0.27567813
-0.5262462	. , m	-0.27567813
-0.9750984	u . m	-0.27567813
-0.72628343	o . m	-0.27567813
-1.3691854	o w m	-0.27567813
-0.97121274	k w m	-0.27567813
-0.22730236	a yye m	-0.27567813
-1.419038	<s> a i	-1.3497419
-1.8416779	a a i	-0.27567813
-1.1959203	m a i	-0.59998727
-1.5689623	i a i	-0.3331162
-1.7661297	e a i	-0.26908192
-1.4327195	y a i	-0.27567813
-1.3232702	b a i	-0.3216309
-1.2664626	u a i	-0.32550707
-1.4890095	o a i	-0.27567813
-1.1592982	r a i	-0.31559643
-1.0067527	s a i	-0.36603957
-1.2732537	k a i	-0.39230976
-1.0957055	n a i	-0.60879624
-1.3778766	d a i	-0.30921364
-0.87786984	p a i	-0.4703591
-1.4929658	l a i	-0.27567813
-1.4567873	g a i	-0.27567813
-0.5565554	v a i	-0.27567813
-0.36956963	<s> m i	-1.897896
-0.7455292	a m i	-0.7662585
-0.49232173	m m i	-0.2707216
-0.57252705	i m i	-0.74128115
-0.6467128	e m i	-0.69696784
-0.5222744	y m i	-0.2723675
-0.65421593	u m i	-0.6399281
-0.72634625	o m i	-0.7993203
-0.6021562	r m i	-0.27567813
-0.23202212	s m i	-0.27567813
-0.23202212	k m i	-0.27567813
-0.5722214	n m i	-0.3810227
-0.4788745	, m i	-0.44797707
-0.4762724	. m i	-0.27567813
-0.28485546	w m i	-0.26908192
-1.3594356	<s> i i	-1.4773661
-1.4503145	a i i	-0.32633978
-1.2359917	m i i	-0.5727824
-1.1380243	i i i	-0.45122248
-1.4950349	e i i	-0.29477912
-1.3198382	b i i	-0.34361252
-1.3881218	o i i	-0.26582104
-1.2310444	r i i	-0.45405862
-1.096001	s i i	-0.48951697
-1.043288	k i i	-0.4190854
-1.1711061	n i i	-0.4531582
-1.5059037	d i i	-0.27567813
-1.3846432	, i i	-0.26721558
-0.27611658	c i i	-0.27567813
-1.13721	h i i	-0.27001816
-1.4680629	g i i	-0.27567813
-1.1812024	t i i	-0.27567813
-0.85654604	<s> e i	-1.707615
-1.3775893	a e i	-0.2723675
-1.1575673	m e i	-0.45119774
-1.2193147	i e i	-0.39014167
-0.96796143	e e i	-0.3723635
-1.12301	y e i	-0.43231577
-1.299167	b e i	-0.5124722
-1.266935	u e i	-0.27567813
-1.0561923	o e i	-0.2682644
-1.3256445	r e i	-0.27567813
-1.0430163	s e i	-0.6496234
-1.2870748	k e i	-0.28406245
-1.1051073	n e i	-0.28483278
-0.88575613	d e i	-0.2674484
-1.3755039	p e i	-0.27567813
-0.5863162	w e i	-0.40822268
-1.3233949	l e i	-0.27567813
-1.1221985	t e i	-0.26582104
-1.2245408	- e i	-0.27567813
-1.5238726	a y i	-0.27567813
-1.320322	i y i	-0.26908192
-1.165252	e y i	-0.27567813
-0.9484808	o y i	-0.27567813
-1.3274934	n y i	-0.27567813
-0.7213394	<s> b i	-1.8209764
-0.7108969	a b i	-0.7972938
-0.7970992	m b i	-0.27567813
-0.69152355	i b i	-0.79684246
-0.8102114	e b i	-0.49995166
-0.82845396	b b i	-0.27567813
-0.7480493	u b i	-0.514678
-0.75643754	o b i	-0.7887765
-0.68727916	n b i	-0.40178737
-0.53062344	, b i	-0.30880308
-0.4953606	c b i	-0.27567813
-0.78570837	g b i	-0.4302867
-2.0095067	<s> u i	-0.5660565
-1.4088012	m u i	-0.27170837
-1.181432	b u i	-0.5906036
-0.8174726	o u i	-0.27567813
-1.4898179	r u i	-0.27567813
-1.3686137	k u i	-0.2723675
-1.408433	p u i	-0.27170837
-1.2000203	h u i	-0.27567813
-1.8095106	<s> o i	-1.1351087
-1.210693	m o i	-0.2707216
-1.2964416	b o i	-0.55532336
-1.6953096	u o i	-0.27567813
-1.8393618	o o i	-0.27567813
-1.5188177	r o i	-0.27567813
-1.1708746	s o i	-0.4592415
-1.3497579	k o i	-0.33963946
-1.6064984	n o i	-0.27567813
-1.2180928	d o i	-0.2728389
-1.2515657	w o i	-0.34001914
-0.22191174	<s> r i	-1.8977605
-0.46462083	a r i	-0.7790041
-0.4081015	i r i	-0.79327464
-0.47097218	e r i	-0.4994269
-0.92424774	u r i	-0.27567813
-0.54445374	o r i	-0.8025429
-0.26945853	p r i	-0.27567813
-0.22024243	w r i	-0.27567813
-0.22024243	pii r i	-0.27567813
-0.60517937	<s> s i	-1.7503147
-0.6549307	a s i	-0.73503137
-0.73603064	m s i	-0.27567813
-0.66375965	i s i	-0.66577625
-0.57410896	e s i	-0.5180968
-0.6832651	u s i	-0.44981316
-0.7078316	o s i	-0.6698391
-0.22777188	k s i	-0.27567813
-0.6313014	n s i	-0.39437166
-0.8178449	, s i	-0.29146448
-0.22777188	v s i	-0.27567813
-0.5541457	<s> k i	-1.4484655
-0.92219454	a k i	-0.34147567
-0.75965005	i k i	-0.585639
-0.949096	e k i	-0.3609798
-1.1755347	u k i	-0.27567813
-0.7767829	o k i	-0.7645025
-0.70613384	s k i	-0.26908192
-0.54935133	<s> n i	-1.8969975
-0.9053556	a n i	-0.8060593
-0.9617257	i n i	-0.8302875
-0.88223296	e n i	-0.5931743
-1.0792072	u n i	-0.29807732
-1.0939677	o n i	-0.48122162
-0.27008483	. n i	-0.27567813
-0.27008483	rie n i	-0.27567813
-0.888674	<s> d i	-1.6796088
-0.6800132	a d i	-0.5465595
-0.7235112	i d i	-0.69486666
-0.53377104	e d i	-0.36325374
-0.64839804	u d i	-0.34542036
-0.72074753	o d i	-0.6831716
-0.7311369	n d i	-0.27567813
-0.07713705	<s> p i	-2.2887585
-0.6303103	a p i	-0.7987521
-0.6712292	i p i	-0.5770186
-0.6195575	e p i	-0.44000235
-0.63144404	u p i	-0.29608235
-0.65203327	o p i	-0.8652374
-0.38831228	n p i	-0.34001914
-0.51176465	, p i	-0.29608235
-0.5394786	<s> , i	-1.5974566
-0.8105617	a , i	-0.6030268
-0.94122714	m , i	-0.27567813
-0.7452992	i , i	-0.5635917
-0.8206627	e , i	-0.7348182
-0.8719529	u , i	-0.26908192
-0.84350574	o , i	-0.30487737
-0.63353837	s , i	-0.27567813
-0.8336	n , i	-0.27567813
-0.6656792	, , i	-0.3056851
-0.24995767	yye , i	-0.27567813
-1.1766355	<s> . i	-0.63889587
-0.8839053	a . i	-0.3523531
-0.8078407	i . i	-0.31312853
-0.775288	e . i	-0.47243702
-0.6692806	. . i	-0.27567813
-1.2127846	e c i	-0.27567813
-0.4893117	<s> h i	-0.40001377
-0.55066246	c h i	-0.46153557
-0.459786	g h i	-0.27567813
-0.27698496	m w i	-0.27567813
-0.9603151	k w i	-0.27567813
-2.1183174	<s> l i	-0.27567813
-0.5658804	a l i	-0.29192483
-0.88338196	i l i	-0.27170837
-0.80282533	e l i	-0.2707216
-0.782692	o l i	-0.28285477
-1.2160347	<s> g i	-0.702609
-1.2411276	a g i	-0.27170837
-1.0770046	m g i	-0.26908192
-0.97966635	i g i	-0.3230184
-0.89200926	e g i	-0.28654578
-1.34003	o g i	-0.27567813
-0.67687225	n g i	-0.36893362
-0.38831326	<s> t i	-1.8922817
-1.0722525	a t i	-0.29376817
-1.2917655	i t i	-0.26582104
-1.3237653	e t i	-0.27567813
-1.473994	o t i	-0.27567813
-0.12168916	<s> f i	-1.239407
-0.4893945	a f i	-0.39473152
-0.2754969	i f i	-0.4689082
-0.5169202	e f i	-0.4022138
-0.6398963	u f i	-0.26582104
-0.55340225	o f i	-0.44243497
-0.096264504	<s> j i	-1.4566754
-0.29537877	a j i	-0.3741709
-0.42731157	i j i	-0.44795716
-0.36576477	e j i	-0.53016555
-0.46695596	u j i	-0.30310377
-0.40885738	o j i	-0.43936756
-0.41890767	k j i	-0.27567813
-0.40010637	n j i	-0.27170837
-0.27367833	, j i	-0.3230184
-0.41890767	. j i	-0.27567813
-0.24125162	t j i	-0.26582104
-0.20847051	<s> v i	-0.26582104
-0.20847051	a v i	-0.26582104
-0.3293607	u v i	-0.26908192
-0.23454155	o v i	-0.4649579
-2.7759728	<s> a e	-0.59906846
-2.037826	a a e	-0.27567813
-1.4408054	m a e	-0.28812125
-1.6213828	i a e	-0.2682644
-1.9642632	e a e	-0.27567813
-1.8562683	u a e	-0.27567813
-1.5447539	r a e	-0.2707216
-1.6532965	k a e	-0.2723675
-1.8189309	n a e	-0.26582104
-1.5978721	l a e	-0.27567813
-1.1677053	- a e	-0.27567813
-1.2529361	f a e	-0.26908192
-0.68986094	<s> m e	-1.7237349
-0.837686	a m e	-0.83158904
-0.89811194	i m e	-0.6099484
-0.6409137	e m e	-0.77503884
-0.8445944	u m e	-0.47838902
-0.8185214	o m e	-0.64758
-0.665263	r m e	-0.27567813
-0.6967791	n m e	-0.39025396
-1.145987	, m e	-0.2707216
-1.3220007	<s> i e	-1.4344782
-1.1135616	m i e	-0.63276684
-0.9725139	y i e	-0.26582104
-0.9836873	b i e	-0.5856973
-1.1755502	r i e	-0.34444594
-1.2741337	s i e	-0.31494558
-1.7375613	k i e	-0.27567813
-1.7731419	n i e	-0.27567813
-0.7251144	d i e	-0.43554205
-1.1792493	h i e	-0.27126956
-0.95992744	g i e	-0.40014005
-1.2052467	f i e	-0.2723675
-1.6195319	j i e	-0.27567813
-1.7660303	<s> e e	-0.9994552
-1.7803853	m e e	-0.2728389
-1.382797	i e e	-0.3222259
-1.0402082	y e e	-0.5825348
-1.4186589	b e e	-0.4681729
-1.5188006	o e e	-0.27567813
-1.4243798	r e e	-0.2728389
-1.7350317	k e e	-0.27567813
-0.10997948	<s> y e	-1.4684584
-0.41223156	a y e	-0.6775839
-0.4530672	m y e	-0.27567813
-0.5605978	i y e	-0.46254772
-0.24522007	e y e	-0.48022324
-0.17363988	u y e	-0.29376817
-0.35892183	o y e	-0.36847326
-0.7374917	n y e	-0.35707015
-0.43977404	<s> b e	-2.0159926
-0.71674657	a b e	-0.79759127
-0.82128227	m b e	-0.27170837
-0.7430126	i b e	-0.67795956
-0.6109003	e b e	-0.60788625
-0.7255646	b b e	-0.27567813
-0.7155627	u b e	-0.43231836
-0.7381986	o b e	-0.7830664
-0.36353415	s b e	-0.2934788
-0.21229786	k b e	-0.27567813
-0.91152954	n b e	-0.29807732
-0.21229786	d b e	-0.27567813
-0.21229786	p b e	-0.27567813
-0.48429877	, b e	-0.27001816
-0.21229786	w b e	-0.27567813
-0.4816712	l b e	-0.2728389
-0.6780573	g b e	-0.42351604
-0.35649168	t b e	-0.28575975
-0.21229786	f b e	-0.27567813
-2.639825	<s> u e	-0.2707216
-1.6630274	m u e	-0.27567813
-1.4651058	k u e	-0.27368873
-1.6691809	p u e	-0.27567813
-2.9225686	<s> o e	-0.4022138
-1.6187645	m o e	-0.27567813
-1.3813211	b o e	-0.47922644
-1.1914083	s o e	-0.5172485
-1.8170444	n o e	-0.27567813
-1.6565697	w o e	-0.27567813
-1.4159987	g o e	-0.2707216
-0.9729112	<s> r e	-1.4553547
-1.2344495	a r e	-0.27567813
-1.497528	i r e	-0.27170837
-0.50073385	e r e	-0.5444394
-0.24716187	<s> s e	-2.0344791
-0.65858454	a s e	-0.7787053
-0.39320537	m s e	-0.27001816
-0.6192091	i s e	-0.74149364
-0.64090735	e s e	-0.65595454
-0.57783556	u s e	-0.53248423
-0.6867631	o s e	-0.7317847
-0.57036066	n s e	-0.47709316
-0.31932595	, s e	-0.5897975
-0.48023078	. s e	-0.27567813
-1.3188224	<s> k e	-0.9111859
-1.4370757	a k e	-0.27567813
-0.83502007	i k e	-0.44610807
-0.6245293	e k e	-0.5718337
-1.1515311	u k e	-0.29376817
-1.5963746	o k e	-0.27170837
-0.8314343	s k e	-0.27567813
-0.8997507	n k e	-0.27567813
-0.79844034	<s> n e	-1.8619709
-0.9343618	a n e	-0.69972247
-0.96215236	i n e	-0.68181455
-0.99831223	e n e	-0.51335007
-1.1815038	u n e	-0.31312853
-0.918162	o n e	-0.87726134
-1.1750046	, n e	-0.26582104
-0.54605484	w n e	-0.27567813
-1.9908295	<s> d e	-0.5932491
-1.5792713	a d e	-0.27567813
-1.2010292	i d e	-0.328211
-1.0816203	u d e	-0.27567813
-1.0888555	o d e	-0.36325374
-0.75819457	n d e	-0.2960833
-1.5585153	<s> p e	-1.2632763
-1.0148637	a p e	-0.47719708
-0.9613501	i p e	-0.39014167
-1.1628339	e p e	-0.2707216
-0.8019502	o p e	-0.5825014
-0.9216737	k p e	-0.27567813
-1.6343269	<s> h e	-0.27567813
-0.8682369	c h e	-0.27567813
-0.9975568	<s> w e	-1.3601863
-0.8213881	u w e	-0.26908192
-1.021735	o w e	-0.27567813
-0.68525696	k w e	-0.2707216
-0.5324798	n w e	-0.47476444
-0.6782832	g w e	-0.26908192
-0.21261582	<s> l e	-1.2182177
-0.8321067	a l e	-0.31312853
-0.8514904	i l e	-0.2723675
-0.4497366	e l e	-0.39420408
-0.7911887	u l e	-0.27567813
-1.1384325	o l e	-0.27567813
-1.8374857	<s> g e	-0.43159693
-1.2977412	a g e	-0.27567813
-1.144899	m g e	-0.27567813
-1.225575	i g e	-0.26908192
-1.1799697	e g e	-0.26582104
-0.8795725	u g e	-0.27567813
-1.1699786	o g e	-0.2934788
-0.6631063	n g e	-0.34542036
-1.5407182	<s> t e	-0.4649579
-0.78145254	a t e	-0.41992843
-1.077281	i t e	-0.26908192
-1.0092993	e t e	-0.2990782
-0.64414704	u t e	-0.27567813
-0.86672544	o t e	-0.42804253
-0.10057656	<s> - e	-0.3472358
-0.45396674	i - e	-0.3047723
-0.23634778	e - e	-0.27567813
-2.331042	<s> f e	-0.27567813
-1.3874018	a f e	-0.27567813
-1.0690106	e f e	-0.26908192
-1.6753198	<s> j e	-0.3230184
-0.8606833	i j e	-0.31312853
-1.2263552	e j e	-0.27567813
-0.86764324	o j e	-0.26582104
-0.87263393	n j e	-0.27567813
-0.7857839	o v e	-0.26582104
-1.7471806	<s> a y	-1.8512921
-1.327314	a a y	-0.492377
-1.4194	m a y	-0.38018245
-1.182282	i a y	-0.5932491
-1.8070204	e a y	-0.2707216
-1.4466509	b a y	-0.41992843
-1.3911932	u a y	-0.41992843
-1.1090958	o a y	-0.49910966
-1.6020865	r a y	-0.27567813
-1.0162606	s a y	-0.53110117
-1.439634	k a y	-0.3230184
-1.6145153	n a y	-0.3066582
-1.6900305	d a y	-0.27567813
-0.72273904	h a y	-0.27567813
-1.2617024	l a y	-0.2707216
-1.5030855	g a y	-0.27567813
-2.2571728	o m y	-0.27567813
-1.9513627	<s> i y	-1.6552895
-1.3690404	a i y	-0.43936756
-1.9309118	m i y	-0.27567813
-1.4277914	i i y	-0.49910966
-1.1465989	e i y	-0.59906846
-1.2606407	b i y	-0.49633905
-1.2755468	o i y	-0.41992843
-1.259084	r i y	-0.4046464
-1.5351652	s i y	-0.31312853
-1.6810805	n i y	-0.26908192
-1.0358529	, i y	-0.5660565
-1.4209318	g i y	-0.26908192
-1.5413415	f i y	-0.27567813
-1.6182082	j i y	-0.27567813
-2.3805883	<s> e y	-1.2246257
-1.8951955	m e y	-0.27567813
-1.3817749	i e y	-0.4592566
-1.4915094	b e y	-0.48512506
-1.548293	r e y	-0.27567813
-1.7319453	k e y	-0.27567813
-0.91913545	h e y	-0.26582104
-1.5274143	l e y	-0.27567813
-1.293972	g e y	-0.26582104
-1.0559728	u y y	-0.27567813
-3.1011415	<s> u y	-0.27567813
-1.9474264	b u y	-0.27567813
-0.74309933	u u y	-0.27567813
-1.7764628	k u y	-0.27567813
-1.2887889	h u y	-0.27567813
-1.893306	<s> o y	-1.9082209
-2.2098498	a o y	-0.27567813
-1.6747186	b o y	-0.4649579
-1.8241116	u o y	-0.27567813
-1.4165988	s o y	-0.4649579
-1.7742745	k o y	-0.2707216
-1.0214067	g o y	-0.434386
-1.4899548	<s> n y	-1.6058848
-1.0713797	a n y	-0.6395747
-1.0769297	i n y	-0.73795915
-1.1537025	e n y	-0.49972
-1.1769617	u n y	-0.2990782
-1.0136367	o n y	-0.6265813
-1.0132731	n n y	-0.27567813
-1.1695831	, n y	-0.26908192
-0.5443652	w n y	-0.27567813
-0.80431485	<s> a b	-2.2365453
-1.0006826	a a b	-0.64422184
-1.1807166	m a b	-0.70799595
-1.0177034	i a b	-0.7475045
-1.0859501	e a b	-0.54899246
-0.94841903	y a b	-0.3472358
-1.1004384	b a b	-0.60530376
-0.9886243	u a b	-0.5256557
-1.1726103	o a b	-0.33952564
-1.0346178	r a b	-0.3792321
-0.9951207	s a b	-0.47742867
-1.0005286	k a b	-0.4889086
-1.1900736	n a b	-0.5161104
-0.952527	d a b	-0.5117974
-1.0874763	p a b	-0.43232474
-1.002276	, a b	-0.58841133
-1.4665996	. a b	-0.27567813
-1.0695944	l a b	-0.35857445
-1.3130016	g a b	-0.2707216
-1.0928144	t a b	-0.2707216
-1.28329	f a b	-0.27567813
-0.70142204	z a b	-0.27567813
-2.7663507	<s> m b	-0.4649579
-1.4238199	a m b	-0.3109604
-1.6786138	e m b	-0.26908192
-1.158454	u m b	-0.3472358
-1.998693	o m b	-0.27567813
-0.80035126	<s> i b	-2.4079576
-0.93872535	a i b	-0.77494276
-1.1231787	m i b	-0.73795915
-0.9319992	i i b	-0.8840872
-0.9278469	e i b	-0.82510936
-1.0608904	y i b	-0.27567813
-1.2143238	b i b	-0.5295262
-0.83152515	u i b	-0.4076724
-0.96809304	o i b	-0.45380548
-1.0621488	r i b	-0.56186795
-1.0781498	s i b	-0.43231577
-1.1670569	k i b	-0.4425765
-1.1457238	n i b	-0.57610834
-1.3825606	p i b	-0.26582104
-0.8191195	, i b	-0.6162256
-0.91041106	. i b	-0.32024777
-1.2027205	h i b	-0.27567813
-1.0040427	l i b	-0.26721558
-1.3123943	g i b	-0.27170837
-0.44685492	t i b	-0.35707015
-1.1445426	f i b	-0.31506363
-1.3944559	j i b	-0.2707216
-1.1329906	<s> e b	-1.7627184
-1.5414371	a e b	-0.27567813
-1.1102769	m e b	-0.5295262
-1.1211874	i e b	-0.5898967
-1.5001776	e e b	-0.26908192
-1.2283461	y e b	-0.37005058
-1.1819689	b e b	-0.77494276
-1.3904591	o e b	-0.27567813
-1.3045996	r e b	-0.2707216
-1.2391493	s e b	-0.5063505
-1.329448	k e b	-0.2677746
-1.1339483	n e b	-0.3368318
-1.0678902	d e b	-0.26908192
-1.3355868	w e b	-0.27567813
-0.95886546	l e b	-0.2993089
-3.946699	<s> b b	-0.27567813
-2.1047854	a b b	-0.27567813
-1.1686089	m b b	-0.26582104
-2.057673	o b b	-0.27567813
-1.3154742	<s> u b	-0.9964368
-1.0164163	m u b	-0.2960833
-1.205619	b u b	-0.5898967
-0.7839065	o u b	-0.27567813
-0.89914894	r u b	-0.37080926
-1.0104473	k u b	-0.46188164
-0.8579737	n u b	-0.27567813
-1.4013946	p u b	-0.27567813
-0.99625057	h u b	-0.27170837
-0.7657111	w u b	-0.2934788
-1.0968935	l u b	-0.2677746
-0.9629364	j u b	-0.27170837
-0.68407154	<s> o b	-2.4153228
-0.9691319	a o b	-0.8909266
-1.1406881	m o b	-0.2878045
-1.0637407	i o b	-0.7475045
-0.94161767	e o b	-0.8329347
-1.0713211	y o b	-0.27170837
-1.0550922	b o b	-0.7659879
-0.938067	u o b	-0.43261617
-0.90524274	o o b	-0.5284171
-1.123502	r o b	-0.30880308
-0.9533417	s o b	-0.60530376
-1.1097428	k o b	-0.44544291
-1.0433935	n o b	-0.40405568
-1.2956078	d o b	-0.27567813
-0.9698946	, o b	-0.6975305
-0.90020895	. o b	-0.5117974
-0.93497556	w o b	-0.34278053
-1.5685439	t o b	-0.27567813
-0.9537995	f o b	-0.26582104
-1.8769001	i r b	-0.27567813
-1.9424925	<s> s b	-1.406966
-1.1604232	a s b	-0.70799595
-1.315846	o s b	-0.4592566
-2.1161246	o k b	-0.27567813
-2.6382222	<s> n b	-0.44000235
-1.8645538	a n b	-0.27567813
-1.2001479	i n b	-0.5785258
-1.8048227	e n b	-0.27567813
-1.0102677	u n b	-0.40405568
-1.2611117	o n b	-0.4340014
-1.1840038	n n b	-0.27567813
-1.9574417	o d b	-0.27567813
-1.9119143	i p b	-0.27567813
-1.3389219	a , b	-0.2707216
-1.5669898	e , b	-0.2990782
-1.3264501	u , b	-0.27567813
-0.50885457	s , b	-0.27567813
-1.115484	n , b	-0.27567813
-1.4839652	a . b	-0.27567813
-1.716011	e . b	-0.27567813
-1.0279267	u c b	-0.27567813
-1.1582344	o c b	-0.27567813
-1.3288009	o w b	-0.26582104
-2.2409017	<s> l b	-0.26582104
-1.3950322	e l b	-0.27567813
-1.4439436	o l b	-0.27567813
-0.357423	<s> g b	-1.6337498
-0.49241227	a g b	-0.52180356
-0.40345982	m g b	-0.67581123
-0.60496426	i g b	-0.6448812
-0.55149984	e g b	-0.49726063
-0.769769	u g b	-0.26908192
-0.57262623	o g b	-0.68763316
-1.0470806	n g b	-0.27567813
-2.3354402	<s> t b	-0.26582104
-1.3265476	e t b	-0.26908192
-0.82129383	s t b	-0.27567813
-1.2020152	e f b	-0.26582104
-0.17035466	<s> jo b	-0.27567813
-2.3831136	i a u	-0.27567813
-1.5739839	<s> m u	-1.3900437
-0.8689621	a m u	-0.70112383
-0.78187543	m m u	-0.26908192
-0.8190516	i m u	-0.60371596
-1.2789361	e m u	-0.39230976
-1.4908553	u m u	-0.27567813
-0.85099417	o m u	-0.64517975
-1.296149	, m u	-0.27567813
-1.7819331	r e u	-0.27567813
-1.21948	<s> b u	-1.3361263
-0.89904594	a b u	-0.61664116
-1.0209686	m b u	-0.2707216
-0.8486997	i b u	-0.61611885
-0.82385886	e b u	-0.50151294
-0.7632836	u b u	-0.4574833
-0.85193336	o b u	-0.6166086
-0.7986922	n b u	-0.31281734
-0.5211959	c b u	-0.27567813
-2.0567892	b u u	-0.27567813
-0.6570008	c u u	-0.27567813
-2.307317	b o u	-0.27567813
-0.2936008	c o u	-0.27567813
-2.0058632	<s> r u	-0.56618357
-0.81217086	a r u	-0.5649277
-1.0146115	i r u	-0.41715777
-1.3630192	e r u	-0.26582104
-0.6056852	u r u	-0.2891745
-0.7028764	o r u	-0.61307263
-0.52610743	<s> k u	-1.4637928
-0.7263477	a k u	-0.5921966
-1.2847829	i k u	-0.26848724
-1.0507708	e k u	-0.2990782
-0.6809598	u k u	-0.35275516
-0.7275713	o k u	-0.7450547
-2.2467322	<s> n u	-1.3400191
-1.6788639	u n u	-0.27170837
-0.33124048	<s> d u	-2.204662
-0.6238653	a d u	-0.73503137
-0.21809493	m d u	-0.27567813
-0.63203245	i d u	-0.7612799
-0.5811471	e d u	-0.41992843
-0.21809493	y d u	-0.27567813
-0.6970091	u d u	-0.35707015
-0.62874806	o d u	-0.8282267
-0.79528177	n d u	-0.2707216
-0.45211977	w d u	-0.27567813
-1.0076015	<s> p u	-1.3984255
-0.73343587	a p u	-0.5897682
-0.89160943	i p u	-0.5465595
-0.99214745	e p u	-0.3066582
-1.0025154	u p u	-0.27567813
-1.0090113	o p u	-0.5212859
-1.4235429	a . u	-0.26908192
-0.87288415	a c u	-0.27567813
-1.0065957	u c u	-0.27567813
-0.25664136	c c u	-0.27567813
-0.20814669	<s> h u	-1.1681165
-0.60961366	c h u	-0.43231982
-0.46261084	g h u	-0.27567813
-1.9593837	<s> w u	-0.43936756
-0.9162861	a w u	-0.2723675
-0.97208214	i w u	-0.27567813
-0.98559886	u w u	-0.27567813
-0.6752851	o w u	-0.45882493
-1.4067267	<s> l u	-0.34463128
-1.0443717	i l u	-0.27567813
-0.63249636	u l u	-0.26908192
-0.7435836	o l u	-0.30093154
-0.4749987	k l u	-0.27567813
-0.42671475	. l u	-0.26582104
-0.23129593	- l u	-0.27567813
-2.4387662	<s> g u	-0.34001914
-1.7125955	o g u	-0.27567813
-1.298522	<s> f u	-0.56186795
-1.0436395	a f u	-0.2707216
-1.0327175	i f u	-0.26908192
-0.84709245	e f u	-0.2677746
-0.727867	u f u	-0.27567813
-0.8607227	o f u	-0.26908192
-0.22382878	n f u	-0.27567813
-1.5449764	<s> j u	-0.2677746
-0.9718131	a j u	-0.27567813
-0.83163756	i j u	-0.26908192
-0.8950604	e j u	-0.31312853
-0.7602412	u j u	-0.27170837
-0.83115786	o j u	-0.2723675
-0.32625443	o z u	-0.26582104
-1.008323	<s> a o	-1.652361
-1.251351	a a o	-0.36470816
-1.248548	m a o	-0.617374
-1.1687015	i a o	-0.46821216
-1.2064614	e a o	-0.33298603
-1.1173203	y a o	-0.2707216
-1.1685853	b a o	-0.42392975
-1.1779466	u a o	-0.28654578
-1.3246982	o a o	-0.26582104
-1.047461	r a o	-0.38189858
-1.2693061	s a o	-0.26908192
-1.0101403	k a o	-0.46927354
-1.0461302	n a o	-0.6113238
-1.0325832	d a o	-0.37379798
-1.098311	p a o	-0.43510497
-1.08534	l a o	-0.32919723
-1.3418397	g a o	-0.27567813
-1.1059351	- a o	-0.27567813
-1.3126915	f a o	-0.27567813
-1.9443538	<s> m o	-0.9158922
-1.1882026	a m o	-0.42686418
-1.8492548	i m o	-0.27567813
-1.7400482	e m o	-0.27567813
-1.1404841	u m o	-0.35707015
-0.95925015	o m o	-0.5143601
-1.1942751	<s> i o	-1.6498231
-1.7264085	a i o	-0.27567813
-1.2309053	m i o	-0.67581123
-1.3976758	i i o	-0.36325374
-1.7542012	e i o	-0.2728389
-1.2330872	b i o	-0.38811615
-1.3778518	o i o	-0.2707216
-1.145513	r i o	-0.5179033
-1.0917826	s i o	-0.36847326
-1.0386016	k i o	-0.49774486
-1.1650679	n i o	-0.525822
-1.4922241	d i o	-0.27567813
-1.4214371	p i o	-0.2707216
-1.1264457	h i o	-0.2707216
-1.2175399	l i o	-0.27567813
-1.1886499	g i o	-0.27001816
-1.1727412	t i o	-0.27567813
-1.550765	j i o	-0.27567813
-0.86892205	<s> e o	-1.6193283
-1.2107234	a e o	-0.27126956
-1.0951276	m e o	-0.59063524
-1.2247702	i e o	-0.4377557
-1.0561222	e e o	-0.4111835
-1.1273729	y e o	-0.39289552
-1.1701422	b e o	-0.6942264
-1.1607567	u e o	-0.2707216
-0.9127344	o e o	-0.26670796
-1.2575452	r e o	-0.27567813
-1.0462784	s e o	-0.68234754
-0.9134694	k e o	-0.4025169
-1.1110389	n e o	-0.29241127
-1.0441173	d e o	-0.2723675
-1.021186	h e o	-0.27567813
-1.2946203	w e o	-0.27567813
-1.3366423	l e o	-0.27567813
-0.9143155	- e o	-0.2707216
-2.4324546	<s> y o	-0.27567813
-1.5216743	a y o	-0.27567813
-1.4285294	i y o	-0.27567813
-1.0625496	o y o	-0.27567813
-0.69719964	n y o	-0.4463002
-0.72819656	<s> b o	-1.7852261
-0.77087003	a b o	-0.82743925
-0.53165907	m b o	-0.29608285
-0.7521421	i b o	-0.7601398
-0.6837565	e b o	-0.5393673
-0.7805741	b b o	-0.27567813
-0.7335856	u b o	-0.44468644
-0.7745065	o b o	-0.78426325
-0.22923504	r b o	-0.27567813
-0.6654597	n b o	-0.37128258
-0.8375665	, b o	-0.27567813
-0.42313945	. b o	-0.26908192
-0.6602645	l b o	-0.27567813
-0.63849866	g b o	-0.45710838
-0.22923504	jo b o	-0.27567813
-1.2262007	<s> u o	-0.8867794
-1.1980594	m u o	-0.27170837
-1.2356993	b u o	-0.5332169
-1.0320337	r u o	-0.29042247
-1.345848	k u o	-0.2778965
-1.3984288	d u o	-0.27567813
-1.3809328	p u o	-0.27319276
-1.1779529	h u o	-0.27567813
-1.1585063	w u o	-0.26908192
-1.5756378	<s> o o	-1.2787013
-1.99204	a o o	-0.27567813
-1.3469875	m o o	-0.27567813
-1.9081951	i o o	-0.27567813
-1.1381859	b o o	-0.652606
-1.3586948	u o o	-0.3230184
-1.6620427	o o o	-0.27567813
-1.3361807	r o o	-0.27346823
-1.0796344	s o o	-0.48338193
-1.1295248	k o o	-0.4174371
-1.6225835	n o o	-0.27567813
-1.3344394	d o o	-0.27567813
-1.5267063	p o o	-0.27567813
-1.2119673	w o o	-0.2878045
-1.338163	g o o	-0.27170837
-1.359342	<s> r o	-1.0950572
-1.4805257	a r o	-0.27567813
-1.242095	i r o	-0.3230184
-1.446905	e r o	-0.27567813
-0.603768	u r o	-0.40342844
-0.7778405	o r o	-0.5037389
-0.84910524	<s> s o	-1.5661638
-0.70626825	a s o	-0.73116416
-0.7543094	m s o	-0.27567813
-0.75154245	i s o	-0.6948666
-0.7563623	e s o	-0.64344144
-0.760062	u s o	-0.4080502
-0.80058765	o s o	-0.583314
-0.63948804	n s o	-0.434386
-0.9912556	, s o	-0.26582104
-0.23369008	w s o	-0.27567813
-0.56115896	<s> k o	-1.4158722
-0.6680267	a k o	-0.51223975
-0.71324897	i k o	-0.46538326
-0.8590665	e k o	-0.3971382
-0.6094472	u k o	-0.40991208
-0.6877637	o k o	-0.63893175
-0.5552081	n k o	-0.31506363
-0.24160618	w k o	-0.27567813
-0.24160618	diu k o	-0.27567813
-1.808801	<s> n o	-0.8872365
-1.4542569	a n o	-0.27001816
-1.2059563	i n o	-0.38493437
-1.4388047	e n o	-0.27001816
-1.0189008	u n o	-0.32966298
-1.208578	o n o	-0.3833029
-1.6239189	<s> d o	-1.2524374
-1.2826641	a d o	-0.34001914
-0.92468816	i d o	-0.38942134
-1.0328587	e d o	-0.26582104
-0.8870009	u d o	-0.31312853
-1.3012657	o d o	-0.31312853
-0.98188597	n d o	-0.27567813
-2.0007176	<s> p o	-0.6755615
-1.0140895	a p o	-0.40380314
-0.89011323	i p o	-0.4903167
-1.2608297	e p o	-0.27567813
-0.80146873	o p o	-0.52577174
-0.57898223	k p o	-0.28855127
-0.4334116	<s> , o	-1.4408817
-0.8570677	a , o	-0.5724545
-0.83142227	m , o	-0.26973706
-0.6991162	i , o	-0.5637566
-0.8258868	e , o	-0.7809245
-0.7455408	u , o	-0.35992602
-0.6643407	o , o	-0.29747838
-0.9713576	n , o	-0.27567813
-0.67331696	, , o	-0.3230184
-0.5155866	. , o	-0.27567813
-0.40613908	<s> . o	-0.9588194
-0.6435598	a . o	-0.38815212
-0.59697497	i . o	-0.32272056
-0.6067251	e . o	-0.7167699
-0.64354086	u . o	-0.2707216
-0.81140846	k . o	-0.26908192
-0.6096939	n . o	-0.27567813
-0.6096939	. . o	-0.27567813
-1.2097139	e c o	-0.27567813
-1.1474435	c h o	-0.27567813
-0.05344719	<s> w o	-1.7872155
-0.27020797	a w o	-0.44428587
-0.7171806	i w o	-0.2723675
-0.7609354	e w o	-0.27567813
-0.72359616	u w o	-0.27567813
-0.8936933	o w o	-0.26582104
-0.7288014	k w o	-0.27567813
-0.42419237	n w o	-0.67480344
-0.6034055	g w o	-0.26582104
-1.1663425	<s> l o	-0.7659879
-0.8822424	i l o	-0.2707216
-0.6880003	u l o	-0.26908192
-0.5648785	o l o	-0.52577174
-0.5090139	k l o	-0.27567813
-0.33234856	<s> g o	-1.6031846
-0.5924852	a g o	-0.4164032
-1.0449064	m g o	-0.27567813
-0.65555817	i g o	-0.43662065
-0.55080026	e g o	-0.36748618
-0.8769703	u g o	-0.27567813
-0.6095723	o g o	-0.44453013
-0.7637184	n g o	-0.33722195
-0.48403668	<s> t o	-1.1902568
-0.5407618	a t o	-0.57874423
-0.49947548	i t o	-0.5974566
-0.6078803	e t o	-0.5047025
-0.5467232	u t o	-0.27567813
-0.4249493	o t o	-0.6690779
-0.46016532	n t o	-0.26582104
-0.3419611	, t o	-0.4022138
-0.4341359	. t o	-0.27567813
-0.20751268	- t o	-0.27567813
-0.20751268	v t o	-0.27567813
-0.9215381	<s> f o	-1.1011696
-1.007827	a f o	-0.26908192
-0.9830644	i f o	-0.2707216
-0.5815767	o f o	-0.49972
-0.8673517	<s> j o	-0.8840872
-0.7316231	a j o	-0.26582104
-0.7264866	i j o	-0.30310377
-0.6727148	e j o	-0.38798434
-0.7326359	u j o	-0.27567813
-0.4332823	k j o	-0.27567813
-0.7093114	n j o	-0.27567813
-0.6296105	, j o	-0.27567813
-0.4332823	. j o	-0.27567813
-0.20700587	- j o	-0.27567813
-0.011561278	<s> z o	-1.3943768
-0.44466752	i z o	-0.26908192
-0.16808134	o ss o	-0.27567813
-0.16808134	k ork o	-0.27567813
-1.0112755	<s> a r	-2.2514727
-1.1536893	a a r	-0.5932491
-1.7387397	m a r	-0.26582104
-1.2649192	i a r	-0.49474138
-1.3605919	e a r	-0.43936756
-0.93262696	b a r	-0.73335475
-1.0491437	u a r	-0.59906846
-1.0876265	o a r	-0.35707015
-1.0036205	s a r	-0.53110117
-0.95039684	k a r	-0.5643063
-1.4460704	n a r	-0.3230184
-1.0109034	p a r	-0.48512506
-1.0092527	, a r	-0.5684011
-1.4953641	. a r	-0.27567813
-0.709992	h a r	-0.27567813
-0.48397893	w a r	-0.5161104
-1.0264477	g a r	-0.27170837
-1.1047276	t a r	-0.3230184
-0.8218944	f a r	-0.41992843
-0.709992	z a r	-0.27567813
-1.0113834	<s> i r	-2.5948894
-1.0750638	a i r	-0.5649277
-1.7628031	m i r	-0.26582104
-1.1872306	i i r	-0.62127775
-1.1810488	e i r	-0.5092301
-1.0564188	b i r	-0.56524783
-1.5333127	o i r	-0.26582104
-1.5731336	r i r	-0.26582104
-1.3492649	s i r	-0.30310377
-1.107434	k i r	-0.47919503
-1.6736437	n i r	-0.27567813
-0.79141045	d i r	-0.5660565
-0.8177609	p i r	-0.6162256
-0.94548446	, i r	-0.48827863
-0.92632675	. i r	-0.34001914
-1.127282	h i r	-0.27170837
-1.3555712	g i r	-0.2707216
-1.1734002	t i r	-0.27567813
-0.8977277	f i r	-0.45855048
-1.3494645	<s> e r	-1.7677937
-0.865432	a e r	-0.5172485
-1.7107658	m e r	-0.27567813
-1.2378058	i e r	-0.5172485
-1.1747072	e e r	-0.41992843
-1.263247	b e r	-0.6063779
-1.3711658	o e r	-0.27567813
-1.2864004	r e r	-0.27170837
-1.3165114	k e r	-0.3066582
-1.4270153	n e r	-0.26582104
-1.2480463	d e r	-0.26582104
-0.7696725	p e r	-0.5161104
-0.9782026	w e r	-0.34001914
-1.3693055	l e r	-0.27567813
-0.4720447	g e r	-0.53110117
-0.61684716	f e r	-0.26908192
-0.44927537	j e r	-0.3472358
-2.132674	<s> u r	-0.7623511
-1.7920685	b u r	-0.26908192
-1.4550694	r u r	-0.26582104
-1.0773262	k u r	-0.4164032
-1.1230903	p u r	-0.35593146
-0.5670778	f u r	-0.48512506
-1.0199519	<s> o r	-2.1995585
-1.2208105	a o r	-0.6118924
-1.3898528	m o r	-0.27567813
-0.9905931	i o r	-0.7659879
-1.067062	e o r	-0.6168402
-1.2097613	b o r	-0.62964123
-1.1894033	u o r	-0.41992843
-1.0652976	o o r	-0.49910966
-1.3896776	r o r	-0.27567813
-1.5956523	s o r	-0.26908192
-0.98517543	k o r	-0.4760461
-1.0425385	n o r	-0.47919503
-0.94136465	d o r	-0.34001914
-0.78850347	p o r	-0.42804253
-0.9694356	, o r	-0.6868067
-1.1059747	. o r	-0.39230976
-1.4231818	w o r	-0.27567813
-1.0561161	g o r	-0.41992843
-0.93187904	t o r	-0.47926688
-0.535146	f o r	-0.2990782
-3.1662514	<s> k r	-0.26582104
-1.0033209	s k r	-0.27567813
-1.7920347	i p r	-0.27567813
-1.0893152	k p r	-0.27567813
-1.0435323	g w r	-0.27567813
-0.17632161	o pii r	-0.27567813
-1.2617207	<s> a s	-1.8757352
-1.1900483	a a s	-0.5231862
-1.2346786	m a s	-0.6161577
-1.3078663	i a s	-0.5395915
-1.136793	e a s	-0.5161104
-1.38169	y a s	-0.27567813
-1.0990915	b a s	-0.63125306
-1.2446338	u a s	-0.33722195
-1.1701963	o a s	-0.36082113
-1.0328081	r a s	-0.4340014
-1.2522342	s a s	-0.32024777
-1.0670247	k a s	-0.5372588
-1.2534968	n a s	-0.5789012
-1.1050184	d a s	-0.38018245
-1.4946809	p a s	-0.26582104
-1.0741141	, a s	-0.4912868
-1.4627781	. a s	-0.27567813
-1.1552267	w a s	-0.27567813
-0.9651499	l a s	-0.37964368
-1.3090216	g a s	-0.27170837
-0.9314037	- a s	-0.26582104
-1.2792351	f a s	-0.27567813
-0.7002533	z a s	-0.27567813
-3.7138195	<s> m s	-0.27567813
-2.1200836	a m s	-0.27567813
-1.8652226	u m s	-0.27567813
-1.4044511	<s> i s	-1.8034143
-1.2476686	a i s	-0.4076724
-1.172745	m i s	-0.6009848
-1.1281478	i i s	-0.5789012
-1.5936301	e i s	-0.2960833
-1.074302	y i s	-0.27567813
-1.2999487	b i s	-0.36333987
-1.1142645	u i s	-0.26582104
-1.2266012	o i s	-0.35707015
-1.2098985	r i s	-0.5441391
-1.0247539	s i s	-0.5093818
-1.0969334	k i s	-0.5047025
-1.2307706	n i s	-0.49120587
-1.4677768	d i s	-0.27567813
-1.399004	p i s	-0.27170837
-1.638684	, i s	-0.27567813
-1.2212512	h i s	-0.27567813
-1.013785	l i s	-0.2707216
-1.0317216	g i s	-0.3109604
-1.4397695	f i s	-0.27567813
-1.216578	j i s	-0.2677746
-1.2664369	<s> e s	-1.7262207
-1.052684	m e s	-0.58042324
-1.1823539	i e s	-0.5047025
-1.3360232	e e s	-0.26908192
-1.2320665	y e s	-0.41992843
-1.225536	b e s	-0.65213734
-1.1496766	r e s	-0.30209485
-1.3251202	s e s	-0.40598685
-1.335786	k e s	-0.3066582
-1.2847177	n e s	-0.2723675
-1.2690105	d e s	-0.26908192
-1.0533321	h e s	-0.27567813
-1.3433543	w e s	-0.27567813
-0.96265596	l e s	-0.3109604
-1.2315304	g e s	-0.26908192
-1.545062	<s> u s	-0.88621867
-1.344866	m u s	-0.26908192
-0.2690988	e u s	-0.27567813
-1.0952381	b u s	-0.6690779
-1.0094289	r u s	-0.28917304
-1.0922991	k u s	-0.40014005
-1.4973271	d u s	-0.27567813
-1.1825455	p u s	-0.3230184
-0.7885785	c u s	-0.27567813
-1.1377704	h u s	-0.27567813
-1.2431194	w u s	-0.27567813
-0.96851903	j u s	-0.2677746
-1.1079831	<s> o s	-1.927523
-1.2754439	a o s	-0.5820781
-1.3082463	m o s	-0.27001816
-1.204931	i o s	-0.54421103
-1.2476739	e o s	-0.5974566
-1.07616	y o s	-0.2707216
-1.12797	b o s	-0.7202304
-1.3289969	u o s	-0.29146448
-1.2230675	o o s	-0.36325374
-0.8696129	r o s	-0.31437156
-1.0078788	s o s	-0.6357469
-1.2887787	k o s	-0.32116938
-1.2253127	n o s	-0.3714003
-1.1566529	, o s	-0.48512506
-1.044192	w o s	-0.3741709
-0.84413284	l o s	-0.2707216
-0.973174	g o s	-0.41232008
-0.7409266	j o s	-0.41992843
-0.5018728	z o s	-0.26908192
-1.9642265	a k s	-0.27567813
-2.437824	<s> n s	-0.7327337
-1.9810058	a n s	-0.27567813
-1.4330086	i n s	-0.45713937
-1.7342829	e n s	-0.27567813
-1.3496015	u n s	-0.2990782
-1.523318	o n s	-0.39230976
-1.196624	n n s	-0.27567813
-1.4685287	<s> , s	-1.2123201
-0.78694296	a , s	-0.59127
-0.99414057	m , s	-0.27567813
-1.2240713	i , s	-0.34001914
-0.9929493	e , s	-0.49952716
-1.1845002	u , s	-0.27567813
-1.1886748	o , s	-0.26582104
-0.8768685	n , s	-0.26582104
-1.136411	, , s	-0.26582104
-1.8638244	e . s	-0.27567813
-1.5385886	o w s	-0.27567813
-0.7207879	i v s	-0.27567813
-1.7571958	<s> a k	-1.3814118
-1.9003456	a a k	-0.26908192
-1.2123777	m a k	-0.4238237
-1.7381904	i a k	-0.2677746
-1.4975208	e a k	-0.41715777
-1.1899803	b a k	-0.5898967
-1.7146244	u a k	-0.26582104
-1.5133593	r a k	-0.2677746
-1.0192348	s a k	-0.5632858
-1.7217402	k a k	-0.27567813
-1.3795195	n a k	-0.34347367
-1.2562225	d a k	-0.2960833
-0.8877478	p a k	-0.5825014
-1.0986788	, a k	-0.42489356
-1.552043	. a k	-0.27567813
-1.3507277	<s> i k	-1.7938808
-1.3571546	a i k	-0.35707015
-1.5481315	m i k	-0.41992843
-1.521683	i i k	-0.3523531
-1.4067647	e i k	-0.35707015
-1.1796974	b i k	-0.509112
-1.4067544	o i k	-0.3230184
-1.2445136	r i k	-0.3792321
-0.9395329	s i k	-0.6399281
-1.4503045	k i k	-0.2990782
-1.1819103	n i k	-0.3540743
-0.7986483	d i k	-0.5092301
-0.7617805	p i k	-0.58841133
-1.5919776	, i k	-0.27567813
-1.3931218	g i k	-0.2707216
-1.5899485	j i k	-0.27567813
-1.7269826	<s> e k	-1.2651592
-0.72918403	a e k	-0.5632858
-1.646358	m e k	-0.2707216
-1.0691371	i e k	-0.5844108
-0.98471266	e e k	-0.5643063
-1.5202199	b e k	-0.39014167
-1.3193274	u e k	-0.27567813
-0.9293707	o e k	-0.37005058
-1.1410757	r e k	-0.29146448
-1.5507933	s e k	-0.34001914
-1.5743219	k e k	-0.27567813
-1.276484	n e k	-0.26908192
-0.78837043	d e k	-0.39299333
-0.6766956	p e k	-0.49972
-1.2824426	l e k	-0.26582104
-0.51075566	t e k	-0.51292306
-0.6490016	<s> u k	-1.9209877
-1.451632	m u k	-0.27567813
-1.1510636	b u k	-0.48705167
-0.6957351	u u k	-0.27567813
-1.3117964	r u k	-0.2707216
-1.4349582	k u k	-0.27170837
-0.53114414	d u k	-0.6110859
-1.0500622	p u k	-0.3540743
-1.1407038	h u k	-0.27567813
-0.5202147	l u k	-0.37535337
-1.2372546	f u k	-0.27567813
-1.1616709	j u k	-0.27567813
-0.8147963	<s> o k	-2.3814118
-0.914258	a o k	-0.89501417
-0.98673964	m o k	-0.3066582
-0.9860326	i o k	-0.76505464
-0.9115141	e o k	-0.8799312
-1.1860073	y o k	-0.27567813
-1.2501962	b o k	-0.45557076
-0.9298219	u o k	-0.4835132
-0.8578423	o o k	-0.60556054
-1.1073405	r o k	-0.2707216
-1.1249037	s o k	-0.39299333
-1.0337131	k o k	-0.5643063
-1.0326635	n o k	-0.47926688
-0.4697618	d o k	-0.48827863
-0.7837297	p o k	-0.40014005
-1.0165048	, o k	-0.56495035
-0.75656605	. o k	-0.48489434
-0.7968927	h o k	-0.27567813
-1.3105247	w o k	-0.26582104
-0.6606783	l o k	-0.2934788
-1.5343548	g o k	-0.27567813
-0.7558811	t o k	-0.5319047
-3.5942354	<s> s k	-0.27567813
-1.9962189	i s k	-0.27567813
-1.8434199	o s k	-0.26908192
-3.0087426	<s> n k	-0.49910966
-1.8133308	a n k	-0.3230184
-1.5866728	i n k	-0.3230184
-1.549342	o w k	-0.27567813
-0.17632161	o diu k	-0.27567813
-0.5957178	<s> a n	-2.2757163
-0.9157525	a a n	-0.84817463
-1.129172	m a n	-0.6032606
-1.2513967	i a n	-0.53429693
-0.83215463	e a n	-0.82105875
-0.9457587	y a n	-0.34184152
-1.1551993	b a n	-0.45780993
-0.9868532	u a n	-0.4360512
-0.92248565	o a n	-0.4062846
-0.9500065	r a n	-0.39869246
-1.5403525	s a n	-0.2707216
-1.1462679	k a n	-0.3275409
-1.1874645	n a n	-0.5229498
-1.5801791	d a n	-0.27567813
-1.0849739	p a n	-0.3066582
-0.8840425	, a n	-0.67565423
-0.6207183	. a n	-0.5789012
-1.004936	w a n	-0.26908192
-1.3472351	l a n	-0.27170837
-1.0084552	g a n	-0.26908192
-1.4294275	t a n	-0.27567813
-1.1596589	f a n	-0.27567813
-0.49805385	) a n	-0.26582104
-2.5888631	<s> m n	-0.64104915
-1.7571669	a m n	-0.30310377
-1.8544223	u m n	-0.27567813
-0.7145796	<s> i n	-2.1513097
-0.7599809	a i n	-0.6826434
-1.0785902	m i n	-0.66758823
-0.9607067	i i n	-0.77105963
-0.81717813	e i n	-0.6781508
-1.1426941	b i n	-0.33837232
-0.826858	u i n	-0.37632322
-0.8070743	o i n	-0.5271384
-1.1895651	r i n	-0.46932656
-1.2176844	s i n	-0.4078704
-1.0817822	k i n	-0.36082113
-1.1374263	n i n	-0.54899246
-1.3216889	d i n	-0.2707216
-1.2068754	p i n	-0.30209485
-0.72470933	, i n	-0.62632585
-0.6153414	. i n	-0.3903888
-1.0785787	h i n	-0.27319276
-0.3333441	w i n	-0.26582104
-1.2708617	l i n	-0.27567813
-1.3778212	g i n	-0.27567813
-1.1345851	t i n	-0.27567813
-0.8786827	f i n	-0.31506363
-0.7660177	j i n	-0.4383471
-0.2551289	v i n	-0.39230976
-0.9206242	<s> e n	-1.8306748
-0.78111476	a e n	-0.37861466
-1.0317422	m e n	-0.4903167
-1.2164439	i e n	-0.35992602
-0.966014	e e n	-0.37795812
-1.0535865	y e n	-0.5429929
-0.9827807	b e n	-0.81756353
-1.1477227	u e n	-0.27567813
-1.2223644	o e n	-0.26582104
-1.0976448	r e n	-0.30487737
-1.0412931	s e n	-0.6258325
-1.0560832	k e n	-0.41992843
-1.0004202	n e n	-0.39086315
-1.3163762	d e n	-0.27567813
-1.3702517	p e n	-0.27567813
-0.959087	w e n	-0.27001816
-1.2267526	l e n	-0.26908192
-1.0997667	- e n	-0.26908192
-0.7905434	f e n	-0.27567813
-0.26964742	v e n	-0.27567813
-1.3430207	o y n	-0.27567813
-1.4822031	m b n	-0.27567813
-1.0231799	<s> u n	-0.94166046
-0.7563902	m u n	-0.49334538
-1.3072913	b u n	-0.3472358
-1.4460256	r u n	-0.27567813
-1.0325079	k u n	-0.32904142
-0.876078	p u n	-0.38798434
-1.1703994	h u n	-0.27567813
-1.1520048	w u n	-0.27567813
-0.8815397	g u n	-0.27567813
-0.68189085	f u n	-0.2960833
-0.9761825	<s> o n	-1.8892627
-0.9627976	a o n	-0.8909266
-0.87656444	m o n	-0.3499071
-1.0540369	i o n	-0.78029686
-0.96302366	e o n	-0.8772069
-0.8427087	y o n	-0.2723675
-1.1961735	b o n	-0.5335739
-1.1664507	u o n	-0.36082113
-1.1212578	o o n	-0.44708216
-0.95740366	r o n	-0.34347367
-1.0518016	s o n	-0.58014697
-1.0273815	k o n	-0.49494964
-1.1940925	n o n	-0.2960833
-0.87098587	p o n	-0.2990782
-0.9602881	, o n	-0.70799595
-0.8904928	. o n	-0.5319047
-1.0184562	w o n	-0.34968045
-1.172796	l o n	-0.27567813
-0.957606	g o n	-0.33722195
-0.68834066	t o n	-0.47922644
-0.70688546	f o n	-0.27170837
-0.30299535	j o n	-0.41267875
-0.26754138	ss o n	-0.27567813
-1.8343477	e r n	-0.27567813
-2.155517	a s n	-0.27567813
-2.1176674	a n n	-0.27567813
-1.6783438	i n n	-0.31312853
-1.8491021	e n n	-0.2723675
-1.2778974	n n n	-0.27567813
-1.429241	<s> , n	-0.9514073
-1.4184885	a , n	-0.2707216
-1.5049797	i , n	-0.27567813
-1.1108813	e , n	-0.44981316
-1.2143791	u , n	-0.27567813
-1.3180864	o , n	-0.27567813
-1.2744532	, , n	-0.27567813
-0.53412384	t , n	-0.27567813
-1.3276143	k . n	-0.27567813
-1.5246528	o w n	-0.27567813
-0.17309844	n yaa n	-0.27567813
-0.17309844	e rie n	-0.27567813
-1.6495284	<s> a d	-1.7130117
-1.1651449	a a d	-0.6265813
-1.2677587	m a d	-0.5092301
-1.2812405	i a d	-0.5395915
-0.93688077	e a d	-0.77935183
-1.4729649	y a d	-0.27567813
-1.5851718	b a d	-0.3230184
-1.2826517	u a d	-0.42716932
-1.5296131	o a d	-0.26908192
-1.2893915	n a d	-0.43936756
-1.1373607	d a d	-0.3741709
-0.9546356	, a d	-0.5429929
-0.87394714	. a d	-0.45855048
-1.502101	g a d	-0.27567813
-1.1398493	- a d	-0.27567813
-0.7172821	) a d	-0.27567813
-2.0216498	u m d	-0.27567813
-1.3293746	<s> i d	-1.8790952
-1.0871174	a i d	-0.65213734
-1.249751	m i d	-0.6063779
-1.016696	i i d	-0.68244183
-1.0134197	e i d	-0.71136975
-1.824676	b i d	-0.27567813
-0.8544322	u i d	-0.41715777
-1.0695711	o i d	-0.47476444
-1.6368728	r i d	-0.2723675
-1.46117	k i d	-0.3066582
-1.3745867	n i d	-0.3479949
-0.8910577	, i d	-0.6341688
-0.9438015	. i d	-0.30310377
-1.516797	g i d	-0.27567813
-1.5248998	f i d	-0.27567813
-1.7221757	<s> e d	-1.5747051
-1.7082753	a e d	-0.27567813
-1.4093279	y e d	-0.2990782
-1.3094958	b e d	-0.56186795
-1.6028904	r e d	-0.27567813
-2.005384	s e d	-0.27567813
-1.5962894	n e d	-0.2677746
-1.8469723	a y d	-0.27567813
-1.148015	<s> u d	-1.2651592
-1.3555264	b u d	-0.41236714
-1.5790473	k u d	-0.27001816
-1.5760841	p u d	-0.27567813
-1.362741	w u d	-0.27567813
-0.7226153	g u d	-0.26582104
-1.0246027	j u d	-0.30880308
-1.4373277	<s> o d	-1.6807938
-1.2368472	a o d	-0.6032606
-1.4703497	m o d	-0.27567813
-1.0770422	i o d	-0.6448812
-1.2630082	e o d	-0.5974566
-1.5894551	b o d	-0.2960833
-1.2250199	u o d	-0.3741709
-1.156698	o o d	-0.5092301
-1.3525656	s o d	-0.2934788
-1.6127497	k o d	-0.26582104
-1.5551344	n o d	-0.26908192
-1.1008006	, o d	-0.5430181
-1.6319948	. o d	-0.27567813
-1.3996029	w o d	-0.26670796
-1.3575557	j o d	-0.27567813
-2.3838918	<s> n d	-0.7623511
-1.8652942	e n d	-0.27567813
-1.6400937	u n d	-0.2682644
-0.8460982	, n d	-0.39230976
-1.549342	o w d	-0.27567813
-1.1551867	<s> a p	-1.8857385
-0.9781006	a a p	-0.7548355
-1.253922	m a p	-0.5151271
-1.1311347	i a p	-0.6843295
-1.0060755	e a p	-0.67565423
-1.4239817	b a p	-0.37005058
-0.9523963	u a p	-0.5395915
-1.0931356	o a p	-0.37795812
-1.5529041	r a p	-0.27567813
-1.5661832	k a p	-0.26908192
-1.2063696	n a p	-0.5429929
-1.0368887	d a p	-0.5092301
-1.2145818	p a p	-0.38821504
-0.89258665	, a p	-0.6553581
-0.7713238	. a p	-0.48489434
-1.0300717	w a p	-0.26582104
-1.4936354	l a p	-0.27567813
-1.4574219	g a p	-0.27567813
-1.1153075	- a p	-0.27567813
-1.2317048	<s> i p	-2.0336869
-1.0417743	a i p	-0.49726063
-1.2547761	m i p	-0.49726063
-0.9829265	i i p	-0.6346417
-1.0986261	e i p	-0.5430181
-1.3461206	b i p	-0.40522683
-0.8576478	u i p	-0.38798434
-1.0743185	o i p	-0.46123677
-1.3634579	r i p	-0.35707015
-1.8134729	s i p	-0.27567813
-1.7356267	k i p	-0.27567813
-1.1935226	n i p	-0.487063
-1.4821112	p i p	-0.26908192
-1.4063027	l i p	-0.27567813
-2.0839856	<s> e p	-1.0731409
-1.821472	i e p	-0.2707216
-1.8707371	y e p	-0.27567813
-1.2075453	b e p	-0.5915155
-1.5163497	o e p	-0.27567813
-1.9443014	s e p	-0.27567813
-1.6877458	n e p	-0.27567813
-1.5015488	d e p	-0.27567813
-1.3896987	l e p	-0.27170837
-1.5013419	b u p	-0.38821504
-1.4859943	r u p	-0.27567813
-1.7764628	k u p	-0.27567813
-1.6612123	p u p	-0.27567813
-1.2179111	l u p	-0.26908192
-1.0530697	<s> o p	-2.0464523
-1.0707728	a o p	-0.64422184
-1.471479	m o p	-0.27567813
-1.0381784	i o p	-0.6868067
-1.1184577	e o p	-0.70799595
-1.4095485	b o p	-0.41042045
-1.0296677	u o p	-0.42490375
-0.96606225	o o p	-0.49443966
-1.351441	r o p	-0.26908192
-1.7644246	s o p	-0.27567813
-1.3239207	k o p	-0.38798434
-1.0685937	n o p	-0.40001377
-1.1010321	, o p	-0.52180356
-0.9137062	. o p	-0.4684124
-1.4005045	w o p	-0.27001816
-3.089807	<s> k p	-0.27567813
-1.3320872	i k p	-0.30310377
-1.6072086	u k p	-0.27567813
-1.4408299	o k p	-0.41992843
-3.5687666	<s> n p	-0.26582104
-2.0460699	i n p	-0.27567813
-1.9974743	e n p	-0.27567813
-2.0765352	o n p	-0.27567813
-2.175663	<s> , p	-0.70799595
-1.36816	a , p	-0.37005058
-1.4478741	e , p	-0.38798434
-1.1646984	n , p	-0.27567813
-1.7409621	<s> a ,	-1.3574941
-1.9890273	a a ,	-0.27567813
-1.271383	m a ,	-0.5194261
-1.3444612	i a ,	-0.40490752
-1.9184908	e a ,	-0.27567813
-1.3538451	y a ,	-0.27567813
-1.5932975	b a ,	-0.2682644
-1.8094509	u a ,	-0.27567813
-1.640445	o a ,	-0.27567813
-1.5098971	r a ,	-0.27126956
-1.44641	k a ,	-0.2682644
-1.1083486	n a ,	-0.5743623
-1.5918272	d a ,	-0.27567813
-1.4469095	l a ,	-0.26908192
-1.5143524	g a ,	-0.27567813
-2.3964045	<s> m ,	-0.8171404
-1.9202298	a m ,	-0.27001816
-1.8693008	e m ,	-0.27567813
-1.7897221	u m ,	-0.27567813
-1.9931085	<s> i ,	-1.3372371
-1.272768	m i ,	-0.56345135
-1.8233689	b i ,	-0.26690528
-1.788557	o i ,	-0.27567813
-1.7273412	r i ,	-0.27126956
-1.8933527	s i ,	-0.27567813
-1.243527	k i ,	-0.41290244
-1.4179143	n i ,	-0.31506363
-1.6731035	p i ,	-0.27567813
-1.3744286	h i ,	-0.27567813
-0.9883486	<s> e ,	-1.8011405
-1.5499164	a e ,	-0.27567813
-1.0524421	m e ,	-0.5873722
-1.3288758	i e ,	-0.39587343
-1.0761029	e e ,	-0.42490375
-1.231693	y e ,	-0.33963946
-1.2710547	b e ,	-0.48929647
-0.8270978	u e ,	-0.3230184
-1.0925882	o e ,	-0.3109604
-1.4074224	r e ,	-0.27567813
-1.2422366	s e ,	-0.44795716
-1.0008966	k e ,	-0.48062047
-1.5509019	n e ,	-0.27567813
-1.2928495	l e ,	-0.2677746
-0.93726003	- e ,	-0.28575975
-1.7327955	<s> u ,	-0.85129213
-1.2312205	b u ,	-0.49910966
-1.4798546	k u ,	-0.2990782
-1.6956835	p u ,	-0.27567813
-2.9174454	<s> o ,	-0.3745315
-1.5861098	m o ,	-0.27567813
-2.0636773	i o ,	-0.27567813
-1.2550783	b o ,	-0.5234705
-1.888969	s o ,	-0.27567813
-1.7213676	k o ,	-0.26908192
-1.6602966	n o ,	-0.27567813
-1.6282374	p o ,	-0.27567813
-1.6231202	w o ,	-0.27567813
-2.04268	a s ,	-0.27567813
-2.008039	o s ,	-0.27567813
-3.6103432	<s> n ,	-0.27567813
-1.6807168	u n ,	-0.2707216
-1.9940751	o n ,	-0.27567813
-2.865965	<s> , ,	-0.27567813
-1.4456581	a , ,	-0.2990782
-1.5479531	i , ,	-0.27567813
-1.1927991	e , ,	-0.30487737
-1.2540519	u , ,	-0.27567813
-1.3584406	o , ,	-0.27567813
-1.0611105	n , ,	-0.27567813
-1.7351007	e . ,	-0.27567813
-0.72746134	o . ,	-0.27567813
-1.5090063	e t ,	-0.27567813
-0.8361185	s t ,	-0.27567813
-1.4076389	e f ,	-0.27567813
-0.22834308	o yye ,	-0.27567813
-1.8944658	<s> a .	-1.3725483
-2.2195373	a a .	-0.27567813
-2.1427448	m a .	-0.27567813
-1.5656449	i a .	-0.28575975
-1.664095	r a .	-0.26908192
-1.7565832	l a .	-0.27567813
-2.2873147	a m .	-0.27567813
-2.869171	<s> i .	-0.68924505
-1.6781826	m i .	-0.39014167
-2.0456073	r i .	-0.27567813
-1.3000685	h i .	-0.27170837
-2.4362853	<s> e .	-0.78615505
-1.6054623	a e .	-0.27567813
-1.1282715	m e .	-0.5646689
-1.459718	i e .	-0.36082113
-1.3680633	e e .	-0.2993089
-1.9468224	b e .	-0.2707216
-1.0166386	u e .	-0.2990782
-1.3250642	o e .	-0.2707216
-1.7665119	s e .	-0.2707216
-1.1066928	k e .	-0.37632322
-1.0815077	h e .	-0.27567813
-0.9576572	- e .	-0.2934788
-2.309034	<s> u .	-0.4649579
-1.7586429	k u .	-0.26908192
-2.146707	i o .	-0.2707216
-3.2905598	<s> k .	-0.27567813
-1.8237427	a k .	-0.27567813
-1.5350746	u k .	-0.2728389
-2.0892982	e n .	-0.27567813
-2.1739504	o n .	-0.27567813
-1.393155	i . .	-0.27567813
-2.6775105	<s> a c	-1.0933468
-2.2693682	m a c	-0.27567813
-1.7301737	r a c	-0.2707216
-3.910126	<s> i c	-0.26582104
-2.1648707	m i c	-0.27567813
-1.9958104	e i c	-0.26582104
-1.9677122	r i c	-0.27567813
-1.7971983	k i c	-0.26582104
-1.8506994	n i c	-0.26908192
-2.6503148	<s> e c	-0.9768412
-1.7159773	i e c	-0.31312853
-1.5094004	r e c	-0.2707216
-1.5296675	s e c	-0.38798434
-1.8042803	n e c	-0.27567813
-2.1835806	<s> u c	-0.8628979
-1.223102	b u c	-0.52850693
-1.7764628	k u c	-0.27567813
-1.3942055	l u c	-0.27567813
-1.4587486	j u c	-0.27567813
-3.0717885	<s> o c	-0.7659879
-2.1010084	i o c	-0.27567813
-2.0209422	e o c	-0.26582104
-1.660911	u o c	-0.26582104
-1.5522883	k o c	-0.3230184
-1.815754	n o c	-0.27567813
-0.86149675	h o c	-0.27567813
-1.6554611	w o c	-0.27567813
-1.9968069	e s c	-0.27567813
-2.4003854	i n c	-0.27567813
-2.0600185	<s> c c	-0.27567813
-0.012405059	<s> c h	-1.3471978
-0.35795432	a c h	-0.2707216
-0.12459946	i c h	-0.46132112
-0.3134803	e c h	-0.36698577
-0.24233888	u c h	-0.4046464
-0.15878497	o c h	-0.5635878
-0.17614046	s c h	-0.27567813
-0.17614046	n c h	-0.27567813
-1.224849	u g h	-0.27567813
-3.5597417	<s> a w	-0.34001914
-1.4506159	a a w	-0.47919503
-2.0284214	u a w	-0.27567813
-1.8566294	o a w	-0.27567813
-1.7365037	d a w	-0.26908192
-1.235588	- a w	-0.27567813
-2.0216498	u m w	-0.27567813
-3.9402096	<s> i w	-0.27567813
-2.202895	m i w	-0.27567813
-2.1886494	i i w	-0.27567813
-2.0264661	n i w	-0.27567813
-1.5687577	l i w	-0.27567813
-3.812708	<s> e w	-0.27567813
-2.0654893	m e w	-0.27567813
-1.7036456	r e w	-0.27567813
-1.8907499	k e w	-0.27567813
-3.0274866	<s> u w	-0.26582104
-1.310269	b u w	-0.48512506
-1.5156878	r u w	-0.2707216
-1.7067546	p u w	-0.27567813
-2.9259589	<s> o w	-0.6555512
-1.4659176	a o w	-0.43159693
-1.4899244	m o w	-0.26908192
-1.9946495	i o w	-0.26908192
-1.8279873	e o w	-0.26908192
-1.9040209	k o w	-0.27567813
-1.1128601	n o w	-0.3741709
-1.5700455	<s> k w	-1.5349957
-1.0470178	o k w	-0.58971405
-0.5897532	<s> n w	-2.6821127
-0.8463121	a n w	-1.0090259
-0.4989738	m n w	-0.31312853
-1.0050112	i n w	-0.9298447
-0.8097992	e n w	-0.8329347
-0.26283464	y n w	-0.27567813
-0.53188473	b n w	-0.27567813
-0.9738206	u n w	-0.4509843
-0.8539353	o n w	-0.9863513
-0.97917247	n n w	-0.26908192
-0.7849727	, n w	-0.30310377
-1.4748497	i g w	-0.27567813
-1.1131002	u g w	-0.27567813
-0.95115983	o g w	-0.30310377
-2.5209198	<s> a l	-0.88668036
-2.015079	a a l	-0.27567813
-1.9237344	m a l	-0.27567813
-1.997624	i a l	-0.27567813
-1.5031345	y a l	-0.27567813
-1.1945639	b a l	-0.48489434
-1.6652126	o a l	-0.27567813
-1.464476	s a l	-0.3230184
-1.3079686	k a l	-0.4649579
-1.6003894	p a l	-0.27567813
-1.4651817	l a l	-0.26582104
-0.85043526	g a l	-0.56186795
-1.3886175	f a l	-0.27567813
-0.5676534	v a l	-0.27567813
-2.8874586	<s> i l	-0.7859243
-1.6975101	a i l	-0.27170837
-1.7893496	m i l	-0.30310377
-1.9492346	e i l	-0.2707216
-1.872524	b i l	-0.26582104
-1.7519373	k i l	-0.27170837
-1.5083748	l i l	-0.27567813
-1.4871126	f i l	-0.26582104
-1.5046751	<s> e l	-1.7897546
-1.6065449	a e l	-0.27567813
-1.8414141	i e l	-0.27567813
-1.7951145	y e l	-0.27567813
-1.3390886	b e l	-0.6265813
-1.348576	s e l	-0.49910966
-1.6578777	k e l	-0.27567813
-1.091056	p e l	-0.26908192
-1.388582	w e l	-0.27567813
-1.2628121	g e l	-0.26908192
-1.3498653	t e l	-0.27567813
-0.911211	j e l	-0.26908192
-3.2305496	<s> u l	-0.27567813
-1.9405622	b u l	-0.27567813
-1.5160161	k u l	-0.26582104
-2.3381176	<s> o l	-1.0192177
-1.3697994	a o l	-0.56186795
-1.911969	i o l	-0.27567813
-1.7772363	e o l	-0.3066582
-1.522202	b o l	-0.37005058
-1.7197503	u o l	-0.27567813
-1.7418967	o o l	-0.26582104
-1.5106847	k o l	-0.3230184
-0.9088991	p o l	-0.4549311
-1.7616655	, o l	-0.26582104
-0.92785776	g o l	-0.49633905
-1.9778723	a k l	-0.27567813
-0.73042	o . l	-0.27567813
-1.066316	k . l	-0.26908192
-0.9343685	. - l	-0.27567813
-2.9414313	<s> a g	-0.67520094
-1.612815	a a g	-0.39230976
-1.8534368	m a g	-0.2677746
-1.7642341	i a g	-0.26721558
-1.5124365	e a g	-0.30880308
-1.5195264	y a g	-0.27567813
-1.6198447	b a g	-0.26721558
-1.8559067	u a g	-0.27567813
-1.3943466	o a g	-0.34001914
-1.6587713	r a g	-0.27567813
-1.3933442	n a g	-0.3903888
-1.4806073	l a g	-0.26908192
-1.5552306	g a g	-0.27567813
-1.9426833	<s> m g	-1.5530939
-1.4832227	a m g	-0.3523531
-1.2382269	i m g	-0.49910966
-1.285942	e m g	-0.39230976
-1.5061302	u m g	-0.26908192
-1.7920238	o m g	-0.26908192
-1.3339489	n m g	-0.27567813
-1.3092444	, m g	-0.27567813
-2.542954	<s> i g	-1.0670179
-1.834896	a i g	-0.26582104
-1.5885494	m i g	-0.37005058
-1.4404541	i i g	-0.43232474
-1.5450499	e i g	-0.3109604
-1.791514	b i g	-0.27170837
-1.5478052	u i g	-0.27567813
-1.4485873	o i g	-0.2707216
-1.5278028	r i g	-0.2677746
-1.7805183	k i g	-0.27567813
-1.292901	n i g	-0.40178737
-1.438721	l i g	-0.27567813
-1.8594813	<s> e g	-1.3601863
-1.7578821	m e g	-0.2707216
-1.7989248	i e g	-0.27170837
-1.2669342	y e g	-0.45855048
-1.5716517	b e g	-0.42804253
-1.2095165	r e g	-0.2677746
-1.9175203	s e g	-0.27567813
-1.5403906	n e g	-0.26908192
-1.4200212	w e g	-0.27567813
-1.5056981	l e g	-0.27567813
-1.6601402	<s> u g	-1.2261084
-1.3299087	b u g	-0.43973017
-1.6734858	<s> o g	-1.7475761
-1.2405468	a o g	-0.6118924
-1.3783906	m o g	-0.2707216
-1.3588576	i o g	-0.53387177
-1.4016626	e o g	-0.5166456
-1.274264	y o g	-0.27567813
-1.188225	b o g	-0.57874423
-1.8020186	o o g	-0.27567813
-1.7851875	s o g	-0.27567813
-1.7228485	k o g	-0.27567813
-1.2677857	n o g	-0.30209485
-1.7154052	, o g	-0.27567813
-1.5257767	w o g	-0.27567813
-1.2666799	l o g	-0.27567813
-1.9223361	<s> n g	-1.1781683
-0.94876754	a n g	-0.58625984
-1.389052	i n g	-0.38811615
-1.129493	e n g	-0.4760461
-1.4556115	o n g	-0.3540743
-1.7742318	<s> a t	-1.3879623
-1.9144062	a a t	-0.27567813
-1.3474811	m a t	-0.38811615
-1.2891167	i a t	-0.46123677
-1.3912667	e a t	-0.42804253
-1.8676008	b a t	-0.27567813
-1.8308562	u a t	-0.27567813
-1.5572633	o a t	-0.26908192
-1.7383498	k a t	-0.27567813
-1.3851788	n a t	-0.39014167
-1.8123493	, a t	-0.27567813
-1.5627966	. a t	-0.27567813
-0.8212921	t a t	-0.49910966
-1.1562853	- a t	-0.27567813
-2.4440212	<s> i t	-1.087185
-1.485909	a i t	-0.34001914
-1.3189713	m i t	-0.53110117
-1.5438882	i i t	-0.37005058
-1.6802012	e i t	-0.30880308
-1.6039785	b i t	-0.30310377
-1.5296713	u i t	-0.27567813
-1.7614403	r i t	-0.27567813
-1.7529113	k i t	-0.27567813
-1.3911849	n i t	-0.3741709
-1.0049022	p i t	-0.56186795
-1.420811	, i t	-0.2677746
-1.5507516	g i t	-0.27567813
-2.3415084	<s> e t	-0.8830651
-1.5706195	m e t	-0.2990782
-1.793444	i e t	-0.26582104
-1.7145188	e e t	-0.27567813
-1.4106303	b e t	-0.5161104
-1.3994473	r e t	-0.2677746
-1.1991715	s e t	-0.6162256
-1.7013597	k e t	-0.27567813
-1.3698703	l e t	-0.2707216
-1.3611872	- e t	-0.27567813
-2.0715995	b u t	-0.27567813
-1.7169932	r u t	-0.27567813
-1.7544978	p u t	-0.27567813
-2.5798445	<s> o t	-0.8468529
-1.639655	a o t	-0.41992843
-1.5243841	m o t	-0.27567813
-1.5673937	i o t	-0.33493054
-1.6116581	e o t	-0.43936756
-1.5125146	b o t	-0.35707015
-1.6929646	u o t	-0.27567813
-1.8371094	o o t	-0.27567813
-1.1862338	r o t	-0.3230184
-1.6045402	n o t	-0.2707216
-1.2782582	, o t	-0.48512506
-1.6762478	. o t	-0.27567813
-1.9305333	i s t	-0.26908192
-1.8563702	u n t	-0.27567813
-2.0177658	o n t	-0.26908192
-2.9600759	<s> , t	-0.27567813
-1.8022914	a , t	-0.27567813
-1.3118901	i , t	-0.31312853
-1.3100507	e , t	-0.48512506
-1.3103856	o , t	-0.26582104
-1.8667507	e . t	-0.27567813
-0.571846	a - t	-0.27567813
-0.7217448	i v t	-0.27567813
-2.3095183	n a -	-0.27567813
-3.4584565	<s> i -	-0.56186795
-2.13358	m i -	-0.2707216
-1.9240547	r i -	-0.26908192
-1.3308027	y e -	-0.56186795
-2.284938	i n -	-0.27567813
-2.1911504	o n -	-0.27567813
-2.3483453	<s> . -	-0.27567813
-1.4143319	a . -	-0.27567813
-0.9980565	k . -	-0.27567813
-0.70172393	n . -	-0.27567813
-2.317174	<s> a f	-1.0533268
-1.4706255	m a f	-0.43159693
-1.5436738	i a f	-0.40822268
-1.8683226	b a f	-0.27170837
-1.7787322	o a f	-0.27567813
-1.7475947	r a f	-0.27567813
-1.8736248	s a f	-0.27567813
-1.5452776	l a f	-0.27170837
-1.6357582	g a f	-0.27567813
-2.6512592	<s> i f	-1.2608379
-1.9473683	a i f	-0.27567813
-1.8899922	m i f	-0.26582104
-1.9987925	i i f	-0.27567813
-1.8710529	e i f	-0.27170837
-1.620138	b i f	-0.3230184
-1.5286107	r i f	-0.3066582
-1.7442024	s i f	-0.26582104
-1.781908	k i f	-0.27567813
-1.7199998	n i f	-0.26582104
-1.4397095	l i f	-0.27567813
-1.4515483	g i f	-0.27170837
-2.1185403	<s> e f	-1.0431777
-1.8782693	m e f	-0.2677746
-1.9368004	i e f	-0.26908192
-1.5310042	s e f	-0.3378659
-1.5334741	g e f	-0.27567813
-1.5482682	b u f	-0.3230184
-1.7704322	p u f	-0.27567813
-1.4551556	l u f	-0.27567813
-2.2443297	<s> o f	-1.2608379
-1.87242	a o f	-0.2707216
-1.404314	i o f	-0.45398015
-1.6676313	e o f	-0.41232008
-1.4781265	u o f	-0.30310377
-1.2972201	o o f	-0.43159693
-1.9932213	u n f	-0.27567813
-1.4997706	m a j	-0.35707015
-1.960197	k a j	-0.27567813
-1.9826591	n a j	-0.26582104
-1.781801	l a j	-0.27567813
-1.7247304	g a j	-0.27567813
-3.0367322	<s> i j	-0.7623511
-2.026649	m i j	-0.26908192
-1.6124169	r i j	-0.31312853
-1.571838	k i j	-0.3066582
-1.4592836	n i j	-0.3472358
-1.7074789	g i j	-0.27567813
-3.534986	<s> e j	-0.27567813
-1.9193137	m e j	-0.27567813
-1.6586434	i e j	-0.2990782
-1.7636784	e e j	-0.27567813
-1.5644549	y e j	-0.2677746
-1.5876852	b e j	-0.4592566
-1.3780216	s e j	-0.37005058
-1.6248009	k e j	-0.26582104
-2.004299	<s> u j	-0.7859243
-1.7147921	b u j	-0.2677746
-1.7377334	k u j	-0.2707216
-3.4379125	<s> o j	-0.4649579
-2.235418	a o j	-0.27567813
-1.6842709	b o j	-0.39230976
-1.4235737	s o j	-0.33022308
-1.7943538	k o j	-0.26582104
-1.8729442	n o j	-0.27567813
-1.829611	u k j	-0.27567813
-3.68255	<s> n j	-0.27567813
-1.844833	i n j	-0.3230184
-1.6582351	e n j	-0.34001914
-1.9450475	o n j	-0.26908192
-1.7616799	i , j	-0.27567813
-2.0088131	e , j	-0.27567813
-1.4461377	u , j	-0.27567813
-1.7394593	e . j	-0.27567813
-1.0619001	k . j	-0.26582104
-2.5226758	<s> t j	-0.27567813
-0.837203	s t j	-0.27567813
-0.9289687	. - j	-0.27567813
-2.6158245	<s> i z	-1.310056
-1.6730307	s i z	-0.34001914
-0.581159	j i z	-0.71557397
-1.9904996	u o z	-0.27567813
-2.0289557	n o z	-0.27567813
-2.1569026	u a v	-0.27567813
-2.0576386	, a v	-0.27567813
-4.215143	<s> i v	-0.27567813
-1.6303694	l i v	-0.27567813
-3.2475088	<s> u v	-0.27567813
-2.1029615	b u v	-0.27567813
-1.7769734	p u v	-0.27567813
-2.249506	i o v	-0.27567813
-2.295217	e o v	-0.27567813
-1.9029609	, o v	-0.26908192
-1.1367376	g o v	-0.49910966
-2.4301863	<s> . )	-0.27567813
-1.5240088	a . )	-0.27567813
-0.7376602	. - )	-0.26582104
-2.4466708	b o pii	-0.27567813
-2.4466708	b o ss	-0.27567813
-2.3380942	o n yaa	-0.27567813
-1.8812768	w o diu	-0.27567813
-1.9985738	a k ork	-0.27567813
-2.4913342	b e rie	-0.27567813
-2.212177	u a yye	-0.27567813
-1.9926876	g o yye	-0.27567813

\4-grams:
-0.07999584	goes to stderr. </s>	0
-0.024379227	use tf.compat.v1.Session instead. </s>	0
-0.024379227	use tf.compat.v1.train.import_meta_graph instead. </s>	0
-0.07999584	use: AVX2 FMA </s>	0
-1.0210485	a a a </s>	0
-1.084211	m a a </s>	0
-1.1088628	i a a </s>	0
-0.98664933	y a a </s>	0
-1.1928023	b a a </s>	0
-1.1344647	r a a </s>	0
-1.0972521	s a a </s>	0
-0.985802	n a a </s>	0
-1.0893689	p a a </s>	0
-0.7681304	h a a </s>	0
-1.1055607	l a a </s>	0
-0.7681304	g a a </s>	0
-0.5405427	- a a </s>	0
-0.9503222	f a a </s>	0
-0.99896115	a m a </s>	0
-1.1343501	i m a </s>	0
-1.101378	e m a </s>	0
-1.1994607	u m a </s>	0
-1.1633768	o m a </s>	0
-1.3462222	n m a </s>	0
-0.99916184	, m a </s>	0
-0.861554	m i a </s>	0
-1.0160279	e i a </s>	0
-0.55453825	y i a </s>	0
-1.1594803	b i a </s>	0
-0.79822886	o i a </s>	0
-1.121972	r i a </s>	0
-1.1213601	s i a </s>	0
-1.1503024	k i a </s>	0
-1.0041741	n i a </s>	0
-0.9532723	h i a </s>	0
-1.1554004	g i a </s>	0
-0.99523497	f i a </s>	0
-0.88573444	m e a </s>	0
-1.0090258	i e a </s>	0
-0.8806207	e e a </s>	0
-0.95797414	y e a </s>	0
-1.0161736	b e a </s>	0
-0.95935893	u e a </s>	0
-0.8887857	s e a </s>	0
-0.8892565	k e a </s>	0
-1.0857972	n e a </s>	0
-0.76556265	d e a </s>	0
-1.0448668	l e a </s>	0
-0.9273137	a y a </s>	0
-0.8226522	i y a </s>	0
-0.753319	n y a </s>	0
-0.9607573	a b a </s>	0
-0.9007689	i b a </s>	0
-0.88340473	e b a </s>	0
-1.0176004	b b a </s>	0
-1.1239998	u b a </s>	0
-0.7981107	o b a </s>	0
-0.86313856	g b a </s>	0
-1.0901806	m u a </s>	0
-1.0572089	b u a </s>	0
-0.8802146	r u a </s>	0
-1.15482	k u a </s>	0
-0.86672235	d u a </s>	0
-1.0005741	p u a </s>	0
-1.0894425	h u a </s>	0
-0.95520866	w u a </s>	0
-0.87358093	j u a </s>	0
-0.9816587	b o a </s>	0
-0.5671761	u o a </s>	0
-1.1940279	r o a </s>	0
-1.2279186	k o a </s>	0
-1.0343066	a r a </s>	0
-0.9708846	i r a </s>	0
-0.91041225	o r a </s>	0
-0.7070303	k r a </s>	0
-0.9186959	a s a </s>	0
-1.2101434	i s a </s>	0
-0.93466055	e s a </s>	0
-1.1147509	u s a </s>	0
-1.0467519	o s a </s>	0
-0.9626071	a k a </s>	0
-1.1829859	i k a </s>	0
-1.0901711	e k a </s>	0
-1.1370574	u k a </s>	0
-1.0302206	o k a </s>	0
-0.90711313	n k a </s>	0
-1.0728532	a n a </s>	0
-0.97021335	m n a </s>	0
-1.0748469	i n a </s>	0
-0.982984	e n a </s>	0
-1.1751816	u n a </s>	0
-0.9897353	o n a </s>	0
-0.849793	n n a </s>	0
-0.9940586	, n a </s>	0
-0.9215245	a d a </s>	0
-0.7579427	i d a </s>	0
-0.9887207	e d a </s>	0
-0.8543722	u d a </s>	0
-0.7107527	o d a </s>	0
-0.95911115	n d a </s>	0
-0.8154756	a p a </s>	0
-1.3709785	i p a </s>	0
-1.1087443	e p a </s>	0
-0.8207348	o p a </s>	0
-0.76819813	n p a </s>	0
-0.7331071	, p a </s>	0
-0.9830025	a , a </s>	0
-0.9937612	m , a </s>	0
-0.9830593	i , a </s>	0
-1.1435162	e , a </s>	0
-0.96327025	u , a </s>	0
-1.0856344	, , a </s>	0
-1.0189834	a . a </s>	0
-0.8371243	i . a </s>	0
-0.89132106	e . a </s>	0
-0.8142199	u . a </s>	0
-0.5877132	k . a </s>	0
-0.8958144	u w a </s>	0
-0.54156303	g w a </s>	0
-1.3298204	a l a </s>	0
-0.97888356	i l a </s>	0
-1.146764	e l a </s>	0
-0.9459391	o l a </s>	0
-1.0200742	a g a </s>	0
-1.1092082	i g a </s>	0
-1.2217304	n g a </s>	0
-0.933572	a t a </s>	0
-0.7075339	i t a </s>	0
-0.73008764	e t a </s>	0
-0.9037371	o t a </s>	0
-0.7672669	, t a </s>	0
-1.0145245	n - a </s>	0
-1.1347536	a f a </s>	0
-0.81080437	i f a </s>	0
-0.07999584	a future version. </s>	0
-0.07999584	Instructions for updating: </s>	0
-0.07999584	with this prefix. </s>	0
-1.0508945	a a m </s>	0
-0.8848654	m a m </s>	0
-1.1427522	i a m </s>	0
-0.94218504	e a m </s>	0
-0.8132233	y a m </s>	0
-0.9782009	b a m </s>	0
-0.9633558	u a m </s>	0
-1.0330132	o a m </s>	0
-0.9865979	r a m </s>	0
-0.7568917	s a m </s>	0
-0.85851073	k a m </s>	0
-0.82001686	n a m </s>	0
-0.75884724	d a m </s>	0
-0.9784516	, a m </s>	0
-0.89230245	l a m </s>	0
-0.90045476	g a m </s>	0
-0.7924746	t a m </s>	0
-0.901641	f a m </s>	0
-1.0791125	a i m </s>	0
-0.8629321	m i m </s>	0
-0.74932766	b i m </s>	0
-0.8151705	r i m </s>	0
-0.8115308	s i m </s>	0
-1.1017922	k i m </s>	0
-0.97262985	n i m </s>	0
-0.80955815	p i m </s>	0
-0.94824713	g i m </s>	0
-0.92657864	f i m </s>	0
-0.88996017	m e m </s>	0
-0.86815345	i e m </s>	0
-0.71067727	y e m </s>	0
-0.8505539	b e m </s>	0
-0.99176425	r e m </s>	0
-0.8597435	s e m </s>	0
-0.81869984	n e m </s>	0
-0.8493265	l e m </s>	0
-0.92737144	t e m </s>	0
-0.4852867	a y m </s>	0
-0.9828556	m u m </s>	0
-0.87438226	b u m </s>	0
-0.9717078	r u m </s>	0
-0.9416511	k u m </s>	0
-0.77065337	n u m </s>	0
-0.57983625	d u m </s>	0
-0.7453375	p u m </s>	0
-0.7158434	h u m </s>	0
-0.695171	l u m </s>	0
-0.76860094	a o m </s>	0
-0.8483707	m o m </s>	0
-0.7094842	i o m </s>	0
-0.7896223	e o m </s>	0
-0.7082558	y o m </s>	0
-0.70801866	b o m </s>	0
-0.89313745	u o m </s>	0
-0.9919633	o o m </s>	0
-0.92702216	r o m </s>	0
-0.822415	s o m </s>	0
-0.97532684	k o m </s>	0
-0.9729948	n o m </s>	0
-0.7922036	, o m </s>	0
-0.7119328	. o m </s>	0
-0.8914732	w o m </s>	0
-0.7593157	l o m </s>	0
-0.7612283	t o m </s>	0
-0.7863916	i n m </s>	0
-1.0769992	u n m </s>	0
-1.1147877	o n m </s>	0
-1.0011269	a , m </s>	0
-1.1449097	e , m </s>	0
-0.8708502	m a i </s>	0
-0.9739864	i a i </s>	0
-1.1472723	b a i </s>	0
-1.1495463	u a i </s>	0
-1.1190586	r a i </s>	0
-1.037842	s a i </s>	0
-1.0520878	n a i </s>	0
-1.0620751	d a i </s>	0
-1.2284163	p a i </s>	0
-1.0899059	a m i </s>	0
-1.017098	m m i </s>	0
-1.0191209	i m i </s>	0
-1.0203675	e m i </s>	0
-0.93712074	y m i </s>	0
-1.1913453	u m i </s>	0
-0.88925433	o m i </s>	0
-1.1292849	n m i </s>	0
-1.2212858	, m i </s>	0
-1.1231325	a i i </s>	0
-1.0881451	m i i </s>	0
-1.0172881	e i i </s>	0
-1.2157465	b i i </s>	0
-1.0171918	r i i </s>	0
-1.1621004	s i i </s>	0
-1.1554048	k i i </s>	0
-1.0404205	n i i </s>	0
-0.96540684	h i i </s>	0
-0.86096305	a e i </s>	0
-1.1556771	m e i </s>	0
-0.946291	i e i </s>	0
-1.1159872	e e i </s>	0
-1.0224518	y e i </s>	0
-0.95316815	b e i </s>	0
-0.92549217	o e i </s>	0
-0.81546104	r e i </s>	0
-1.0873573	s e i </s>	0
-0.87248635	k e i </s>	0
-0.850905	n e i </s>	0
-0.865245	d e i </s>	0
-1.0192401	w e i </s>	0
-0.27043638	a y i </s>	0
-0.65131253	o y i </s>	0
-0.86371183	a b i </s>	0
-0.8610503	m b i </s>	0
-0.9482804	i b i </s>	0
-0.9256971	e b i </s>	0
-1.3405935	u b i </s>	0
-1.032077	o b i </s>	0
-0.849903	n b i </s>	0
-1.0176448	g b i </s>	0
-0.99808675	b u i </s>	0
-0.9151889	k u i </s>	0
-0.55613446	h u i </s>	0
-0.9960679	m o i </s>	0
-1.1340609	b o i </s>	0
-1.0601648	s o i </s>	0
-0.97303337	k o i </s>	0
-0.9621899	d o i </s>	0
-0.9507152	a r i </s>	0
-0.9878504	i r i </s>	0
-0.87510467	e r i </s>	0
-0.94673306	u r i </s>	0
-1.0301578	o r i </s>	0
-0.80941033	a s i </s>	0
