
\data\
ngram 1=1653
ngram 2=6175
ngram 3=5938

\1-grams:
-1.158253	</s>
-99	<s>	-1.064465
-0.7372023	<unk>	-0.8287508
-3.766304	ABALA	-0.1377031
-3.766304	ABE	-0.1377031
-3.766304	ABIA	-0.1377031
-3.610642	ABO	-0.1856071
-3.766304	AGBAMIEBO	-0.1377031
-3.324187	AKA	-0.2028259
-3.766304	AKABIA	-0.1377031
-3.766304	AKAPU	-0.1377031
-3.766304	AKIME	-0.1377031
-3.766304	AKUBABIA	-0.1377031
-3.766304	AKUBU	-0.1377031
-3.766304	AKUMA	-0.1377031
-3.766304	AKUMABIA	-0.1377031
-3.196555	AMA	-0.5109773
-3.908977	AMABARA
-3.766304	AMABIE	-0.1377031
-3.766304	AMABO	-0.1377031
-3.766304	AMAMUN	-0.1377031
-3.610642	AMANYANABO	-0.1377031
-3.610642	AMANYANAKIRI	-0.2394578
-3.610642	AME	-0.2028259
-3.766304	AMGBA	-0.1377031
-3.098038	ANA	-0.2848417
-3.908977	ANABIA
-3.766304	ANABO	-0.1377031
-3.766304	ANAME	-0.1377031
-3.196555	ANANA	-0.3094457
-3.766304	ANANAKARAKA	-0.1377031
-3.766304	ANANYO	-0.1377031
-3.766304	ANATIBI	-0.1377031
-3.766304	ANG	-0.1377031
-2.714099	ANGA	-0.617503
-1.921833	ANI	-0.6767267
-2.752129	ANIA	-0.4986366
-3.766304	ANIANABI	-0.1377031
-3.766304	ANIANGA	-0.1377031
-3.610642	ANIATIB	-0.2394577
-2.05085	ANIATIBI	-0.9557373
-3.766304	ANIATOBI	-0.1377031
-3.766304	ANINYO	-0.1377031
-3.766304	ANIS	-0.1377031
-3.766304	ANISE	-0.1377031
-3.766304	ANISI	-0.1377031
-3.610642	ANISIK	-0.2394577
-3.324187	ANISIKI	-0.2527402
-3.766304	ANISIKO	-0.1377031
-3.766304	ANISKI	-0.1377031
-3.766304	ANISO	-0.1377031
-3.766304	ANISOKI	-0.1377031
-3.766304	ANKOROAPU	-0.1377031
-3.766304	ANYANABO	-0.1377031
-3.766304	ANYO	-0.1377031
-3.908977	APE
-2.537125	APU	-0.6924566
-3.766304	APUAWO	-0.1377031
-3.610642	ARA	-0.1377031
-3.766304	ARAKANA	-0.1377031
-3.766304	ARASIN	-0.1377031
-2.839922	ARI	-0.2566377
-3.324187	ARIA	-0.1755942
-3.766304	ARIATIBI	-0.1377031
-3.766304	ARIME	-0.1377031
-3.766304	ARU	-0.1377031
-3.766304	ASE	-0.1377031
-3.766304	ASIN	-0.1377031
-3.766304	ATIBI	-0.1377031
-3.766304	AWU	-0.1377031
-3.196555	AYE	-0.2171101
-3.766304	BABA	-0.1377031
-3.766304	BAFI	-0.1377031
-3.766304	BAK	-0.1377031
-2.891518	BAKA	-0.3446364
-3.766304	BAKAB	-0.1377031
-3.610642	BAKABA	-0.1377031
-3.766304	BAKABABAMA	-0.1377031
-3.766304	BAKABABIA	-0.1377031
-3.766304	BAKABAMA	-0.1377031
-3.766304	BAKABAMAME	-0.1377031
-3.766304	BAKABAMAYE	-0.1377031
-3.766304	BAKABAME	-0.1377031
-3.610642	BAKABIA	-0.1856071
-3.908977	BAKABOBIA
-3.908977	BAKABOME
-3.324187	BAKAMA	-0.1985083
-3.766304	BAKAME	-0.1377031
-3.766304	BAKASAM	-0.1377031
-3.766304	BAKASIN	-0.1377031
-3.610642	BAKI	-0.1755942
-3.766304	BAKIBAME	-0.1377031
-3.766304	BAKIBIA	-0.1377031
-3.766304	BAKU	-0.1377031
-3.766304	BAKUB	-0.1377031
-3.766304	BAKUBA	-0.1377031
-3.766304	BAKUBAB	-0.1377031
-3.766304	BAKUBABI	-0.1377031
-3.196555	BAKUBABIA	-0.3185086
-3.610642	BAKUBABO	-0.2028259
-3.610642	BAKUBABOA	-0.1377031
-3.766304	BAKUBAM	-0.1377031
-3.766304	BAKUBAMA	-0.1377031
-3.324187	BAKUBAME	-0.2028259
-3.766304	BAKUM	-0.1377031
-3.196555	BAKUMA	-0.2397827
-3.610642	BAKUMABIA	-0.2394578
-3.766304	BAKUMAME	-0.1377031
-3.766304	BAKUME	-0.1377031
-3.766304	BALABALAMA	-0.1377031
-3.766304	BALAFA	-0.1377031
-3.766304	BALAFAMAYE	-0.1377031
-3.766304	BAMA	-0.1377031
-3.766304	BAMABIA	-0.1377031
-3.324187	BAME	-0.1609949
-3.766304	BAMUNA	-0.1377031
-2.752129	BAR	-0.9503099
-1.737839	BARA	-0.7876554
-3.324187	BARABIA	-0.2028259
-3.324187	BARACHUA	-0.2443573
-3.766304	BARAK	-0.1377031
-3.610642	BARAKA	-0.1856071
-3.610642	BARAKABA	-0.2394578
-3.766304	BARAKABIA	-0.1377031
-3.766304	BARAKABO	-0.1377031
-3.908977	BARAKABOBIA
-3.766304	BARAKAN	-0.1377031
-3.766304	BARAKANA	-0.1377031
-3.766304	BARAKANAYE	-0.1377031
-3.766304	BARAKARAYE	-0.1377031
-3.766304	BARAKUBA	-0.1377031
-3.610642	BARAKUBU	-0.170961
-3.766304	BARAKUBUBIA	-0.1377031
-3.766304	BARAKUMA	-0.1377031
-3.766304	BARAKUMAYE	-0.1377031
-3.324187	BARAMA	-0.1985083
-3.766304	BARAMABIA	-0.1377031
-3.610642	BARAME	-0.2394578
-3.610642	BARAS	-0.2394577
-3.610642	BARASA	-0.2028259
-3.610642	BARASAM	-0.2028259
-3.766304	BARASAN	-0.1377031
-3.766304	BARASI	-0.1377031
-3.766304	BARASIKI	-0.1377031
-3.766304	BARASIKIMA	-0.1377031
-2.646774	BARASIN	-0.6150203
-3.610642	BARASINBIA	-0.2394578
-3.766304	BARASINBO	-0.1377031
-3.766304	BARASINMA	-0.1377031
-3.766304	BARASINME	-0.1377031
-2.752129	BARI	-0.2341495
-3.766304	BARIKA	-0.1377031
-3.766304	BARIKANIKA	-0.1377031
-3.324187	BARIMA	-0.1856071
-3.908977	BARIMAME
-3.766304	BARIME	-0.1377031
-3.766304	BARISI	-0.1377031
-3.766304	BARISIA	-0.1377031
-3.766304	BARISIAPU	-0.1377031
-3.610642	BARISIN	-0.1755942
-3.766304	BARISINBIA	-0.1377031
-3.766304	BASO	-0.1377031
-2.679133	BEBE	-0.5955467
-3.766304	BEBI	-0.1377031
-3.610642	BEBIA	-0.1644267
-3.324187	BEBO	-0.1856071
-3.766304	BEBOBA	-0.1377031
-3.610642	BEIN	-0.1377031
-3.766304	BEL	-0.1377031
-3.610642	BELE	-0.169045
-3.766304	BELEM	-0.1377031
-3.196555	BELEMA	-0.1877644
-3.766304	BELEMAB	-0.1377031
-3.766304	BELEMABI	-0.1377031
-3.610642	BELEMABIA	-0.1545177
-3.766304	BELEMABO	-0.1377031
-3.766304	BELEMABOA	-0.1377031
-3.766304	BELEMAME	-0.1377031
-3.766304	BELEME	-0.1377031
-3.766304	BELIMA	-0.1377031
-3.908977	BELIMABIA
-3.766304	BELIMAME	-0.1377031
-3.324187	BEM	-0.3860385
-2.793811	BEME	-0.3604884
-3.196555	BEMI	-0.2198955
-3.908977	BEMIKE
-3.324187	BER	-0.3860385
-2.793811	BERE	-0.445326
-3.610642	BEREK	-0.2394577
-3.610642	BEREKAN	-0.2394578
-3.766304	BEREKIBIA	-0.1377031
-3.766304	BEREKIBO	-0.1377031
-3.196555	BEREKIN	-0.2605166
-3.766304	BEREKINBIA	-0.1377031
-3.766304	BEREKIRI	-0.1377031
-3.610642	BEREKO	-0.2028259
-2.793811	BEREKON	-0.3741412
-3.766304	BEREKONBI	-0.1377031
-3.610642	BEREKONBIA	-0.1377031
-3.196555	BEREKONBO	-0.2443573
-3.766304	BEREKORO	-0.1377031
-3.766304	BEREKOROBO	-0.1377031
-3.610642	BEREN	-0.2394577
-2.616659	BERENI	-0.3205959
-3.766304	BERENIB	-0.1377031
-3.766304	BERENIBI	-0.1377031
-3.324187	BERENIBIA	-0.2098195
-3.766304	BERENIBO	-0.1377031
-3.766304	BERENIBOAPIRIME	-0.1377031
-3.766304	BERENIM	-0.1377031
-3.610642	BERENIMA	-0.2394578
-3.098038	BERENIME	-0.3120497
-3.610642	BERENO	-0.2394578
-3.766304	BERETO	-0.1377031
-3.610642	BERETON	-0.1377031
-3.098038	BERI	-0.2164935
-3.766304	BERIKA	-0.1377031
-3.766304	BERIKIN	-0.1377031
-3.766304	BERIKINI	-0.1377031
-3.610642	BERIKON	-0.2394578
-3.766304	BERIKONBO	-0.1377031
-3.766304	BERIMA	-0.1377031
-3.766304	BERINAME	-0.1377031
-3.610642	BERINI	-0.1609949
-3.766304	BERINIBI	-0.1377031
-3.766304	BERINIBIA	-0.1377031
-3.766304	BERINIME	-0.1377031
-1.998756	BIA	-0.7488539
-3.098038	BIABE	-0.3830509
-3.766304	BIABEREMENIBO	-0.1377031
-3.324187	BIABIA	-0.1800159
-3.766304	BIB	-0.1377031
-3.766304	BIBE	-0.1377031
-3.610642	BIBIA	-0.2028259
-2.05085	BIE	-0.4806535
-3.766304	BIEB	-0.1377031
-3.766304	BIEBE	-0.1377031
-3.766304	BIEBELA	-0.1377031
-3.098038	BIEBELE	-0.2158964
-3.766304	BIEBELEM	-0.1377031
-3.098038	BIEBELEMA	-0.3484159
-3.610642	BIEBELEMABIA	-0.1856071
-3.766304	BIEBELEMABO	-0.1377031
-3.766304	BIEBELEMAME	-0.1377031
-3.610642	BIEBELEME	-0.169045
-3.766304	BIEBERE	-0.1377031
-3.766304	BIEBI	-0.1377031
-3.324187	BIEBIA	-0.2028259
-3.766304	BIEBO	-0.1377031
-3.766304	BIEBOLE	-0.1377031
-3.766304	BIEBOLEMA	-0.1377031
-3.766304	BIEBOLEMAME	-0.1377031
-3.766304	BIEBORO	-0.1377031
-3.766304	BIEBOROMA	-0.1377031
-3.908977	BIEBOROMABIA
-3.766304	BIEJELE	-0.1377031
-3.610642	BIEJI	-0.2394578
-3.766304	BIEJIAYE	-0.1377031
-3.324187	BIEJU	-0.1856071
-3.766304	BIEJUAB	-0.1377031
-3.766304	BIEJUABO	-0.1377031
-3.766304	BIEJUADABO	-0.1377031
-3.196555	BIEJUADAPU	-0.5109773
-3.610642	BIEJUADUPU	-0.2394578
-3.766304	BIEJUAMAYO	-0.1377031
-3.766304	BIEKA	-0.1377031
-3.766304	BIEKARAMA	-0.1377031
-3.766304	BIEKELEME	-0.1377031
-3.766304	BIEKOROM	-0.1377031
-3.766304	BIEKOROMA	-0.1377031
-3.610642	BIEKOROMABIA	-0.1856071
-3.766304	BIEKOROMABO	-0.1377031
-3.766304	BIEKOROMAME	-0.1377031
-3.766304	BIEMA	-0.1377031
-3.766304	BIK	-0.1377031
-3.610642	BIKE	-0.1609949
-3.766304	BIKEME	-0.1377031
-2.891518	BIKI	-0.1917351
-3.766304	BIKIBA	-0.1377031
-3.766304	BIKIBIA	-0.1377031
-3.766304	BIKIBO	-0.1377031
-3.766304	BIKIMA	-0.1377031
-3.908977	BIKIMABIA
-3.766304	BIKIME	-0.1377031
-3.766304	BIM	-0.1377031
-3.766304	BIMA	-0.1377031
-3.766304	BIMABE	-0.1377031
-2.714099	BIME	-0.4728322
-3.766304	BIMI	-0.1377031
-3.766304	BIPA	-0.1377031
-3.908977	BIPAKAME
-3.766304	BIPE	-0.1377031
-3.610642	BIPI	-0.1444751
-3.766304	BIPIKI	-0.1377031
-3.766304	BIPIKIBIA	-0.1377031
-3.908977	BIPIKOKIME
-3.766304	BIPIMA	-0.1377031
-3.766304	BIPIPEKERE	-0.1377031
-3.766304	BIR	-0.1377031
-3.324187	BIRE	-0.2692347
-3.766304	BIREMABIA	-0.1377031
-3.766304	BIRENIKI	-0.1377031
-3.017788	BIRI	-0.2079199
-3.766304	BIRIB	-0.1377031
-3.610642	BIRIBIA	-0.169045
-3.766304	BIRIBIBIA	-0.1377031
-3.766304	BIRIBO	-0.1377031
-3.766304	BIRIBUBIA	-0.1377031
-3.610642	BIRIMA	-0.1929032
-3.766304	BIRIMABIA	-0.1377031
-3.908977	BIRIMABOA
-3.610642	BIRIMAME	-0.2028259
-3.766304	BIRIME	-0.1377031
-2.95008	BOBE	-0.4097805
-2.646774	BOBIA	-0.649446
-3.196555	BOBO	-0.3094457
-3.766304	BOK	-0.1377031
-3.196555	BOKA	-0.2431272
-3.766304	BOKABOME	-0.1377031
-3.766304	BOKE	-0.1377031
-3.324187	BOKO	-0.2692347
-3.766304	BOLU	-0.1377031
-3.766304	BOM	-0.1377031
-2.714099	BOMA	-0.4751681
-2.286476	BOME	-0.7676011
-3.017788	BORA	-0.4733547
-3.766304	BORASAM	-0.1377031
-3.324187	BORASIN	-0.1377031
-3.324187	BORI	-0.1377031
-3.766304	BORIA	-0.1377031
-3.766304	BORIBO	-0.1377031
-3.766304	BORIMA	-0.1377031
-2.411745	BORO	-0.5493763
-3.610642	BOROBIA	-0.1377031
-3.766304	BOROM	-0.1377031
-2.95008	BOROMA	-0.2728441
-3.766304	BOROMABIA	-0.1377031
-3.324187	BOROME	-0.1856071
-3.324187	BOROSA	-0.2692347
-3.196555	BOROSAM	-0.1755942
-3.610642	BUB	-0.2394577
-3.766304	BUBAL	-0.1377031
-3.017788	BUBALABALA	-0.6870685
-3.766304	BUBALABALAMA	-0.1377031
-3.766304	BUBALABALAMAME	-0.1377031
-3.610642	BUBALABAMA	-0.2394578
-3.766304	BUBALAMA	-0.1377031
-3.766304	BUBALAMAMA	-0.1377031
-3.766304	BUBALAMAME	-0.1377031
-3.766304	BUBAMABE	-0.1377031
-3.766304	BUBARABARA	-0.1377031
-3.908977	BUBARABIA
-3.610642	BUBARASIN	-0.2394578
-3.766304	BUBARIBIA	-0.1377031
-3.766304	BUBELEBALA	-0.1377031
-3.610642	BUBELEBIA	-0.1377031
-3.766304	BUBELEMABIA	-0.1377031
-3.766304	BUBELEME	-0.1377031
-3.610642	BUBIA	-0.2028259
-3.766304	BUBIAMAYE	-0.1377031
-3.610642	BUBIE	-0.1377031
-3.766304	BUBIEMA	-0.1377031
-3.766304	BUBU	-0.1377031
-3.766304	BUBUAMAYE	-0.1377031
-3.766304	BUBULO	-0.1377031
-2.95008	BUCHUAYE	-0.466206
-3.766304	BUCHUAYEMA	-0.1377031
-3.766304	BUCUUAYE	-0.1377031
-3.766304	BUDUKOAPU	-0.1377031
-3.766304	BUGBIRIPUMAYE	-0.1377031
-3.766304	BUGBIRUPUMAYE	-0.1377031
-3.766304	BUKO	-0.1377031
-3.908977	BUKUBAMABE
-3.766304	BUKUBAMAMA	-0.1377031
-3.766304	BUKUBAME	-0.1377031
-3.766304	BUKUKA	-0.1377031
-3.324187	BUKULOMA	-0.3860385
-3.766304	BUKULU	-0.1377031
-3.766304	BUKUROMA	-0.1377031
-3.098038	BUO	-0.369296
-3.766304	BUOKORIBIA	-0.1377031
-3.610642	BUOKOROMABIA	-0.1377031
-3.766304	BUOKOROME	-0.1377031
-3.766304	BUOKUMAME	-0.1377031
-3.766304	BURO	-0.1377031
-3.766304	BURUMA	-0.1377031
-3.908977	CHEYE
-3.766304	CHI	-0.1377031
-3.766304	CHIE	-0.1377031
-3.908977	CHIEBIA
-3.766304	CHIEMA	-0.1377031
-3.766304	CHIEMABIA	-0.1377031
-3.766304	CHIEME	-0.1377031
-3.908977	CHIEMIBIA
-3.196555	CHIN	-0.3094457
-3.766304	CHINBIA	-0.1377031
-3.766304	CHINME	-0.1377031
-3.766304	CHU	-0.1377031
-2.891518	CHUA	-0.3124517
-3.766304	CHUABIA	-0.1377031
-3.196555	CHUAME	-0.3213619
-3.766304	CHUBIA	-0.1377031
-3.610642	CHUKU	-0.1377031
-3.766304	CHUN	-0.1377031
-3.766304	CHUNME	-0.1377031
-3.766304	DABE	-0.1377031
-3.098038	DABO	-0.485537
-3.766304	DAENPU	-0.1377031
-3.766304	DAKA	-0.1377031
-3.766304	DAKI	-0.1377031
-3.766304	DAM	-0.1377031
-3.610642	DAMA	-0.2394578
-3.610642	DAMABO	-0.1583444
-3.324187	DAMABOME	-0.1583444
-3.766304	DAMAMOME	-0.1377031
-3.766304	DAMAMON	-0.1377031
-3.766304	DAMAMUME	-0.1377031
-3.610642	DAMAMUN	-0.2394578
-3.766304	DAMAMUNBIA	-0.1377031
-3.610642	DAMBE	-0.1856071
-3.766304	DAMBEBO	-0.1377031
-3.766304	DAMBELOMA	-0.1377031
-3.766304	DAMBO	-0.1377031
-3.766304	DAMBOKO	-0.1377031
-3.766304	DAMBOME	-0.1377031
-3.766304	DAME	-0.1377031
-3.908977	DAMEBOME
-3.766304	DAMU	-0.1377031
-3.766304	DAPA	-0.1377031
-3.610642	DAPU	-0.169045
-3.766304	DAWO	-0.1377031
-3.324187	DEKI	-0.1926151
-3.908977	DEKIME
-3.766304	DEKO	-0.1377031
-3.766304	DEMI	-0.1377031
-3.766304	DEPAKUMA	-0.1377031
-3.766304	DEPI	-0.1377031
-3.098038	DIE	-0.2398328
-3.610642	DIEAPU	-0.2028259
-3.766304	DIEBELEMAME	-0.1377031
-3.766304	DIEBELEME	-0.1377031
-3.766304	DIEBIA	-0.1377031
-3.766304	DIEM	-0.1377031
-3.908977	DIEMA
-3.610642	DIEME	-0.169045
-3.766304	DIEPAKUMABE	-0.1377031
-3.610642	DIK	-0.2394577
-3.098038	DIKI	-0.2383765
-3.766304	DIKIBALAFAME	-0.1377031
-3.908977	DIKIBALEMAME
-3.610642	DIKIBIA	-0.2028259
-3.766304	DIKIBIGARE	-0.1377031
-3.766304	DIKIBUGERERE	-0.1377031
-3.766304	DIKIDIKI	-0.1377031
-3.766304	DIKIDIKIBIA	-0.1377031
-3.766304	DIKIMA	-0.1377031
-3.766304	DIKIME	-0.1377031
-3.766304	DIKO	-0.1377031
-3.766304	DIN	-0.1377031
-3.908977	DIPI
-3.766304	DIPIYEMGBOLU	-0.1377031
-3.766304	DIRI	-0.1377031
-3.766304	DIRIME	-0.1377031
-3.610642	DOKI	-0.2028259
-3.610642	DOKIMA	-0.2394578
-3.766304	DOKIME	-0.1377031
-3.766304	DOKOMA	-0.1377031
-3.908977	DOKUME
-3.766304	DOMONI	-0.1377031
-3.766304	DOMONIKIRI	-0.1377031
-3.766304	DOMUME	-0.1377031
-3.324187	DUK	-0.3860385
-2.839922	DUKO	-0.3466742
-3.766304	DUKOAPU	-0.1377031
-3.766304	DUKOBO	-0.1377031
-3.196555	DUKOMA	-0.3113041
-3.196555	DUKOME	-0.290997
-3.766304	DUKOY	-0.1377031
-3.610642	DUKOYE	-0.169045
-3.610642	DUKU	-0.1377031
-3.766304	DUKUKE	-0.1377031
-3.766304	DUKUME	-0.1377031
-2.891518	DUMO	-0.2478023
-3.766304	DUMOBA	-0.1377031
-3.766304	DUMOBIA	-0.1377031
-3.766304	DUPARI	-0.1377031
-3.766304	DUPU	-0.1377031
-3.766304	DUPUKUMABO	-0.1377031
-3.766304	EBELE	-0.1377031
-3.766304	EBIA	-0.1377031
-3.766304	ECHI	-0.1377031
-3.766304	ECHINMGBOLU	-0.1377031
-3.766304	EDA	-0.1377031
-3.766304	EDE	-0.1377031
-3.766304	EGOYE	-0.1377031
-3.766304	EIN	-0.1377031
-3.766304	EINMA	-0.1377031
-3.324187	EKA	-0.1377031
-3.908977	EKARAKARAMA
-3.908977	EKARIKA
-2.714099	EKE	-0.4950247
-3.766304	EKEREME	-0.1377031
-3.766304	EKIN	-0.1377031
-3.766304	EKON	-0.1377031
-3.908977	ELAME
-3.766304	ELE	-0.1377031
-3.766304	ELEMA	-0.1377031
-3.766304	ELEMABIA	-0.1377031
-3.766304	EMA	-0.1377031
-3.766304	EMABIA	-0.1377031
-3.766304	EME	-0.1377031
-3.766304	EMIKASE	-0.1377031
-3.766304	EMIKE	-0.1377031
-2.679133	ENE	-0.7685199
-3.908977	ENECHI
-3.766304	ENEKUBU	-0.1377031
-3.766304	ENGI	-0.1377031
-3.766304	ENGIAPU	-0.1377031
-3.766304	ENGIMA	-0.1377031
-3.766304	ENI	-0.1377031
-3.766304	ENIBIA	-0.1377031
-3.766304	ENIME	-0.1377031
-3.766304	ENJEL	-0.1377031
-3.766304	ENJELA	-0.1377031
-3.610642	ENJELAPU	-0.1856071
-3.908977	EOGBO
-3.766304	EOKU	-0.1377031
-3.610642	ERCCHI	-0.1377031
-3.908977	ERCHHI
-3.017788	ERE	-0.3696611
-3.766304	EREC	-0.1377031
-2.793811	ERECHI	-0.3931683
-3.908977	ERECHU
-3.766304	EREKINBO	-0.1377031
-3.766304	EREKON	-0.1377031
-3.908977	EREKONBIA
-3.766304	EREMA	-0.1377031
-3.610642	EREMANI	-0.2394578
-3.610642	EREME	-0.2028259
-3.610642	EREMENI	-0.2394578
-3.908977	EREMENIB
-3.610642	EREMENIBO	-0.2394578
-3.766304	ERENI	-0.1377031
-3.766304	ERENIBIA	-0.1377031
-3.766304	ERENIME	-0.1377031
-3.766304	ERI	-0.1377031
-3.766304	ERINI	-0.1377031
-3.908977	ERINIBIA
-3.766304	ERJELAPU	-0.1377031
-3.766304	ESE	-0.1377031
-3.766304	ESECHIN	-0.1377031
-3.610642	FANJI	-0.2394578
-3.766304	FARISIAP	-0.1377031
-3.766304	FARISIAPU	-0.1377031
-3.766304	FERE	-0.1377031
-3.766304	FEREMABO	-0.1377031
-3.766304	FIAFIA	-0.1377031
-3.766304	FIAPU	-0.1377031
-3.766304	FIB	-0.1377031
-3.766304	FIBIA	-0.1377031
-3.610642	FIE	-0.1377031
-3.766304	FIEARI	-0.1377031
-3.766304	FIMA	-0.1377031
-3.324187	FIME	-0.2848417
-3.324187	FINI	-0.3094457
-3.766304	FINIM	-0.1377031
-3.766304	FINIMA	-0.1377031
-3.908977	FINIMABIA
-3.766304	FINIMABO	-0.1377031
-3.908977	FINIMAME
-3.196555	FINJI	-0.348416
-3.908977	FINJIME
-3.766304	FINJU	-0.1377031
-3.766304	FIR	-0.1377031
-3.766304	FIRI	-0.1377031
-3.766304	FIRIM	-0.1377031
-3.017788	FIRIMA	-0.3177608
-3.766304	FIRIMAB	-0.1377031
-3.908977	FIRIMABE
-3.610642	FIRIMABIA	-0.1958562
-3.766304	FIRIMABO	-0.1377031
-3.766304	FIRIMAME	-0.1377031
-3.766304	FIRIME	-0.1377031
-3.766304	FIRIN	-0.1377031
-3.766304	FIRINA	-0.1377031
-3.610642	FIRINAME	-0.2028259
-3.610642	FIRINW	-0.2394577
-3.766304	FIRINWE	-0.1377031
-3.196555	FIRINWENGI	-0.4063557
-3.766304	FIRINWENGIAPU	-0.1377031
-3.610642	FIRINWENGIBI	-0.2394578
-3.766304	FIRINWENGIBIA	-0.1377031
-3.196555	FIRINWENGIBO	-0.2692347
-3.766304	FIRINWENIIBO	-0.1377031
-3.324187	FIYE	-0.3094457
-3.766304	FOKU	-0.1377031
-3.766304	FOMU	-0.1377031
-3.766304	FOMUME	-0.1377031
-3.766304	FONI	-0.1377031
-3.610642	FONU	-0.2028259
-3.908977	FORI
-3.610642	FORIMA	-0.2028259
-3.766304	FORIMABIA	-0.1377031
-3.766304	FORO	-0.1377031
-3.610642	FORU	-0.2394577
-3.766304	FORUMGBOL	-0.1377031
-3.766304	FORUMGBOLUPUN	-0.1377031
-3.766304	FUN	-0.1377031
-3.766304	FUNA	-0.1377031
-3.766304	FUNFUN	-0.1377031
-3.766304	FUNFURIBO	-0.1377031
-3.766304	FURAMA	-0.1377031
-3.610642	FURO	-0.2394578
-3.766304	FUROMA	-0.1377031
-3.766304	FURU	-0.1377031
-3.766304	FURUBUBIA	-0.1377031
-3.766304	FURUMA	-0.1377031
-3.908977	FURUMABIA
-3.766304	GALILI	-0.1377031
-3.766304	GBA	-0.1377031
-3.766304	GBAN	-0.1377031
-3.196555	GBANA	-0.348416
-3.766304	GBANABE	-0.1377031
-3.324187	GBANABIA	-0.1856071
-3.766304	GBANABO	-0.1377031
-3.766304	GBANBIA	-0.1377031
-3.766304	GBASA	-0.1377031
-3.766304	GBASAME	-0.1377031
-3.766304	GBASO	-0.1377031
-3.766304	GBE	-0.1377031
-3.766304	GBEI	-0.1377031
-3.610642	GBEIN	-0.1562355
-3.766304	GBEINKA	-0.1377031
-3.766304	GBEINKE	-0.1377031
-3.766304	GBEINYE	-0.1377031
-3.766304	GBELA	-0.1377031
-3.766304	GBELABE	-0.1377031
-3.766304	GBELABIA	-0.1377031
-3.766304	GBELAM	-0.1377031
-3.324187	GBELAME	-0.2050707
-3.766304	GBEMA	-0.1377031
-3.766304	GBESECHIN	-0.1377031
-3.324187	GBIN	-0.169045
-3.766304	GBINMA	-0.1377031
-3.908977	GBINME
-3.766304	GBOLO	-0.1377031
-3.766304	GBOLOMA	-0.1377031
-3.766304	GBOLOMAYE	-0.1377031
-3.766304	GBOLU	-0.1377031
-3.766304	GBOMI	-0.1377031
-3.766304	GBON	-0.1377031
-3.766304	GBOR	-0.1377031
-3.196555	GBORI	-0.2848417
-3.766304	GBORIB	-0.1377031
-3.766304	GBORIBIA	-0.1377031
-3.196555	GBORIBO	-0.2438649
-3.766304	GBORO	-0.1377031
-3.766304	GBOROBO	-0.1377031
-3.766304	GBYEGOYE	-0.1377031
-3.766304	GELE	-0.1377031
-3.766304	GEYEG	-0.1377031
-3.766304	GEYEGOYE	-0.1377031
-3.766304	GIARI	-0.1377031
-3.766304	GIR	-0.1377031
-3.766304	GIRIMA	-0.1377031
-3.766304	GIYE	-0.1377031
-3.766304	GOLE	-0.1377031
-3.766304	GOLEGOYE	-0.1377031
-3.766304	GOLO	-0.1377031
-3.766304	GOLOM	-0.1377031
-3.766304	GONO	-0.1377031
-3.766304	GORO	-0.1377031
-3.766304	GOROMA	-0.1377031
-3.610642	GORU	-0.2394578
-3.766304	GOS	-0.1377031
-3.766304	GOSA	-0.1377031
-3.098038	GOSE	-0.1907352
-3.766304	GOSEGERE	-0.1377031
-3.766304	GOSEGOYE	-0.1377031
-3.766304	GOY	-0.1377031
-3.610642	GOYE	-0.1377031
-3.766304	GOYEG	-0.1377031
-3.766304	GOYEGO	-0.1377031
-3.766304	GOYEGOY	-0.1377031
-2.752129	GOYEGOYE	-0.5365259
-3.908977	GWANABIA
-3.766304	GWENI	-0.1377031
-3.766304	GWOME	-0.1377031
-3.766304	HIEMABIA	-0.1377031
-3.766304	IABE	-0.1377031
-3.908977	IAME
-3.766304	IANKOROBO	-0.1377031
-3.766304	IAPU	-0.1377031
-3.766304	IARI	-0.1377031
-3.766304	IATIBI	-0.1377031
-3.766304	IBA	-0.1377031
-3.766304	IBAF	-0.1377031
-3.766304	IBAFABIA	-0.1377031
-3.766304	IBAFAMA	-0.1377031
-3.766304	IBAFAME	-0.1377031
-3.610642	IBAFI	-0.1755942
-3.766304	IBAFIB	-0.1377031
-3.766304	IBAFIBI	-0.1377031
-3.610642	IBAFIBIA	-0.1609949
-3.766304	IBAFIBO	-0.1377031
-3.908977	IBAME
-2.793811	IBI	-0.3054083
-3.610642	IBIA	-0.1377031
-3.908977	IBIABE
-3.766304	IBIAMA	-0.1377031
-3.908977	IBIAME
-3.766304	IBIAPU	-0.1377031
-3.610642	IBIBIA	-0.1377031
-3.766304	IBIFI	-0.1377031
-3.766304	IBIFIBIA	-0.1377031
-3.766304	IBIFIMA	-0.1377031
-3.766304	IBIMABO	-0.1377031
-3.766304	IBIMAME	-0.1377031
-3.766304	IBIME	-0.1377031
-3.766304	IBIN	-0.1377031
-3.610642	IBIOKU	-0.2028259
-3.610642	IBO	-0.1545177
-3.766304	IBORIBO	-0.1377031
-3.017788	IBU	-0.2397827
-3.766304	IBUOKU	-0.1377031
-3.908977	IEME
-3.766304	IEMGBOLU	-0.1377031
-3.766304	IESE	-0.1377031
-3.766304	IFIBIA	-0.1377031
-3.766304	IGANI	-0.1377031
-3.908977	IGANIME
-3.766304	IGBEKE	-0.1377031
-3.196555	IGBIKI	-0.5109773
-3.766304	IGBO	-0.1377031
-3.766304	IKA	-0.1377031
-3.766304	IKABIA	-0.1377031
-3.766304	IKABO	-0.1377031
-3.908977	IKAME
-3.766304	IKANI	-0.1377031
-3.766304	IKANIKA	-0.1377031
-3.766304	IKANIKI	-0.1377031
-3.766304	IKANIKIRI	-0.1377031
-3.766304	IKASE	-0.1377031
-3.766304	IKASI	-0.1377031
-3.766304	IKE	-0.1377031
-3.098038	IKI	-0.2450929
-3.610642	IKIA	-0.1377031
-3.610642	IKIABO	-0.2028259
-3.766304	IKIABU	-0.1377031
-3.196555	IKIAN	-0.2151397
-3.324187	IKIANK	-0.3860385
-3.766304	IKIANKARO	-0.1377031
-3.610642	IKIANKO	-0.2394577
-3.766304	IKIANKORIAPU	-0.1377031
-3.610642	IKIANKORO	-0.2394577
-3.766304	IKIANKOROA	-0.1377031
-3.766304	IKIANKOROABO	-0.1377031
-2.752129	IKIANKOROAPU	-0.95031
-3.610642	IKIANKOROBIA	-0.2394578
-2.95008	IKIANKOROBO	-0.5066905
-3.324187	IKIAPU	-0.3860385
-3.610642	IKIBI	-0.1377031
-3.610642	IKIBIA	-0.1755942
-3.324187	IKIBO	-0.3094457
-3.766304	IKIMA	-0.1377031
-3.766304	IKIME	-0.1377031
-3.908977	IKISA
-3.610642	IKO	-0.2394578
-3.766304	IKOANKOROAPU	-0.1377031
-3.196555	IKOLI	-0.2692347
-3.766304	IKOLIBO	-0.1377031
-3.766304	IKOLIMA	-0.1377031
-3.610642	IKPAKA	-0.2394578
-3.766304	IKPANGI	-0.1377031
-3.766304	IKPANIKANIKA	-0.1377031
-3.766304	IKPANKA	-0.1377031
-3.766304	IKPANKIRIBIA	-0.1377031
-3.196555	IKU	-0.3113041
-3.766304	IKULU	-0.1377031
-3.908977	IKULUME
-3.098038	IKUMA	-0.2151397
-3.766304	IMA	-0.1377031
-3.766304	IMABIA	-0.1377031
-3.766304	IME	-0.1377031
-3.766304	IMEBIA	-0.1377031
-3.908977	IMEOGBO
-3.766304	IMUN	-0.1377031
-3.766304	INA	-0.1377031
-2.714099	INE	-0.4823328
-3.610642	INEA	-0.1377031
-3.017788	INED	-0.6870685
-2.376882	INEDA	-0.5881718
-3.610642	INEDABI	-0.1377031
-3.610642	INEDABIA	-0.2394578
-3.610642	INEDE	-0.2394578
-3.766304	INEIN	-0.1377031
-3.766304	INEMABIA	-0.1377031
-1.769749	INI	-0.6083345
-2.376882	INIA	-0.4445803
-3.766304	INIABEME	-0.1377031
-3.610642	INIABO	-0.1377031
-3.766304	INIABOBIA	-0.1377031
-3.766304	INIANABO	-0.1377031
-3.766304	INIANGA	-0.1377031
-3.196555	INIB	-0.5109773
-3.766304	INIBA	-0.1377031
-3.196555	INIBI	-0.1377031
-2.020321	INIBO	-0.5219771
-3.766304	INIBOKI	-0.1377031
-3.766304	INIBP	-0.1377031
-3.908977	INIBPARIME
-3.766304	INIBPIKI	-0.1377031
-3.766304	INIBPIRIBIA	-0.1377031
-3.610642	INJI	-0.2028259
-3.766304	INWENGIBO	-0.1377031
-3.766304	INY	-0.1377031
-3.766304	INYESARA	-0.1377031
-3.196555	INYO	-0.1609949
-3.766304	INYOSAM	-0.1377031
-3.766304	INYOSAR	-0.1377031
-3.098038	INYOSARA	-0.485537
-3.766304	INYOSIRA	-0.1377031
-3.766304	IPI	-0.1377031
-2.562052	IRI	-0.3537749
-3.098038	IRIA	-0.2352812
-3.766304	IRIABE	-0.1377031
-3.766304	IRIAMA	-0.1377031
-3.766304	IRIAME	-0.1377031
-3.766304	IRIANABIE	-0.1377031
-3.766304	IRIANYA	-0.1377031
-3.766304	IRIBIA	-0.1377031
-3.766304	IRIMA	-0.1377031
-3.766304	IRIMABIA	-0.1377031
-3.766304	IRIME	-0.1377031
-3.766304	IRINWENGI	-0.1377031
-3.098038	IRU	-0.3517885
-3.610642	IRUA	-0.1377031
-3.766304	IRUAMA	-0.1377031
-3.766304	ISE	-0.1377031
-3.766304	ISIKI	-0.1377031
-2.376882	IYA	-0.4892637
-3.766304	IYANAMA	-0.1377031
-3.017788	IYE	-0.1377031
-3.766304	IYIA	-0.1377031
-3.766304	IZOS	-0.1377031
-3.766304	JELAPU	-0.1377031
-3.766304	JERUSALEM	-0.1377031
-3.610642	JIKE	-0.2394578
-3.766304	JIKEME	-0.1377031
-3.610642	JIKI	-0.1377031
-3.017788	JIN	-0.1951144
-3.766304	JINBIA	-0.1377031
-3.610642	JINBO	-0.1609949
-3.610642	JINE	-0.2394578
-3.766304	JINEMI	-0.1377031
-3.766304	JINSEAPU	-0.1377031
-3.610642	JIZ	-0.2394577
-3.610642	JIZO	-0.2028259
-2.793811	JIZOS	-0.5801494
-3.017788	JON	-0.3412673
-3.766304	JUADAPU	-0.1377031
-3.766304	JUAPU	-0.1377031
-3.766304	JUKO	-0.1377031
-3.766304	JUKUMA	-0.1377031
-3.766304	JUKUMABIA	-0.1377031
-3.766304	JUN	-0.1377031
-3.766304	KABA	-0.1377031
-3.766304	KABABIA	-0.1377031
-3.766304	KABIE	-0.1377031
-3.324187	KABO	-0.3860385
-3.908977	KABOBIA
-3.908977	KABOME
-3.324187	KAN	-0.1856071
-3.766304	KARA	-0.1377031
-3.610642	KARAKA	-0.2394577
-3.766304	KARAKANAYE	-0.1377031
-3.766304	KARAKARA	-0.1377031
-3.017788	KARAKARAMA	-0.4097804
-3.766304	KARAKARAMABO	-0.1377031
-3.766304	KARAKARAMAME	-0.1377031
-3.196555	KARAKARAME	-0.1377031
-3.324187	KARAKARAYE	-0.2443573
-3.098038	KARAMA	-0.3185086
-3.766304	KARAMABE	-0.1377031
-3.766304	KARAME	-0.1377031
-3.766304	KARIBIA	-0.1377031
-3.766304	KARIFIME	-0.1377031
-3.766304	KARIKANA	-0.1377031
-3.766304	KARIKARAME	-0.1377031
-3.766304	KASE	-0.1377031
-3.766304	KELEMA	-0.1377031
-3.766304	KENGE	-0.1377031
-3.766304	KEREME	-0.1377031
-3.766304	KIANKOROAPU	-0.1377031
-3.908977	KIANKOROBO
-3.766304	KIBIA	-0.1377031
-3.766304	KIBO	-0.1377031
-3.324187	KIKI	-0.1856071
-3.766304	KIMA	-0.1377031
-3.766304	KIME	-0.1377031
-3.766304	KIMUN	-0.1377031
-3.610642	KIRI	-0.1377031
-3.766304	KIRIKARI	-0.1377031
-3.766304	KIRIKIRI	-0.1377031
-3.766304	KOK	-0.1377031
-3.766304	KOKI	-0.1377031
-3.766304	KOKIMAYE	-0.1377031
-3.766304	KOKIME	-0.1377031
-2.839922	KOKO	-0.3185086
-3.766304	KOKOM	-0.1377031
-2.891518	KOKOMA	-0.2354484
-3.610642	KOKOMAY	-0.2394577
-2.839922	KOKOMAYE	-0.3760945
-3.766304	KOKOMAYI	-0.1377031
-3.196555	KOKOME	-0.3484159
-3.766304	KOKUMA	-0.1377031
-3.908977	KOME
-3.017788	KON	-0.2942797
-3.766304	KONBIA	-0.1377031
-3.610642	KONBO	-0.2394578
-3.908977	KONME
-3.766304	KOR	-0.1377031
-3.610642	KORI	-0.2394578
-3.766304	KORIMA	-0.1377031
-3.610642	KORIMABIA	-0.2394578
-3.766304	KORIME	-0.1377031
-2.537125	KORO	-0.7517033
-3.610642	KOROBIA	-0.1377031
-3.610642	KOROBO	-0.2394578
-3.908977	KOROBOABE
-3.908977	KOROBOBIA
-3.610642	KOROM	-0.2394577
-2.562052	KOROMA	-0.4479848
-2.646774	KOROMABIA	-0.5045952
-2.891518	KOROMABO	-0.8120073
-3.766304	KOROMABOME	-0.1377031
-3.610642	KOROMAME	-0.2028259
-3.766304	KOROMAS	-0.1377031
-3.766304	KOROMASAM	-0.1377031
-3.766304	KOROMASI	-0.1377031
-3.324187	KOROMASO	-0.3094457
-3.610642	KOROMASOME	-0.2028259
-2.839922	KOROME	-0.8631598
-3.196555	KORU	-0.4063557
-3.766304	KORUAPU	-0.1377031
-3.766304	KORUARU	-0.1377031
-3.766304	KORUMA	-0.1377031
-3.610642	KORUMABIA	-0.1377031
-3.908977	KORUMABOME
-3.766304	KORUMGBOLU	-0.1377031
-3.766304	KPEKI	-0.1377031
-3.766304	KPEREKI	-0.1377031
-3.766304	KPO	-0.1377031
-3.610642	KPONJI	-0.1377031
-3.766304	KUBI	-0.1377031
-3.017788	KUBIE	-0.2383766
-3.766304	KUBIEM	-0.1377031
-3.610642	KUBIEMGBOLU	-0.1856071
-3.766304	KUBIEMGBOLUMA	-0.1377031
-3.766304	KUBOE	-0.1377031
-3.766304	KUBU	-0.1377031
-3.766304	KUKO	-0.1377031
-3.766304	KUKOMA	-0.1377031
-3.766304	KUKOMAYE	-0.1377031
-3.766304	KUKOME	-0.1377031
-3.610642	KULOMA	-0.1377031
-3.766304	KULU	-0.1377031
-3.324187	KULUMA	-0.3094457
-3.766304	KUMA	-0.1377031
-3.766304	KUME	-0.1377031
-3.324187	KUN	-0.2274216
-3.766304	KUNBIA	-0.1377031
-3.766304	KUNO	-0.1377031
-3.766304	KUNU	-0.1377031
-3.766304	KUR	-0.1377031
-3.610642	KURA	-0.2394578
-2.752129	KURO	-0.4352507
-2.891518	KUROMA	-0.3446364
-3.610642	KUROMABIA	-0.1377031
-3.766304	KUROMABO	-0.1377031
-3.766304	KUROME	-0.1377031
-3.766304	KURU	-0.1377031
-3.766304	KURUKARAMA	-0.1377031
-3.766304	KURUMA	-0.1377031
-3.766304	KURUMAB	-0.1377031
-3.766304	KURUMABIA	-0.1377031
-3.766304	LABIA	-0.1377031
-3.766304	LAK	-0.1377031
-3.766304	LAME	-0.1377031
-3.766304	LEMA	-0.1377031
-3.766304	LEMABIA	-0.1377031
-3.766304	LEMABO	-0.1377031
-3.766304	LOKO	-0.1377031
-3.908977	LOKOMAYE
-3.766304	LUK	-0.1377031
-3.766304	MABIA	-0.1377031
-3.908977	MABOME
-3.610642	MAK	-0.1856071
-3.766304	MAM	-0.1377031
-2.646774	MAMA	-0.4399486
-2.95008	MAMABA	-0.369296
-3.766304	MAMABAPU	-0.1377031
-3.766304	MAMABARA	-0.1377031
-3.766304	MAMABIA	-0.1377031
-3.908977	MAME
-3.324187	MAMG	-0.2028259
-3.324187	MAMGB	-0.3860385
-2.393964	MAMGBA	-0.6345128
-3.766304	MAMGBO	-0.1377031
-3.766304	MAMUN	-0.1377031
-3.766304	MANAPU	-0.1377031
-3.766304	MASO	-0.1377031
-3.908977	MATI
-3.908977	MATIO
-3.766304	MBE	-0.1377031
-3.766304	MEBIA	-0.1377031
-3.766304	MEME	-0.1377031
-3.766304	MENGI	-0.1377031
-3.766304	MENGISARABO	-0.1377031
-3.766304	MEOKU	-0.1377031
-3.766304	MESAYA	-0.1377031
-3.766304	MGB	-0.1377031
-3.196555	MGBA	-0.2758251
-3.766304	MGBASINA	-0.1377031
-3.766304	MGBES	-0.1377031
-3.766304	MGBESE	-0.1377031
-3.766304	MGBESECH	-0.1377031
-3.324187	MGBESECHIN	-0.1856071
-3.766304	MGBESICHIN	-0.1377031
-3.766304	MGBO	-0.1377031
-3.610642	MGBOKU	-0.1377031
-3.610642	MGBOLU	-0.1755942
-3.766304	MGBOSE	-0.1377031
-3.766304	MGEEIN	-0.1377031
-3.610642	MGEESECHIN	-0.1377031
-3.908977	MIBIA
-2.430286	MIE	-0.447493
-3.766304	MIEBARA	-0.1377031
-3.766304	MIEBIA	-0.1377031
-3.196555	MIEME	-0.21711
-3.324187	MIEMIE	-0.2028259
-3.766304	MIEMIEBO	-0.1377031
-3.610642	MIESA	-0.2394578
-3.610642	MIESAM	-0.1377031
-2.646774	MIESE	-0.5787079
-3.766304	MIKA	-0.1377031
-3.766304	MIKASE	-0.1377031
-3.766304	MIKE	-0.1377031
-3.766304	MIME	-0.1377031
-3.324187	MIMGBA	-0.1856071
-2.714099	MIN	-0.4637003
-3.766304	MINA	-0.1377031
-3.610642	MINABO	-0.2394578
-3.766304	MINABU	-0.1377031
-3.196555	MINAPU	-0.3213619
-3.324187	MINE	-0.2098195
-3.196555	MINEA	-0.2028259
-3.766304	MINME	-0.1377031
-3.766304	MIO	-0.1377031
-3.766304	MIOKU	-0.1377031
-3.766304	MONGO	-0.1377031
-3.766304	MUA	-0.1377031
-3.766304	MUABE	-0.1377031
-3.766304	MUARI	-0.1377031
-3.324187	MUM	-0.169045
-2.891518	MUME	-0.425993
-2.469926	MUN	-0.3003736
-3.610642	MUNBIA	-0.2394577
-3.766304	MUNBO	-0.1377031
-2.95008	NAA	-0.3617512
-3.766304	NAASA	-0.1377031
-3.324187	NAASAM	-0.1755942
-3.766304	NABIA	-0.1377031
-3.766304	NABO	-0.1377031
-3.766304	NAM	-0.1377031
-3.098038	NAMA	-0.2264513
-3.610642	NAMABIA	-0.1377031
-3.766304	NAMABO	-0.1377031
-3.766304	NAMAMA	-0.1377031
-3.610642	NAMAME	-0.1377031
-3.766304	NAMBIREOKU	-0.1377031
-3.766304	NAMBIREOWU	-0.1377031
-3.766304	NAMBU	-0.1377031
-3.766304	NAMBURO	-0.1377031
-3.017788	NAME	-0.3400372
-3.766304	NAMIKASE	-0.1377031
-3.610642	NAMIRIA	-0.1377031
-3.766304	NAPU	-0.1377031
-3.324187	NDA	-0.3094457
-3.196555	NDE	-0.3075079
-3.766304	NEA	-0.1377031
-3.766304	NEDA	-0.1377031
-3.610642	NEM	-0.2394577
-3.766304	NEME	-0.1377031
-3.908977	NEMEKE
-3.766304	NEMGBA	-0.1377031
-3.766304	NEMGBOKU	-0.1377031
-3.196555	NEMI	-0.3484159
-3.766304	NEMIBASE	-0.1377031
-3.766304	NEMIBIA	-0.1377031
-3.324187	NEMIK	-0.3860385
-3.610642	NEMIKA	-0.1609949
-3.766304	NEMIKAS	-0.1377031
-2.646774	NEMIKASE	-0.4022984
-3.098038	NEMIKE	-0.2551165
-3.766304	NEMIKESA	-0.1377031
-3.610642	NEMIKESE	-0.2028259
-3.766304	NEMIM	-0.1377031
-3.766304	NEMIMA	-0.1377031
-3.766304	NEMIMASAM	-0.1377031
-3.017788	NEMIME	-0.4204485
-3.908977	NENGEME
-3.098038	NENGI	-0.4153628
-3.766304	NENGIB	-0.1377031
-3.610642	NENGIBIA	-0.1856071
-3.610642	NENGIBO	-0.1377031
-3.766304	NENGIM	-0.1377031
-3.610642	NENGIMA	-0.1377031
-3.098038	NENGIME	-0.3517885
-3.610642	NENI	-0.1644267
-3.766304	NENIKA	-0.1377031
-3.766304	NENIKASE	-0.1377031
-3.766304	NENIME	-0.1377031
-3.766304	NEZIRET	-0.1377031
-3.610642	NGI	-0.2394578
-3.766304	NGIBIA	-0.1377031
-3.766304	NGIBO	-0.1377031
-3.766304	NGIME	-0.1377031
-3.766304	NGISI	-0.1377031
-3.766304	NGO	-0.1377031
-3.766304	NIA	-0.1377031
-3.766304	NIATIBI	-0.1377031
-3.766304	NIBIA	-0.1377031
-3.766304	NIBO	-0.1377031
-3.766304	NIKASE	-0.1377031
-3.766304	NIME	-0.1377031
-3.766304	NIRI	-0.1377031
-3.766304	NISIKI	-0.1377031
-3.766304	NOO	-0.1377031
-3.196555	NWE	-0.2274216
-3.766304	NWEN	-0.1377031
-3.766304	NWENG	-0.1377031
-2.95008	NWENGI	-0.2970324
-3.766304	NWENGIARI	-0.1377031
-3.766304	NWENGIBIA	-0.1377031
-3.766304	NWENGIBO	-0.1377031
-3.766304	NWENGIMA	-0.1377031
-3.766304	NWENGIMAMUN	-0.1377031
-3.766304	NWENGIMAMUNO	-0.1377031
-3.017788	NWENI	-0.1802497
-3.324187	NWENIBO	-0.2028259
-3.766304	NWESE	-0.1377031
-1.921833	NWO	-0.4394723
-2.95008	NWOBE	-0.5254818
-3.610642	NWOS	-0.2394577
-3.610642	NWOSA	-0.1377031
-2.376882	NWOSE	-0.5320754
-3.766304	NWOSEMO	-0.1377031
-3.766304	NWOSO	-0.1377031
-3.098038	NYA	-0.2423909
-3.196555	NYAN	-0.5109773
-2.562052	NYANA	-0.4658973
-3.196555	NYANAB	-0.5109773
-3.610642	NYANABI	-0.1377031
-2.839922	NYANABIA	-0.425993
-2.752129	NYANABO	-0.4691208
-3.766304	NYANABOABE	-0.1377031
-3.324187	NYANAME	-0.2963433
-3.766304	NYANGBO	-0.1377031
-3.766304	NYANGI	-0.1377031
-3.610642	NYE	-0.1377031
-3.324187	NYENGI	-0.3860385
-3.766304	NYENGIBO	-0.1377031
-2.491191	NYO	-0.363755
-3.766304	NYONA	-0.1377031
-3.766304	NYONABIA	-0.1377031
-3.766304	NYONABO	-0.1377031
-3.766304	NYONG	-0.1377031
-3.766304	NYONGI	-0.1377031
-3.766304	NYONGIRI	-0.1377031
-3.766304	NYONGIRO	-0.1377031
-3.196555	NYONGORO	-0.4063557
-3.766304	OAPU	-0.1377031
-3.196555	OBI	-0.3094457
-3.610642	OBIA	-0.1377031
-3.610642	OBIAPU	-0.1377031
-3.766304	OBIDUKOAPU	-0.1377031
-3.766304	OBIE	-0.1377031
-3.766304	OBODUK	-0.1377031
-3.324187	OBODUKOAPU	-0.3860385
-3.610642	OBOKO	-0.2394578
-3.766304	OBOKU	-0.1377031
-3.098038	OBU	-0.1958562
-3.610642	OBUD	-0.2394577
-3.324187	OBUDUK	-0.3860385
-3.610642	OBUDUKO	-0.2394577
-3.610642	OBUDUKOA	-0.2394577
-3.766304	OBUDUKOABU	-0.1377031
-3.610642	OBUDUKOAP	-0.2394577
-2.714099	OBUDUKOAPU	-0.5755373
-3.098038	OBUDUKOBO	-0.6078873
-3.766304	OBUJU	-0.1377031
-3.766304	OBUJUKOBO	-0.1377031
-3.908977	OFIRI
-3.908977	OFIRIME
-3.610642	OFO	-0.2394577
-3.766304	OFOR	-0.1377031
-3.766304	OFORI	-0.1377031
-3.766304	OFORIKA	-0.1377031
-3.610642	OGB	-0.2394577
-3.766304	OGBA	-0.1377031
-3.766304	OGBAMA	-0.1377031
-3.766304	OGBIKI	-0.1377031
-2.839922	OGBO	-0.4476334
-2.95008	OGBOKU	-0.3124517
-3.766304	OGO	-0.1377031
-3.610642	OGON	-0.2394577
-2.588498	OGONO	-0.3706599
-3.766304	OGUNO	-0.1377031
-3.610642	OJU	-0.1755942
-3.766304	OKE	-0.1377031
-2.211686	OKI	-0.6558684
-3.766304	OKIA	-0.1377031
-3.766304	OKIANKOROAPU	-0.1377031
-3.766304	OKIBI	-0.1377031
-2.793811	OKIBIA	-0.3343822
-2.646774	OKIBO	-0.4615048
-3.766304	OKIM	-0.1377031
-3.017788	OKIMA	-0.3120497
-2.646774	OKIME	-0.5480831
-3.324187	OKIMU	-0.1377031
-3.098038	OKIMUM	-0.2443573
-2.128567	OKIMUN	-0.8098978
-2.616659	OKO	-0.5022656
-3.610642	OKOKO	-0.1856071
-3.766304	OKOKU	-0.1377031
-3.324187	OKOMA	-0.169045
-3.908977	OKOME
-3.766304	OKPEIN	-0.1377031
-3.766304	OKPEKEMABO	-0.1377031
-3.766304	OKPEKEME	-0.1377031
-3.766304	OKPOKPIAPU	-0.1377031
-3.766304	OKPOKUMA	-0.1377031
-1.97821	OKU	-0.8697725
-3.766304	OKUBO	-0.1377031
-2.646774	OKUM	-0.6334359
-1.650987	OKUMA	-1.056064
-3.766304	OKUME	-0.1377031
-3.766304	OKUMU	-0.1377031
-3.766304	OKUMUN	-0.1377031
-3.766304	OKUNWENGIAPU	-0.1377031
-3.766304	OKUNWENGIBO	-0.1377031
-3.610642	OKW	-0.2394577
-3.766304	OKWE	-0.1377031
-3.766304	OKWEI	-0.1377031
-2.430286	OKWEIN	-0.6413125
-3.766304	OKWEINM	-0.1377031
-2.95008	OKWEINMA	-0.2972634
-3.908977	OKWEINMAME
-3.766304	OKWEINME	-0.1377031
-3.610642	OKWENN	-0.2394578
-3.766304	OKWOIN	-0.1377031
-3.766304	OKWOKO	-0.1377031
-3.610642	OKWOKU	-0.2394578
-3.610642	OLIKO	-0.1377031
-3.196555	OLOKO	-0.2758251
-3.766304	OLOKOME	-0.1377031
-3.766304	OLUKU	-0.1377031
-3.610642	OMA	-0.1377031
-3.766304	OMANYANABI	-0.1377031
-3.766304	OMANYANABO	-0.1377031
-3.766304	OMANYANAKIRI	-0.1377031
-3.766304	OMANYO	-0.1377031
-3.766304	OMBI	-0.1377031
-3.766304	OME	-0.1377031
-3.766304	OMEOKU	-0.1377031
-2.839922	OMI	-0.7218306
-3.017788	OMIN	-0.6870685
-3.324187	OMINA	-0.2028259
-2.273082	OMINE	-0.6789828
-2.449654	OMINEA	-0.4736723
-3.766304	OMINEANABARI	-0.1377031
-3.766304	OMINEANABI	-0.1377031
-3.766304	OMINEANYA	-0.1377031
-3.766304	OMINI	-0.1377031
-3.610642	OMO	-0.1377031
-3.766304	OMON	-0.1377031
-3.766304	OMONGI	-0.1377031
-3.610642	OMONGO	-0.2028259
-3.324187	OMONI	-0.2028259
-2.839922	OMONIBO	-0.5766345
-3.610642	OMUN	-0.1377031
-3.766304	ONGIROMA	-0.1377031
-3.766304	ONI	-0.1377031
-3.766304	ONIBIA	-0.1377031
-3.766304	ONIKIRI	-0.1377031
-3.766304	ONO	-0.1377031
-3.766304	OPOMA	-0.1377031
-3.766304	OPU	-0.1377031
-3.766304	OPUM	-0.1377031
-2.200384	ORI	-0.5734961
-2.34461	ORIA	-0.3909296
-3.766304	ORIABE	-0.1377031
-3.766304	ORIANOWUAPU	-0.1377031
-3.766304	ORIASE	-0.1377031
-3.766304	ORIASIKI	-0.1377031
-3.098038	ORIBIA	-0.3517885
-3.766304	ORIBO	-0.1377031
-3.766304	ORIBOA	-0.1377031
-3.766304	ORIM	-0.1377031
-3.324187	ORIMA	-0.3094457
-3.324187	ORIME	-0.2098195
-3.196555	ORO	-0.5109773
-3.766304	OROABE	-0.1377031
-3.766304	OROAPU	-0.1377031
-3.766304	OROBO	-0.1377031
-3.610642	OROMA	-0.1377031
-3.610642	OROME	-0.2394578
-3.766304	OROMMA	-0.1377031
-3.017788	ORU	-0.5524838
-2.95008	ORUA	-0.1837018
-3.766304	ORUMA	-0.1377031
-3.766304	ORUMARI	-0.1377031
-3.766304	OSE	-0.1377031
-3.766304	OWO	-0.1377031
-3.766304	OWU	-0.1377031
-3.766304	OWUA	-0.1377031
-3.766304	OWUAMA	-0.1377031
-2.891518	OWUAPU	-0.3961305
-3.766304	OWUAPUAMA	-0.1377031
-3.766304	OWUAPUAW	-0.1377031
-3.610642	OWUAPUAWO	-0.2394578
-3.766304	OWUAPUAWOMA	-0.1377031
-3.610642	OWUAPUMINAPU	-0.2394578
-2.95008	OWUBO	-0.256461
-3.766304	OWUNI	-0.1377031
-3.766304	OWUNIAPU	-0.1377031
-3.766304	OWUNITIBINIBO	-0.1377031
-3.766304	OYE	-0.1377031
-3.766304	OYEGOYE	-0.1377031
-3.766304	PAK	-0.1377031
-3.324187	PAKA	-0.169045
-3.766304	PAKABI	-0.1377031
-3.196555	PAKABIA	-0.4063557
-3.196555	PAKABO	-0.2274216
-3.766304	PAKABOME	-0.1377031
-3.908977	PAKAMAME
-3.766304	PAKASO	-0.1377031
-3.766304	PAKI	-0.1377031
-3.766304	PAKIMA	-0.1377031
-3.908977	PAKIME
-3.908977	PAKUBABIA
-3.766304	PAKUBAME	-0.1377031
-3.610642	PAKUMA	-0.2028259
-3.766304	PAKUMAB	-0.1377031
-3.610642	PAKUMABIA	-0.2394578
-3.610642	PAKUMABO	-0.2394578
-3.766304	PAKUMAME	-0.1377031
-3.766304	PAR	-0.1377031
-3.766304	PARA	-0.1377031
-3.766304	PARABIA	-0.1377031
-3.766304	PARAME	-0.1377031
-3.610642	PARI	-0.1609949
-3.766304	PARIBI	-0.1377031
-3.766304	PARIBIA	-0.1377031
-3.766304	PARIMA	-0.1377031
-3.766304	PARIMABE	-0.1377031
-3.766304	PARIME	-0.1377031
-3.610642	PEK	-0.2394577
-3.610642	PEKE	-0.1856071
-3.766304	PEKELEME	-0.1377031
-3.766304	PEKER	-0.1377031
-3.196555	PEKERE	-0.2117466
-3.766304	PEKEREBIA	-0.1377031
-3.766304	PEKEREM	-0.1377031
-3.766304	PEKEREMA	-0.1377031
-3.196555	PEKEREME	-0.3423896
-3.766304	PEKERIME	-0.1377031
-3.766304	PEKI	-0.1377031
-3.766304	PEKIMA	-0.1377031
-3.766304	PEKIRE	-0.1377031
-3.766304	PEKIREME	-0.1377031
-3.766304	PEM	-0.1377031
-3.610642	PEME	-0.2394578
-3.766304	PEMER	-0.1377031
-3.610642	PEMEREME	-0.2394578
-3.766304	PEREKE	-0.1377031
-3.766304	PEREKEME	-0.1377031
-3.766304	PEREKI	-0.1377031
-3.766304	PERER	-0.1377031
-3.766304	PERERE	-0.1377031
-3.324187	PEREREME	-0.2028259
-3.766304	PERERI	-0.1377031
-3.766304	PERI	-0.1377031
-3.766304	PERIME	-0.1377031
-3.324187	PIK	-0.3860385
-3.766304	PIKE	-0.1377031
-2.646774	PIKI	-0.2357267
-3.766304	PIKIBA	-0.1377031
-3.324187	PIKIBIA	-0.2300677
-3.610642	PIKIMA	-0.1377031
-3.196555	PIKIME	-0.2848417
-3.766304	PIKINA	-0.1377031
-3.908977	PIKINAME
-3.766304	PIKINI	-0.1377031
-3.196555	PIR	-0.5109773
-3.766304	PIREBIA	-0.1377031
-3.908977	PIREME
-2.679133	PIRI	-0.288476
-3.766304	PIRIA	-0.1377031
-3.766304	PIRIAB	-0.1377031
-3.324187	PIRIABE	-0.2198956
-3.766304	PIRIABI	-0.1377031
-3.766304	PIRIABIA	-0.1377031
-3.766304	PIRIARE	-0.1377031
-3.324187	PIRIARI	-0.2692347
-3.766304	PIRIARIABE	-0.1377031
-3.196555	PIRIB	-0.5109773
-3.610642	PIRIBA	-0.2394578
-3.766304	PIRIBAA	-0.1377031
-3.766304	PIRIBAM	-0.1377031
-3.610642	PIRIBE	-0.2028259
-3.610642	PIRIBEA	-0.2028259
-3.610642	PIRIBI	-0.2028259
-2.891518	PIRIBIA	-0.3070938
-3.766304	PIRIBIE	-0.1377031
-3.766304	PIRIBOA	-0.1377031
-3.610642	PIRIM	-0.2394577
-3.610642	PIRIMA	-0.1929032
-3.017788	PIRIME	-0.2935598
-3.766304	PIRISAM	-0.1377031
-3.766304	POKI	-0.1377031
-3.766304	POKIME	-0.1377031
-3.766304	PORIABE	-0.1377031
-3.766304	PORIBIA	-0.1377031
-3.766304	PUKO	-0.1377031
-3.908977	PUKOBIA
-3.610642	PUKU	-0.2394578
-3.766304	PUNUMA	-0.1377031
-3.766304	PURA	-0.1377031
-3.766304	PURU	-0.1377031
-3.766304	PURUMA	-0.1377031
-3.766304	PURUMABIA	-0.1377031
-3.908977	PURUMABOME
-3.766304	RAKA	-0.1377031
-3.766304	RAKAPU	-0.1377031
-3.766304	RAKUBU	-0.1377031
-3.766304	RAKUMA	-0.1377031
-3.766304	RAMA	-0.1377031
-3.766304	RAME	-0.1377031
-3.766304	RASIN	-0.1377031
-3.766304	REKIN	-0.1377031
-3.766304	REKON	-0.1377031
-3.766304	REME	-0.1377031
-3.766304	REMENIBO	-0.1377031
-3.766304	RENI	-0.1377031
-3.766304	RENIBIA	-0.1377031
-3.766304	RENIME	-0.1377031
-3.908977	RETON
-3.766304	RIA	-0.1377031
-3.766304	RIABE	-0.1377031
-3.766304	RIBIA	-0.1377031
-3.766304	RIMA	-0.1377031
-3.766304	RIMABIA	-0.1377031
-3.766304	RIME	-0.1377031
-3.766304	RINA	-0.1377031
-3.766304	RISIN	-0.1377031
-3.766304	ROBO	-0.1377031
-3.766304	ROMABIA	-0.1377031
-3.766304	RUMGBOLU	-0.1377031
-3.766304	SAK	-0.1377031
-3.610642	SAKA	-0.1377031
-3.324187	SAKI	-0.1985083
-3.766304	SAKIMA	-0.1377031
-3.766304	SAKIME	-0.1377031
-3.766304	SAM	-0.1377031
-3.766304	SAMA	-0.1377031
-3.196555	SARA	-0.2605166
-3.908977	SARABE
-3.766304	SARABIA	-0.1377031
-3.766304	SARAMA	-0.1377031
-3.610642	SARAME	-0.2394578
-3.766304	SARASIN	-0.1377031
-3.766304	SARI	-0.1377031
-3.908977	SARIME
-3.766304	SEK	-0.1377031
-3.766304	SEKE	-0.1377031
-3.610642	SEKERE	-0.2394578
-3.098038	SEKI	-0.485537
-3.766304	SEKIRI	-0.1377031
-3.766304	SELE	-0.1377031
-3.766304	SELEBA	-0.1377031
-3.766304	SELEBIA	-0.1377031
-3.610642	SELEMA	-0.169045
-3.766304	SELEMABIA	-0.1377031
-3.766304	SELEMABO	-0.1377031
-3.766304	SELEME	-0.1377031
-3.766304	SELI	-0.1377031
-3.766304	SELIMA	-0.1377031
-3.610642	SEME	-0.2028259
-3.766304	SEMINE	-0.1377031
-3.610642	SEN	-0.2394577
-3.610642	SENE	-0.2394578
-2.314571	SENI	-0.5750135
-3.766304	SENIAPU	-0.1377031
-3.766304	SENIBI	-0.1377031
-3.766304	SENIBIA	-0.1377031
-3.766304	SENIBO	-0.1377031
-3.017788	SIK	-0.6870685
-3.324187	SIKE	-0.2443573
-3.766304	SIKEM	-0.1377031
-3.610642	SIKEMA	-0.2394578
-3.766304	SIKEMABIA	-0.1377031
-3.766304	SIKEME	-0.1377031
-1.73401	SIKI	-0.8183607
-3.610642	SIKIM	-0.2394577
-2.491191	SIKIMA	-0.507166
-3.766304	SIKIMABIA	-0.1377031
-3.766304	SIKIMABO	-0.1377031
-3.610642	SIKIMAME	-0.2028259
-3.098038	SIKIME	-0.3185086
-2.95008	SIM	-0.7540153
-3.610642	SIMA	-0.2394578
-3.324187	SIMABIA	-0.3860385
-2.020321	SIME	-0.5163474
-3.196555	SIMEBA	-0.1929032
-3.610642	SIMEBARA	-0.2394578
-3.766304	SIMEBARI	-0.1377031
-3.766304	SIMEBI	-0.1377031
-2.588498	SIMEBIA	-0.5947884
-3.766304	SIMEBO	-0.1377031
-3.766304	SIMEBOKI	-0.1377031
-2.714099	SIMEME	-0.4503444
-3.766304	SIMEO	-0.1377031
-2.95008	SIMEOGBO	-0.4154186
-3.908977	SIMEOGONO
-3.766304	SIMEOGOO	-0.1377031
-3.766304	SIMEOK	-0.1377031
-3.610642	SIMEOKI	-0.1377031
-2.714099	SIMEOKU	-0.4299552
-3.196555	SIMI	-0.3113041
-3.766304	SIMIBIA	-0.1377031
-3.766304	SIMIE	-0.1377031
-3.766304	SIMIEARI	-0.1377031
-3.766304	SIMIOGBO	-0.1377031
-3.766304	SIMIOKU	-0.1377031
-3.766304	SIN	-0.1377031
-3.766304	SIS	-0.1377031
-3.610642	SISE	-0.1644267
-3.908977	SISEBIA
-3.766304	SISEMA	-0.1377031
-3.766304	SISEMABIA	-0.1377031
-3.766304	SISEME	-0.1377031
-3.766304	SOB	-0.1377031
-3.610642	SOBI	-0.2394577
-2.679133	SOBIA	-0.5617747
-2.714099	SOBIE	-0.3045627
-3.324187	SOBO	-0.3860385
-3.766304	SOBOR	-0.1377031
-3.766304	SOBORI	-0.1377031
-3.766304	SOBORIA	-0.1377031
-3.766304	SOBORO	-0.1377031
-3.610642	SOM	-0.2394577
-3.766304	SOMA	-0.1377031
-2.793811	SOME	-0.4179919
-3.766304	SOMU	-0.1377031
-3.766304	SOMUM	-0.1377031
-3.766304	SOMUME	-0.1377031
-3.196555	SOMUN	-0.2942798
-3.766304	SON	-0.1377031
-2.537125	SONI	-0.3900807
-3.908977	SONIME
-3.196555	SONO	-0.1755942
-3.766304	SONOME	-0.1377031
-3.766304	TAMABO	-0.1377031
-3.766304	TAMARO	-0.1377031
-3.766304	TAMUNO	-0.1377031
-3.766304	TAR	-0.1377031
-3.766304	TARA	-0.1377031
-3.610642	TARAKA	-0.2028259
-3.766304	TARAKABO	-0.1377031
-3.766304	TARAKABU	-0.1377031
-3.766304	TARAKAPU	-0.1377031
-3.766304	TARI	-0.1377031
-3.766304	TARIKAPU	-0.1377031
-3.766304	TATARI	-0.1377031
-3.766304	TEKE	-0.1377031
-3.908977	TEKEME
-3.766304	TER	-0.1377031
-3.766304	TERE	-0.1377031
-3.610642	TIBI	-0.1377031
-3.766304	TIBINI	-0.1377031
-3.766304	TIBINIBA	-0.1377031
-3.766304	TIBINIBO	-0.1377031
-3.766304	TIO	-0.1377031
-3.766304	TOKU	-0.1377031
-3.766304	TOM	-0.1377031
-3.610642	TOMBO	-0.2028259
-3.324187	TOMONI	-0.2171101
-3.766304	TOMONIB	-0.1377031
-3.766304	TOMONIBI	-0.1377031
-3.766304	TOMONIBIRI	-0.1377031
-3.766304	TOMONIBO	-0.1377031
-3.766304	TOMONIK	-0.1377031
-3.766304	TOMONIKI	-0.1377031
-3.324187	TOMONIKIRI	-0.3094457
-3.610642	TOMONIKPO	-0.1377031
-3.766304	TOMUNIKPO	-0.1377031
-3.766304	TON	-0.1377031
-3.766304	TOR	-0.1377031
-3.766304	TOROK	-0.1377031
-3.766304	TOROKI	-0.1377031
-3.324187	TOROKO	-0.1837018
-3.766304	TOROKOBO	-0.1377031
-3.196555	TORU	-0.2274216
-3.766304	TORUKUBU	-0.1377031
-3.610642	TORUMG	-0.2394577
-3.196555	TORUMGBOLU	-0.3517885
-3.610642	TORUMGBOLUPUN	-0.1377031
-3.766304	TORUSI	-0.1377031
-3.766304	TORUSIORI	-0.1377031
-3.766304	TUBURU	-0.1377031
-3.766304	UBABOABO	-0.1377031
-3.766304	UBAME	-0.1377031
-3.766304	UBIE	-0.1377031
-3.766304	UBO	-0.1377031
-3.766304	UBU	-0.1377031
-3.766304	UCHUAYE	-0.1377031
-3.766304	UDUKOAPU	-0.1377031
-3.766304	UKO	-0.1377031
-3.610642	UKOAPU	-0.1856071
-3.766304	UKOBO	-0.1377031
-3.766304	UKOME	-0.1377031
-3.766304	ULABAMA	-0.1377031
-3.766304	ULUMA	-0.1377031
-3.766304	UMA	-0.1377031
-3.908977	UME
-3.766304	UMGBOLU	-0.1377031
-3.766304	UMOME	-0.1377031
-3.766304	UOKORO	-0.1377031
-3.766304	UOKOROMA	-0.1377031
-3.766304	URUMA	-0.1377031
-3.766304	WEIN	-0.1377031
-3.766304	WENGI	-0.1377031
-3.766304	WOKUMA	-0.1377031
-3.766304	WOSE	-0.1377031
-3.766304	YANA	-0.1377031
-3.908977	YANABIA
-3.766304	YANABO	-0.1377031
-3.766304	YEGOYE	-0.1377031
-3.766304	YONGORO	-0.1377031
-3.766304	YOSE	-0.1377031
-3.766304	ZOS	-0.1377031

\2-grams:
-0.2165326	<s> <unk>	-0.9922928
-4.159162	<s> ABALA
-2.802989	<s> ABE	-0.3970804
-2.862247	<s> ABIA	-0.3459278
-2.496687	<s> ABO	-0.6587178
-4.020377	<s> AKA
-4.159162	<s> AKABIA
-4.159162	<s> AKAPU
-4.159162	<s> AKIME
-4.159162	<s> AKUBABIA
-4.159162	<s> AKUBU
-4.159162	<s> AKUMA
-4.159162	<s> AKUMABIA
-3.961074	<s> AMA
-4.159162	<s> AMABO
-4.159162	<s> AMAMUN
-3.239146	<s> AME	-0.1818451
-3.73295	<s> AMGBA
-2.911326	<s> ANA	-0.4542193
-3.73295	<s> ANABO	-0.2906892
-4.159162	<s> ANAME
-3.65549	<s> ANGA
-2.377018	<s> ANI	-0.3181925
-4.159162	<s> ANIANABI
-2.854071	<s> ANISIKI	-0.2260588
-4.159162	<s> ANKOROAPU
-4.159162	<s> ANYANABO
-4.159162	<s> ANYO
-2.520842	<s> APU	-1.019063
-4.159162	<s> APUAWO
-2.319429	<s> ARA	-0.609269
-4.159162	<s> ARAKANA
-3.73295	<s> ARASIN	-0.2906892
-2.539333	<s> ARI	-0.3045386
-4.159162	<s> ARIME
-3.012453	<s> ASE	-0.3724474
-3.73295	<s> ASIN
-3.73295	<s> ATIBI
-3.961074	<s> AYE
-4.159162	<s> BAFI
-4.12101	<s> BAKABA
-4.12101	<s> BAKABIA
-3.675619	<s> BAKAMA
-4.12101	<s> BAKI
-4.020377	<s> BAKUBAME
-3.387741	<s> BAKUMA	-0.1456068
-4.020377	<s> BAME
-1.830325	<s> BARA	-0.8009893
-4.020377	<s> BARABIA
-4.12101	<s> BARAKA
-4.12101	<s> BARAKABA
-3.109392	<s> BARAKUBU	-0.08915455
-3.675619	<s> BARAMA	-0.2906892
-3.260341	<s> BARASIN	-0.3200926
-2.406692	<s> BARI	-0.3241127
-4.020377	<s> BARIMA
-4.159162	<s> BARISINBIA
-4.159162	<s> BASO
-3.455124	<s> BEBE	-0.2906892
-4.12101	<s> BEIN
-4.12101	<s> BELE
-3.647802	<s> BELEMA	-0.2906892
-3.718256	<s> BELEMABIA	-0.2906892
-2.003089	<s> BEME	-0.7936032
-3.961074	<s> BEMI
-3.510364	<s> BERE	-0.2906892
-4.159162	<s> BEREKIRI
-2.824754	<s> BEREKON	-0.3276221
-2.400549	<s> BERENI	-0.7296557
-3.098503	<s> BERENIBIA	-0.1966293
-3.204657	<s> BERENIME	-0.4450313
-3.083551	<s> BERI	-0.06542411
-4.12101	<s> BERINI
-2.033871	<s> BIA	-0.5343742
-2.256626	<s> BIE	-0.3987297
-3.908906	<s> BIEBELEMA
-4.159162	<s> BIEBELEMAME
-3.961074	<s> BIEJUADAPU
-4.12101	<s> BIEKOROMABIA
-4.12101	<s> BIKE
-3.781941	<s> BIKI
-4.159162	<s> BIMABE
-2.816729	<s> BIME	-0.3297426
-3.718256	<s> BIPI
-4.020377	<s> BIRE
-4.159162	<s> BIRENIKI
-2.906411	<s> BIRI	-0.4542193
-4.12101	<s> BIRIBIA
-3.603834	<s> BOBIA
-3.961074	<s> BOBO
-3.73295	<s> BOLU	-0.2906892
-3.096695	<s> BOME	-0.3200926
-4.020377	<s> BORI
-4.159162	<s> BORIBO
-2.962478	<s> BORO	-0.1472258
-3.345452	<s> BOROMA
-4.12101	<s> BUBELEBIA
-4.12101	<s> BUBIE
-3.573669	<s> BUCHUAYE	-0.2906892
-3.243967	<s> BUDUKOAPU	-0.4450313
-4.159162	<s> BUKUBAMAMA
-3.908906	<s> BUO
-4.12101	<s> BUOKOROMABIA
-3.73295	<s> CHI	-0.2906892
-3.961074	<s> CHIN
-3.961074	<s> CHUAME
-3.621659	<s> DABO	-0.2906892
-4.12101	<s> DAMA
-3.109392	<s> DAMABO	-0.2975539
-4.020377	<s> DAMABOME
-4.12101	<s> DAMBE
-4.12101	<s> DAPU
-4.020377	<s> DEKI
-3.908906	<s> DIKI
-4.12101	<s> DOKIMA
-2.51015	<s> DUKO	-0.5251364
-3.432451	<s> DUKOAPU	-0.3200926
-3.961074	<s> DUKOMA
-3.961074	<s> DUKOME
-3.781941	<s> DUMO
-4.159162	<s> EBELE
-3.73295	<s> EBIA
-4.159162	<s> ECHI
-4.159162	<s> ECHINMGBOLU
-2.802989	<s> EDA	-0.2858256
-4.159162	<s> EDE
-3.73295	<s> EGOYE
-3.432451	<s> EIN	-0.3200926
-4.159162	<s> EINMA
-3.65549	<s> EKE
-3.112962	<s> EKEREME	-0.5419413
-4.159162	<s> EKIN
-4.159162	<s> EKON
-4.159162	<s> ELE
-3.432451	<s> ELEMA	-0.3200926
-4.159162	<s> ELEMABIA
-3.73295	<s> EMA	-0.2906892
-3.432451	<s> EMABIA
-2.108035	<s> EME	-0.6445211
-3.432451	<s> EMIKASE	-0.148007
-3.432451	<s> EMIKE	-0.3200926
-3.628894	<s> ENE
-3.73295	<s> ENGI	-0.2906892
-4.159162	<s> ENGIAPU
-4.159162	<s> ENGIMA
-2.497556	<s> ENI	-1.07342
-3.73295	<s> ENIBIA
-4.159162	<s> ENIME
-3.73295	<s> EOKU	-0.2906892
-3.597001	<s> ERE	-0.2906892
-4.159162	<s> EREKINBO
-3.432451	<s> EREKON	-0.148007
-3.718256	<s> EREME	-0.2906892
-4.12101	<s> EREMENI
-2.704312	<s> ERENI	-0.6356889
-3.73295	<s> ERENIBIA
-4.159162	<s> ERENIME
-3.73295	<s> ERI	-0.2906892
-4.159162	<s> ERINI
-4.159162	<s> ESE
-4.159162	<s> ESECHIN
-4.159162	<s> FEREMABO
-4.020377	<s> FINI
-2.784626	<s> FIRIMA	-0.5412765
-3.425032	<s> FIRIMABIA
-4.12101	<s> FIRINAME
-4.12101	<s> FIRINWENGIBI
-4.020377	<s> FIYE
-4.12101	<s> FORIMA
-3.73295	<s> GBA
-4.159162	<s> GBESECHIN
-3.675619	<s> GBIN
-3.73295	<s> GBOLU
-3.214479	<s> GBORIBO	-0.1015395
-4.159162	<s> GIARI
-3.73295	<s> GONO
-3.239146	<s> GOYE	-0.1140734
-2.599487	<s> GOYEGOYE	-0.3435081
-4.159162	<s> HIEMABIA
-2.802989	<s> IABE	-0.5485387
-3.73295	<s> IANKOROBO	-0.2906892
-4.159162	<s> IAPU
-4.159162	<s> IARI
-3.73295	<s> IATIBI	-0.2906892
-3.718256	<s> IBAFI	-0.2906892
-4.12101	<s> IBAFIBIA
-3.306918	<s> IBI	-0.1449879
-2.284488	<s> IBIA	-0.5354148
-3.239146	<s> IBO	-0.09994209
-3.862337	<s> IBU
-4.159162	<s> IEMGBOLU
-3.73295	<s> IESE	-0.2906892
-4.159162	<s> IFIBIA
-2.750854	<s> IKASE	-0.4438746
-3.112962	<s> IKE	-0.5419413
-2.352742	<s> IKI	-0.4428023
-3.68382	<s> IKIANKOROAPU
-3.820282	<s> IKIANKOROBO
-3.73295	<s> IKIMA
-4.159162	<s> IKIME
-3.961074	<s> IKOLI
-3.647802	<s> IKU	-0.2906892
-3.012453	<s> IMA	-0.3724474
-4.159162	<s> IMABIA
-2.704312	<s> IME	-0.2818944
-4.159162	<s> IMEBIA
-4.159162	<s> IMUN
-4.159162	<s> INA
-2.451902	<s> INE	-0.4673879
-3.239146	<s> INEA	-0.2906892
-2.597997	<s> INEDA	-0.5237594
-1.710263	<s> INI	-0.4898336
-2.67326	<s> INIA	-0.4382695
-2.496897	<s> INIBO	-0.1498298
-4.12101	<s> INJI
-4.159162	<s> INWENGIBO
-3.73295	<s> IPI
-2.266859	<s> IRI	-0.421249
-3.621659	<s> IRIA
-3.243967	<s> IRIABE	-0.1963562
-2.704312	<s> IRIBIA	-0.4842305
-4.159162	<s> IRIMA
-4.159162	<s> IRIMABIA
-3.112962	<s> IRIME	-0.5419413
-4.159162	<s> IRINWENGI
-3.908906	<s> IRU
-3.73295	<s> ISE	-0.2906892
-3.73295	<s> ISIKI	-0.2906892
-2.818246	<s> IYA	-0.1249007
-3.862337	<s> IYE
-2.750854	<s> IZOS	-0.8429714
-4.159162	<s> JELAPU
-3.862337	<s> JIN
-2.677911	<s> JIZOS	-0.8843641
-3.862337	<s> JON
-4.159162	<s> JUADAPU
-4.159162	<s> KABA
-4.159162	<s> KABABIA
-3.012453	<s> KASE	-0.2209891
-3.432451	<s> KEREME
-4.159162	<s> KIANKOROAPU
-3.73295	<s> KIBIA
-4.159162	<s> KIBO
-3.73295	<s> KIMA	-0.2906892
-3.73295	<s> KIME
-4.159162	<s> KIMUN
-3.746713	<s> KOKO
-3.781941	<s> KOKOMA
-3.746713	<s> KOKOMAYE
-3.862337	<s> KON
-4.12101	<s> KOROBO
-3.22842	<s> KOROMA	-0.112381
-3.603834	<s> KOROMABIA
-3.746713	<s> KOROME
-4.159162	<s> KPO
-4.159162	<s> KUBU
-4.020377	<s> KULUMA
-2.445917	<s> KUMA	-0.4607143
-4.159162	<s> KUME
-4.020377	<s> KUN
-4.159162	<s> LAME
-4.159162	<s> LEMA
-4.159162	<s> LEMABIA
-4.159162	<s> LEMABO
-4.159162	<s> MABIA
-3.438169	<s> MAMA
-4.159162	<s> MAMABARA
-3.044102	<s> MAMGBA	-0.05950224
-4.159162	<s> MAMUN
-4.159162	<s> MASO
-4.159162	<s> MBE
-3.432451	<s> MEBIA	-0.148007
-4.159162	<s> MEME
-4.159162	<s> MEOKU
-4.020377	<s> MGBESECHIN
-4.12101	<s> MGBOLU
-4.12101	<s> MGEESECHIN
-3.057736	<s> MIE	-0.4450313
-3.603834	<s> MIESE
-3.73295	<s> MIKA
-2.750854	<s> MIKASE	-0.5942962
-3.243967	<s> MIKE	-0.1963562
-3.73295	<s> MIME	-0.2906892
-3.65549	<s> MIN
-4.12101	<s> MINABO
-2.657102	<s> MINE	-0.3122251
-3.090963	<s> MINEA	-0.1504091
-4.159162	<s> MONGO
-3.781941	<s> MUME
-2.782346	<s> MUN	-0.2191446
-3.573669	<s> NAA
-4.159162	<s> NABIA
-3.112962	<s> NABO	-0.5419413
-3.908906	<s> NAMA
-3.597001	<s> NAME
-3.243967	<s> NAPU	-0.4450313
-3.243967	<s> NEA	-0.1129614
-2.704312	<s> NEDA	-0.2818248
-2.270235	<s> NEMIKASE	-0.8163176
-2.737833	<s> NEMIKE	-0.3941998
-3.718256	<s> NEMIKESE	-0.2906892
-3.195051	<s> NEMIME	-0.4450313
-3.908906	<s> NENGIME
-4.159162	<s> NEZIRET
-4.12101	<s> NGI
-4.159162	<s> NGIBIA
-4.159162	<s> NGIBO
-4.159162	<s> NGIME
-4.159162	<s> NGO
-2.930888	<s> NIA	-0.1173032
-3.432451	<s> NIATIBI	-0.1599309
-3.73295	<s> NIBIA	-0.2906892
-2.930888	<s> NIBO	-0.1766811
-4.159162	<s> NIKASE
-3.112962	<s> NISIKI	-0.3080913
-3.573669	<s> NWENGI
-4.159162	<s> NWENGIBO
-3.862337	<s> NWENI
-1.990536	<s> NWO	-0.3869361
-2.089116	<s> NWOSE	-0.9786331
-2.522858	<s> NYANA	-0.7342536
-3.530457	<s> NYANABIA	-0.2906892
-2.675032	<s> NYANABO	-0.5881171
-3.079025	<s> NYO	-0.4450313
-2.930888	<s> OAPU	-0.6880694
-3.718256	<s> OBIA
-4.159162	<s> OBIE
-4.020377	<s> OBODUKOAPU
-3.034933	<s> OBUDUKOAPU	-0.5419413
-3.109136	<s> OGONO	-0.1085751
-4.159162	<s> OKE
-2.680116	<s> OKI	-0.2041068
-3.714129	<s> OKIBIA
-3.603834	<s> OKIBO
-3.603834	<s> OKIME
-3.908906	<s> OKIMUM
-2.744995	<s> OKIMUN	-0.4175406
-3.015655	<s> OKO	-0.2852809
-3.675619	<s> OKOMA
-2.685261	<s> OKU	-0.2338822
-2.187339	<s> OKUMA	-0.4881288
-2.893795	<s> OKWEIN	-0.6211226
-4.12101	<s> OKWOKU
-4.12101	<s> OLIKO
-4.12101	<s> OMA
-3.432451	<s> OME	-0.148007
-4.159162	<s> OMEOKU
-4.020377	<s> OMINA
-2.373934	<s> OMINE	-0.502323
-3.064717	<s> OMINEA	-0.1948203
-4.020377	<s> OMONI
-3.746713	<s> OMONIBO
-4.12101	<s> OMUN
-4.159162	<s> ONGIROMA
-3.73295	<s> ONI	-0.2906892
-4.159162	<s> ONIBIA
-4.159162	<s> ONIKIRI
-3.243967	<s> ONO	-0.1129973
-2.213394	<s> ORI	-0.3578626
-2.628811	<s> ORIA	-0.2939936
-3.432451	<s> ORIBO	-0.1608007
-4.020377	<s> ORIMA
-3.387741	<s> ORO	-0.3200926
-3.73295	<s> OROBO	-0.2906892
-3.239146	<s> OROMA	-0.1004629
-4.159162	<s> OROMMA
-4.159162	<s> ORUMARI
-2.445917	<s> OSE	-0.5708259
-3.176454	<s> OWUAPU	-0.2906892
-3.820282	<s> OWUBO
-3.012453	<s> OYE	-0.2217881
-3.432451	<s> OYEGOYE	-0.148007
-2.994908	<s> PEKEREME	-0.2215063
-4.159162	<s> PEKIMA
-2.500447	<s> PIKI	-0.3110802
-2.121372	<s> PIRI	-0.5694492
-2.494006	<s> PIRIABE	-0.8230152
-4.020377	<s> PIRIARI
-2.149322	<s> PIRIBIA	-0.4656564
-2.906411	<s> PIRIME	-0.6880693
-4.159162	<s> RAKA
-4.159162	<s> RAKAPU
-4.159162	<s> RAKUBU
-4.159162	<s> RAKUMA
-3.432451	<s> RAMA
-4.159162	<s> RAME
-4.159162	<s> RASIN
-4.159162	<s> REKIN
-3.73295	<s> REKON
-3.73295	<s> REME	-0.2906892
-4.159162	<s> REMENIBO
-2.588745	<s> RENI	-0.7404242
-4.159162	<s> RENIBIA
-3.432451	<s> RENIME	-0.3200926
-2.802989	<s> RIA	-0.07858384
-3.73295	<s> RIABE	-0.2906892
-2.588745	<s> RIBIA	-0.3554601
-3.112962	<s> RIMA	-0.5419413
-4.159162	<s> RIMABIA
-3.112962	<s> RIME	-0.2932662
-4.159162	<s> RINA
-4.159162	<s> RISIN
-3.73295	<s> ROBO	-0.2906892
-4.159162	<s> ROMABIA
-4.159162	<s> RUMGBOLU
-4.159162	<s> SAM
-4.12101	<s> SELEMA
-3.011781	<s> SENI	-0.03921303
-2.182918	<s> SIKI	-0.6420667
-3.348359	<s> SIKIMA
-2.319568	<s> SIME	-0.3330652
-2.928369	<s> SIMEBIA	-0.3668681
-3.65549	<s> SIMEME
-3.820282	<s> SIMEOGBO
-3.73295	<s> SIN	-0.2906892
-3.714129	<s> SOME
-3.961074	<s> SOMUN
-3.718256	<s> TIBI
-4.159162	<s> TIO
-4.159162	<s> TON
-3.647802	<s> TORUMGBOLU	-0.2906892
-4.159162	<s> UBABOABO
-4.159162	<s> UBAME
-4.159162	<s> UBIE
-4.159162	<s> UBO
-4.159162	<s> UBU
-4.159162	<s> UCHUAYE
-3.432451	<s> UDUKOAPU	-0.148007
-2.802989	<s> UKO	-0.5485387
-3.425032	<s> UKOAPU
-4.159162	<s> UKOBO
-4.159162	<s> UKOME
-4.159162	<s> ULABAMA
-4.159162	<s> ULUMA
-2.662279	<s> UMA	-0.6734775
-4.159162	<s> UMGBOLU
-4.159162	<s> UMOME
-4.159162	<s> UOKORO
-4.159162	<s> UOKOROMA
-4.159162	<s> URUMA
-4.159162	<s> WEIN
-3.243967	<s> WENGI	-0.1963562
-2.623957	<s> WOSE	-0.5102013
-2.930888	<s> YANA	-0.6880694
-3.012453	<s> YANABO	-0.6211226
-3.112962	<s> YEGOYE	-0.08658151
-4.159162	<s> YONGORO
-4.159162	<s> YOSE
-2.862247	<s> ZOS	-0.7460613
-1.302824	<unk> </s>
-0.7702851	<unk> <unk>	-1.277099
-3.577262	<unk> ANA	-0.2906892
-3.850028	<unk> ANANA	-0.3200926
-4.140791	<unk> ANANAKARAKA
-3.228059	<unk> ANGA	-0.07447857
-1.749837	<unk> ANI	-1.413094
-3.388464	<unk> ANIA
-4.140791	<unk> ANIANGA
-4.079543	<unk> ANIATIB
-2.604229	<unk> ANIATIBI	-0.6121956
-4.140791	<unk> ANINYO
-3.480998	<unk> ANIS	-0.4450313
-4.140791	<unk> ANISE
-4.140791	<unk> ANISI	-0.4450313
-3.466834	<unk> ANISIK	-0.4450313
-2.127681	<unk> ANISIKI	-1.673346
-4.140791	<unk> ANISIKO
-4.140791	<unk> ANISKI
-3.765141	<unk> ANISO	-0.148007
-3.765141	<unk> ANISOKI	-0.3080913
-3.320977	<unk> APU	-0.03869992
-4.079543	<unk> ARA
-2.507415	<unk> ARI	-0.6402971
-3.261296	<unk> ARIA	-0.1035323
-4.140791	<unk> ARU
-3.765141	<unk> BAK	-0.3200926
-2.994279	<unk> BAKA	-0.3351834
-4.140791	<unk> BAKAB
-4.079543	<unk> BAKABA
-4.140791	<unk> BAKABABAMA
-3.480998	<unk> BAKABABIA	-0.2932662
-3.480998	<unk> BAKABAMA	-0.2932662
-4.140791	<unk> BAKABAMAME
-3.765141	<unk> BAKABAMAYE
-3.765141	<unk> BAKABAME	-0.1963562
-3.466834	<unk> BAKABIA	-0.4282688
-2.907142	<unk> BAKAMA	-0.5286719
-3.765141	<unk> BAKAME	-0.5633638
-3.298438	<unk> BAKASAM	-0.3080914
-4.140791	<unk> BAKASIN
-3.289083	<unk> BAKI	-0.2233224
-4.140791	<unk> BAKIBAME
-3.765141	<unk> BAKIBIA	-0.2906892
-3.765141	<unk> BAKU	-0.2906892
-3.765141	<unk> BAKUB	-0.2906892
-3.765141	<unk> BAKUBA	-0.3200926
-4.140791	<unk> BAKUBAB
-4.140791	<unk> BAKUBABI
-3.03755	<unk> BAKUBABIA	-0.4669293
-3.738292	<unk> BAKUBABO
-4.079543	<unk> BAKUBABOA	-0.1635494
-4.140791	<unk> BAKUBAM
-3.765141	<unk> BAKUBAMA
-3.049076	<unk> BAKUBAME	-0.5320957
-3.765141	<unk> BAKUM	-0.2906892
-2.962656	<unk> BAKUMA	-0.5905449
-4.079543	<unk> BAKUMABIA
-4.140791	<unk> BAKUMAME
-3.765141	<unk> BAKUME	-0.2906892
-4.140791	<unk> BAMA	-0.3522364
-4.140791	<unk> BAMABIA
-3.664249	<unk> BAME	-0.5334369
-4.140791	<unk> BAMUNA
-2.710314	<unk> BAR	-1.387039
-1.752257	<unk> BARA	-1.51994
-3.930989	<unk> BARABIA
-3.261296	<unk> BARACHUA	-0.3080913
-3.765141	<unk> BARAK	-0.2906892
-2.587471	<unk> BARAKA	-1.081481
-4.079543	<unk> BARAKABA
-4.140791	<unk> BARAKABIA
-3.480998	<unk> BARAKABO	-0.4450313
-3.765141	<unk> BARAKAN	-0.5419413
-4.140791	<unk> BARAKANA
-4.140791	<unk> BARAKANAYE
-4.140791	<unk> BARAKARAYE
-3.480998	<unk> BARAKUBA	-0.3200926
-2.722409	<unk> BARAKUBU	-0.3205969
-3.480998	<unk> BARAKUBUBIA	-0.3200926
-3.071482	<unk> BARAKUMA	-0.3462265
-4.140791	<unk> BARAKUMAYE
-3.049076	<unk> BARAMA	-0.4940903
-3.480998	<unk> BARAMABIA
-4.079543	<unk> BARAME
-3.738292	<unk> BARAS	-0.2906893
-3.466834	<unk> BARASA	-0.1307522
-4.079543	<unk> BARASAM
-4.140791	<unk> BARASAN
-3.298438	<unk> BARASI	-0.3030477
-4.140791	<unk> BARASIKIMA
-2.248292	<unk> BARASIN	-1.185222
-4.079543	<unk> BARASINBIA	-0.3200926
-4.140791	<unk> BARASINBO
-4.140791	<unk> BARASINMA
-4.140791	<unk> BARASINME
-1.989942	<unk> BARI	-1.126224
-4.140791	<unk> BARIKA
-4.140791	<unk> BARIKANIKA
-3.261296	<unk> BARIMA	-0.3660457
-3.765141	<unk> BARIME
-2.991034	<unk> BARISI	-0.7082396
-4.140791	<unk> BARISIA
-3.480998	<unk> BARISIAPU	-0.4450313
-3.065911	<unk> BARISIN	-0.4621514
-2.884059	<unk> BEBE	-0.6040777
-4.079543	<unk> BEBIA	-0.3200926
-3.930989	<unk> BEBO
-4.079543	<unk> BEIN
-3.298438	<unk> BEL	-0.6211226
-3.065911	<unk> BELE	-0.1281124
-3.480998	<unk> BELEM	-0.3200926
-2.577838	<unk> BELEMA	-1.055957
-3.480998	<unk> BELEMAB	-0.3200926
-4.140791	<unk> BELEMABI
-2.64972	<unk> BELEMABIA	-0.7295556
-3.298438	<unk> BELEMABO	-0.1963562
-3.765141	<unk> BELEMABOA	-0.1595958
-3.480998	<unk> BELEMAME	-0.3200926
-4.140791	<unk> BELEME
-3.765141	<unk> BELIMA
-4.140791	<unk> BELIMAME
-3.664249	<unk> BEM	-0.7460613
-2.313454	<unk> BEME	-1.570773
-3.24266	<unk> BEMI	-0.1343498
-2.972336	<unk> BER	-1.185394
-2.554781	<unk> BERE	-1.000109
-3.738292	<unk> BEREK	-0.5419413
-4.079543	<unk> BEREKAN
-3.298438	<unk> BEREKIBIA	-0.2882345
-3.480998	<unk> BEREKIBO	-0.4450313
-2.962656	<unk> BEREKIN	-0.5784159
-4.140791	<unk> BEREKINBIA
-3.738292	<unk> BEREKO	-0.141077
-2.362398	<unk> BEREKON	-1.142397
-3.765141	<unk> BEREKONBI	-0.2906892
-3.065911	<unk> BEREKONBIA	-0.5014554
-3.398696	<unk> BEREKONBO	-0.3199056
-4.140791	<unk> BEREKORO
-3.163317	<unk> BEREN	-0.884364
-2.065291	<unk> BERENI	-1.398335
-4.140791	<unk> BERENIB	-0.3200926
-3.1703	<unk> BERENIBI	-0.6211226
-2.361951	<unk> BERENIBIA	-1.260567
-2.864516	<unk> BERENIBO	-0.1865403
-4.140791	<unk> BERENIBOAPIRIME
-4.140791	<unk> BERENIM
-3.738292	<unk> BERENIMA	-0.2906892
-2.52105	<unk> BERENIME	-1.191256
-4.079543	<unk> BERENO	-0.2906892
-4.140791	<unk> BERETO
-3.289083	<unk> BERETON	-0.3610397
-2.602966	<unk> BERI	-0.5582269
-4.140791	<unk> BERIKA
-3.480998	<unk> BERIKIN	-0.1944836
-4.140791	<unk> BERIKINI
-3.466834	<unk> BERIKON	-0.6880694
-4.140791	<unk> BERIKONBO
-3.765141	<unk> BERIMA	-0.3200926
-4.140791	<unk> BERINAME
-3.065911	<unk> BERINI	-0.474811
-4.140791	<unk> BERINIBI
-3.480998	<unk> BERINIBIA	-0.1963562
-3.480998	<unk> BERINIME	-0.4450313
-2.453604	<unk> BIA	-0.6392102
-4.140791	<unk> BIABEREMENIBO
-3.930989	<unk> BIABIA
-1.700659	<unk> BIE	-1.108075
-3.765141	<unk> BIEB	-0.3200926
-4.140791	<unk> BIEBE
-4.140791	<unk> BIEBELA
-2.74369	<unk> BIEBELE	-0.6607498
-3.480998	<unk> BIEBELEM	-0.3200926
-3.224791	<unk> BIEBELEMA	-0.7849928
-4.079543	<unk> BIEBELEMABIA
-4.140791	<unk> BIEBELEMABO
-3.065911	<unk> BIEBELEME	-0.5168502
-4.140791	<unk> BIEBERE
-3.261296	<unk> BIEBIA	-0.2839704
-3.765141	<unk> BIEBO
-4.140791	<unk> BIEBOLE
-4.140791	<unk> BIEBOLEMA
-4.140791	<unk> BIEBOLEMAME
-4.140791	<unk> BIEBORO
-4.140791	<unk> BIEBOROMA	-0.2906892
-4.140791	<unk> BIEKA
-4.140791	<unk> BIEKARAMA
-4.140791	<unk> BIEKOROM
-4.140791	<unk> BIEKOROMA	-0.4450313
-3.466834	<unk> BIEKOROMABIA	-0.1147215
-3.480998	<unk> BIEKOROMAME	-0.148007
-4.140791	<unk> BIEMA
-4.140791	<unk> BIK
-2.986399	<unk> BIKE	-0.3309063
-4.140791	<unk> BIKEME
-2.46471	<unk> BIKI	-0.7971482
-4.140791	<unk> BIKIBA
-3.298438	<unk> BIKIBIA	-0.1947485
-4.140791	<unk> BIKIBO
-4.140791	<unk> BIKIMA
-3.298438	<unk> BIKIME	-0.2209891
-3.765141	<unk> BIM	-0.2906892
-2.744767	<unk> BIME	-0.8745752
-4.140791	<unk> BIMI
-4.140791	<unk> BIPA
-3.765141	<unk> BIPE
-2.34831	<unk> BIPI	-0.5735018
-4.140791	<unk> BIPIKI	-0.2906892
-4.140791	<unk> BIPIKIBIA
-4.140791	<unk> BIPIMA
-4.140791	<unk> BIPIPEKERE
-3.765141	<unk> BIR	-0.2906892
-2.907142	<unk> BIRE	-0.5522199
-4.140791	<unk> BIREMABIA
-2.493589	<unk> BIRI	-0.795797
-4.140791	<unk> BIRIB
-3.289083	<unk> BIRIBIA	-0.459142
-4.140791	<unk> BIRIBIBIA
-3.765141	<unk> BIRIBO	-0.2906892
-4.140791	<unk> BIRIBUBIA
-3.289083	<unk> BIRIMA	-0.4664176
-4.140791	<unk> BIRIMABIA
-4.079543	<unk> BIRIMAME	-0.1818451
-3.765141	<unk> BIRIME	-0.2906892
-3.504824	<unk> BOBE
-2.93652	<unk> BOBIA	-0.6883985
-3.618581	<unk> BOKA	-0.1103606
-3.664249	<unk> BOKO	-0.2906893
-4.140791	<unk> BOM
-3.228059	<unk> BOMA	-0.3158545
-2.79866	<unk> BOME	-0.5354197
-3.349354	<unk> BORA
-3.930989	<unk> BORASIN
-3.14235	<unk> BORI	-0.2883829
-4.140791	<unk> BORIA
-2.299065	<unk> BORO	-0.8337454
-4.079543	<unk> BOROBIA
-4.140791	<unk> BOROM
-2.425831	<unk> BOROMA	-0.8098378
-3.480998	<unk> BOROMABIA	-0.3200926
-3.664249	<unk> BOROME	-0.1403814
-3.930989	<unk> BOROSA	-0.3200926
-3.618581	<unk> BOROSAM	-0.1941537
-4.079543	<unk> BUB
-4.140791	<unk> BUBALAMAMA
-4.140791	<unk> BUBAMABE
-4.079543	<unk> BUBARASIN
-4.140791	<unk> BUBARIBIA
-3.466834	<unk> BUBELEBIA	-0.2973354
-4.140791	<unk> BUBELEMABIA
-3.765141	<unk> BUBELEME
-3.466834	<unk> BUBIA	-0.4542194
-4.079543	<unk> BUBIE
-4.140791	<unk> BUBIEMA
-4.140791	<unk> BUBUAMAYE
-3.670986	<unk> BUCHUAYE
-4.140791	<unk> BUGBIRUPUMAYE
-4.140791	<unk> BUKO
-3.930989	<unk> BUKULOMA
-4.140791	<unk> BUKULU
-4.140791	<unk> BUKUROMA
-3.114316	<unk> BUO	-0.7474145
-4.140791	<unk> BUOKORIBIA
-4.079543	<unk> BUOKOROMABIA
-4.140791	<unk> BUOKOROME	-0.4450313
-4.140791	<unk> BURO
-3.850028	<unk> CHIN
-4.140791	<unk> CHINBIA
-3.765141	<unk> CHINME	-0.3821415
-3.850028	<unk> CHUAME
-4.140791	<unk> CHUN
-4.140791	<unk> CHUNME
-3.114316	<unk> DABO	-0.9221526
-4.140791	<unk> DAKA
-4.140791	<unk> DAKI
-3.765141	<unk> DAM	-0.4450313
-2.383104	<unk> DAMABO	-1.212611
-2.67747	<unk> DAMABOME	-0.7993575
-4.140791	<unk> DAMAMOME
-4.140791	<unk> DAMAMON
-4.079543	<unk> DAMAMUN	-0.5419413
-4.140791	<unk> DAMAMUNBIA
-3.289083	<unk> DAMBE	-0.6043601
-4.140791	<unk> DAMBEBO
-4.140791	<unk> DAMBELOMA
-3.480998	<unk> DAMBO	-0.4450313
-4.140791	<unk> DAMBOKO
-4.140791	<unk> DAMBOME
-3.738292	<unk> DAPU	-0.6520006
-4.140791	<unk> DAWO
-3.930989	<unk> DEKI
-3.781814	<unk> DIE	-0.1913954
-4.140791	<unk> DIEBELEME
-4.079543	<unk> DIEME
-3.026321	<unk> DIKI	-0.554374
-4.140791	<unk> DIKIBALAFAME
-3.738292	<unk> DIKIBIA	-0.1862976
-4.140791	<unk> DIKIBUGERERE
-4.140791	<unk> DIKIDIKI
-4.140791	<unk> DIKIDIKIBIA
-4.140791	<unk> DIKIMA
-4.140791	<unk> DIKO
-4.140791	<unk> DIN
-4.140791	<unk> DIPIYEMGBOLU	-0.2906892
-3.765141	<unk> DIRI
-4.140791	<unk> DIRIME
-3.14235	<unk> DUK	-0.7460613
-2.244272	<unk> DUKO	-1.539628
-4.140791	<unk> DUKOBO
-3.618581	<unk> DUKOMA	-0.3838203
-3.128107	<unk> DUKOME	-0.3159011
-4.140791	<unk> DUKOY
-3.065911	<unk> DUKOYE	-0.5750679
-3.738292	<unk> DUKU
-2.726681	<unk> DUMO	-0.5378004
-4.140791	<unk> DUMOBA
-3.765141	<unk> DUMOBIA	-0.3724474
-4.140791	<unk> DUPARI	-0.5419413
-4.140791	<unk> DUPU
-4.140791	<unk> DUPUKUMABO
-3.363667	<unk> EKE	-0.3200926
-3.446792	<unk> ENE	-0.2906892
-3.722874	<unk> ERE
-3.54458	<unk> ERECHI
-4.140791	<unk> FARISIAP
-4.140791	<unk> FARISIAPU
-4.140791	<unk> FERE
-4.140791	<unk> FIAFIA
-4.140791	<unk> FIAPU
-3.298438	<unk> FIBIA	-0.2209891
-3.738292	<unk> FIE
-4.140791	<unk> FIEARI	-0.2906892
-4.140791	<unk> FIMA
-3.425642	<unk> FIME	-0.2769758
-3.664249	<unk> FINI	-0.6211225
-4.140791	<unk> FINIM
-4.140791	<unk> FINIMA
-4.140791	<unk> FINIMABO
-3.618581	<unk> FINJI	-0.1009895
-4.140791	<unk> FINJU
-4.140791	<unk> FIR	-0.8429713
-4.140791	<unk> FIRI	-0.6880694
-3.765141	<unk> FIRIM	-0.6211226
-3.10095	<unk> FIRIMA	-1.517655
-4.140791	<unk> FIRIMAB	-0.3200926
-3.738292	<unk> FIRIMABIA	-0.8146133
-4.140791	<unk> FIRIMABO	-0.3872726
-3.765141	<unk> FIRIMAME	-0.7404242
-4.140791	<unk> FIRIME
-4.140791	<unk> FIRIN
-4.140791	<unk> FIRINA	-0.5122113
-4.079543	<unk> FIRINAME	-0.1818451
-4.079543	<unk> FIRINW
-4.140791	<unk> FIRINWE
-3.618581	<unk> FIRINWENGI	-0.7460613
-4.140791	<unk> FIRINWENGIAPU
-4.140791	<unk> FIRINWENGIBIA
-3.850028	<unk> FIRINWENGIBO	-0.6857111
-4.140791	<unk> FIRINWENIIBO
-3.930989	<unk> FIYE
-4.140791	<unk> FOKU
-4.140791	<unk> FOMU
-4.140791	<unk> FOMUME
-4.140791	<unk> FONI
-4.079543	<unk> FONU
-4.079543	<unk> FORIMA	-0.3872725
-4.140791	<unk> FORIMABIA
-4.079543	<unk> FORU
-4.140791	<unk> FUN	-0.3200926
-4.140791	<unk> FURAMA	-0.09750146
-4.079543	<unk> FURO
-4.140791	<unk> FUROMA	-0.2906892
-4.140791	<unk> FURU	-0.4450313
-4.140791	<unk> FURUMA	-0.4973862
-4.140791	<unk> GALILI
-3.930989	<unk> GBANABIA	-0.2906892
-4.140791	<unk> GBEI
-3.466834	<unk> GBEIN	-0.4041025
-3.765141	<unk> GBEINKA	-0.3459278
-3.298438	<unk> GBEINKE	-0.3971443
-4.140791	<unk> GBEINYE
-4.140791	<unk> GBELA
-4.140791	<unk> GBELABE
-3.765141	<unk> GBELABIA
-4.140791	<unk> GBELAM
-2.972336	<unk> GBELAME	-0.5687445
-3.930989	<unk> GBIN
-4.140791	<unk> GBINMA
-3.765141	<unk> GBOLO	-0.2906892
-3.480998	<unk> GBOLOMA	-0.1129255
-2.991034	<unk> GBOLOMAYE	-0.3703566
-4.140791	<unk> GBOR
-3.24266	<unk> GBORI	-0.6155199
-4.140791	<unk> GBORIB	-0.3200926
-4.140791	<unk> GBORIBIA
-3.03755	<unk> GBORIBO	-0.6348273
-4.140791	<unk> GBORO
-4.140791	<unk> GBOROBO
-4.140791	<unk> GBYEGOYE
-3.765141	<unk> GELE
-4.140791	<unk> GEYEG
-3.298438	<unk> GEYEGOYE	-0.185577
-4.140791	<unk> GOLE
-4.140791	<unk> GOLEGOYE
-4.140791	<unk> GOLOM
-4.079543	<unk> GORU
-4.140791	<unk> GOS
-2.634106	<unk> GOSE	-0.800541
-3.480998	<unk> GOSEGOYE	-0.2932662
-3.765141	<unk> GOY	-0.2906892
-3.289083	<unk> GOYE	-0.4450313
-3.480998	<unk> GOYEG	-0.5419413
-3.480998	<unk> GOYEGO	-0.3200926
-3.298438	<unk> GOYEGOY	-0.4450313
-2.070168	<unk> GOYEGOYE	-1.500544
-3.765141	<unk> IBA	-0.3571034
-4.140791	<unk> IBAF	-0.2906892
-4.140791	<unk> IBAFABIA
-4.140791	<unk> IBAFAMA
-4.140791	<unk> IBAFAME
-3.738292	<unk> IBAFI	-0.8363624
-4.140791	<unk> IBAFIB
-4.140791	<unk> IBAFIBI
-4.079543	<unk> IBAFIBIA	-0.5557503
-4.140791	<unk> IBAFIBO	-0.2906892
-2.851846	<unk> IBI	-0.5085657
-4.079543	<unk> IBIA	-0.1687663
-4.140791	<unk> IBIFI	-0.1122994
-4.140791	<unk> IBIFIBIA
-4.140791	<unk> IBIFIMA
-4.140791	<unk> IBIN
-3.466834	<unk> IBIOKU	-0.5797851
-3.738292	<unk> IBO	-0.02167552
-4.140791	<unk> IBORIBO
-3.539535	<unk> IBU
-4.140791	<unk> IGBEKE
-3.850028	<unk> IGBIKI
-4.140791	<unk> IKA	-0.2803742
-4.140791	<unk> IKABIA
-4.140791	<unk> IKABO
-4.140791	<unk> IKANI	-0.3200926
-4.140791	<unk> IKANIKA
-4.140791	<unk> IKANIKI
-4.140791	<unk> IKANIKIRI
-4.140791	<unk> IKASI
-3.577262	<unk> IKI	-0.1905804
-4.079543	<unk> IKIABO
-3.850028	<unk> IKIAN
-3.388464	<unk> IKIANKOROAPU	-0.4450313
-3.504824	<unk> IKIANKOROBO	-0.6880694
-3.930989	<unk> IKIAPU
-4.079543	<unk> IKIBI	-0.2906892
-4.079543	<unk> IKIBIA
-4.079543	<unk> IKO
-3.850028	<unk> IKOLI	-0.5122113
-4.140791	<unk> IKOLIBO	-0.2906892
-4.140791	<unk> IKOLIMA
-4.079543	<unk> IKPAKA
-4.140791	<unk> IKULU
-3.781814	<unk> IKUMA
-2.788555	<unk> INE	-0.257991
-3.722874	<unk> INED
-2.605305	<unk> INEDA	-0.4570678
-1.371319	<unk> INI	-1.181324
-1.960988	<unk> INIA	-0.8197665
-3.738292	<unk> INIABO
-3.618581	<unk> INIB	-0.2906892
-3.850028	<unk> INIBI
-2.014972	<unk> INIBO	-0.4849207
-4.140791	<unk> INIBOKI
-4.140791	<unk> INYESARA
-3.03755	<unk> INYO	-0.14
-4.140791	<unk> INYOSAR
-3.114316	<unk> INYOSARA	-0.4861405
-2.098993	<unk> IRI	-1.347741
-2.602966	<unk> IRIA	-0.5755278
-4.140791	<unk> IRIAMA
-3.765141	<unk> IRIAME	-0.6211226
-3.026321	<unk> IRU	-0.4127141
-3.466834	<unk> IRUA	-0.2022997
-4.140791	<unk> IRUAMA
-2.670369	<unk> IYA	-0.4405152
-3.539535	<unk> IYE
-4.140791	<unk> JERUSALEM
-4.079543	<unk> JIKE
-3.015376	<unk> JIN	-0.2856688
-4.140791	<unk> JINSEAPU
-3.289083	<unk> JIZ	-0.5419413
-2.986399	<unk> JIZO	-0.5122113
-1.827658	<unk> JIZOS	-1.980919
-2.428621	<unk> JON	-0.7997928
-4.140791	<unk> JUAPU
-4.140791	<unk> JUKUMABIA
-3.664249	<unk> KABO	-0.2906892
-3.930989	<unk> KAN
-4.140791	<unk> KARAKARA
-3.781814	<unk> KARAMA
-3.930989	<unk> KIKI
-4.079543	<unk> KIRI
-4.140791	<unk> KIRIKARI
-4.140791	<unk> KOK
-4.140791	<unk> KOKI	-0.2906892
-4.140791	<unk> KOKIMAYE
-4.140791	<unk> KOKIME
-3.063155	<unk> KOKO	-0.3297439
-4.140791	<unk> KOKOM
-3.075392	<unk> KOKOMA	-0.5221573
-4.079543	<unk> KOKOMAY
-2.762514	<unk> KOKOMAYE	-0.646119
-4.140791	<unk> KOKOMAYI
-3.398696	<unk> KOKOME	-0.1608872
-4.140791	<unk> KOKUMA
-3.13335	<unk> KORO	-0.1106914
-2.757626	<unk> KOROMA	-0.5951099
-3.194142	<unk> KOROMABIA	-0.09364751
-4.140791	<unk> KOROMABOME
-4.140791	<unk> KOROMASAM
-3.261296	<unk> KOROMASO	-0.1591494
-4.079543	<unk> KOROMASOME
-3.618581	<unk> KORU	-0.1349928
-3.765141	<unk> KORUMA
-4.079543	<unk> KORUMABIA
-4.140791	<unk> KORUMGBOLU
-4.140791	<unk> KPEKI
-4.079543	<unk> KPONJI
-3.207629	<unk> KUBIE	-0.194301
-4.140791	<unk> KUBIEM
-3.163317	<unk> KUBIEMGBOLU	-0.6043601
-4.140791	<unk> KUBIEMGBOLUMA
-4.140791	<unk> KUBOE
-3.765141	<unk> KUKO	-0.7082396
-4.140791	<unk> KUKOMA
-4.140791	<unk> KUKOMAYE
-4.140791	<unk> KUKOME	-0.148007
-4.079543	<unk> KULOMA
-4.140791	<unk> KULU
-3.261296	<unk> KULUMA	-0.7230648
-3.425642	<unk> KUN	-0.5853024
-4.140791	<unk> KUNBIA	-0.1963562
-2.844491	<unk> KURO	-0.7404642
-3.30505	<unk> KUROMA	-0.4069726
-4.079543	<unk> KUROMABIA
-4.140791	<unk> KUROMABO
-4.140791	<unk> KUROME
-4.140791	<unk> KURU
-4.140791	<unk> KURUMA
-4.140791	<unk> KURUMAB
-4.140791	<unk> KURUMABIA
-4.140791	<unk> LAK
-3.765141	<unk> LUK
-3.163317	<unk> MAK	-0.2916831
-4.140791	<unk> MAM
-2.93652	<unk> MAMA	-0.4618841
-3.504824	<unk> MAMABA	-0.5419413
-4.140791	<unk> MAMABAPU
-3.930989	<unk> MAMG
-2.580046	<unk> MAMGBA	-0.7318766
-4.140791	<unk> MESAYA
-4.140791	<unk> MGB
-3.398696	<unk> MGBA
-4.140791	<unk> MGBASINA
-4.140791	<unk> MGBES
-4.140791	<unk> MGBESE
-4.140791	<unk> MGBESECH	-0.3200926
-3.930989	<unk> MGBESECHIN	-0.8733538
-4.140791	<unk> MGBESICHIN
-4.140791	<unk> MGBOSE
-4.140791	<unk> MGEEIN
-4.079543	<unk> MGEESECHIN
-2.421326	<unk> MIE	-0.5491017
-4.140791	<unk> MIEBARA
-3.738292	<unk> MIESA	-0.3200926
-3.466834	<unk> MIESAM	-0.2004254
-2.566872	<unk> MIESE	-0.9892468
-3.930989	<unk> MIMGBA
-2.54736	<unk> MIN	-1.211841
-3.1703	<unk> MINA	-0.3200926
-3.738292	<unk> MINABO	-0.3200926
-3.480998	<unk> MINABU	-0.7984162
-3.14235	<unk> MINE	-0.3549652
-3.398696	<unk> MINEA	-0.3013175
-4.140791	<unk> MIO	-0.2906892
-4.140791	<unk> MIOKU
-4.140791	<unk> MUA
-4.140791	<unk> MUABE
-3.765141	<unk> MUARI
-3.261296	<unk> MUM	-0.5223931
-3.175214	<unk> MUME	-0.2844204
-2.447376	<unk> MUN	-0.6037519
-4.079543	<unk> MUNBIA
-2.732278	<unk> NAA	-0.5351024
-3.930989	<unk> NAASAM
-3.373325	<unk> NAMA	-0.07582363
-4.079543	<unk> NAMABIA
-3.765141	<unk> NAMABO	-0.2906892
-3.539535	<unk> NAME	-0.1196311
-4.140791	<unk> NAMIKASE
-4.079543	<unk> NAMIRIA
-3.930989	<unk> NDA
-3.618581	<unk> NDE
-3.065911	<unk> NEM	-1.121725
-4.140791	<unk> NEME
-4.140791	<unk> NEMGBA
-2.843137	<unk> NEMI	-0.8718609
-4.140791	<unk> NEMIBASE
-3.480998	<unk> NEMIBIA	-0.1598499
-3.049076	<unk> NEMIK	-0.9221525
-2.861048	<unk> NEMIKA	-0.4838811
-2.812839	<unk> NEMIKAS	-0.5694842
-2.001692	<unk> NEMIKASE	-1.537778
-2.293784	<unk> NEMIKE	-1.057449
-4.140791	<unk> NEMIKESA
-3.738292	<unk> NEMIKESE	-0.4248831
-4.140791	<unk> NEMIM
-3.765141	<unk> NEMIMA	-0.2906892
-4.140791	<unk> NEMIMASAM
-2.338161	<unk> NEMIME	-1.428417
-2.890611	<unk> NENGI	-0.5371309
-4.140791	<unk> NENGIB
-2.986399	<unk> NENGIBIA	-0.5655625
-3.466834	<unk> NENGIBO	-0.1528654
-4.140791	<unk> NENGIM
-4.079543	<unk> NENGIMA
-3.373325	<unk> NENGIME	-0.5685205
-2.986399	<unk> NENI	-0.4150534
-4.140791	<unk> NENIKA
-3.1703	<unk> NENIKASE	-0.3970804
-4.140791	<unk> NENIME
-4.140791	<unk> NIME
-4.140791	<unk> NIRI	-0.3724474
-4.140791	<unk> NOO
-3.03755	<unk> NWE	-0.3477504
-4.140791	<unk> NWEN
-4.140791	<unk> NWENG
-2.387594	<unk> NWENGI	-0.6281223
-3.765141	<unk> NWENGIARI	-0.1963562
-3.765141	<unk> NWENGIMA
-4.140791	<unk> NWENGIMAMUN	-0.2906892
-2.662827	<unk> NWENI	-0.4293597
-3.261296	<unk> NWENIBO	-0.4450313
-3.480998	<unk> NWESE	-0.1599309
-1.391735	<unk> NWO	-1.158095
-2.861048	<unk> NWOS	-1.165191
-4.079543	<unk> NWOSA
-1.65782	<unk> NWOSE	-1.796449
-4.140791	<unk> NWOSEMO
-4.140791	<unk> NWOSO
-3.114316	<unk> NYA	-0.4886442
-3.24266	<unk> NYAN	-0.7972138
-2.193269	<unk> NYANA	-1.582768
-3.618581	<unk> NYANAB	-0.3200926
-4.079543	<unk> NYANABI	-0.3200926
-2.683398	<unk> NYANABIA	-0.6464844
-2.455679	<unk> NYANABO	-1.609663
-3.480998	<unk> NYANGI	-0.3200926
-3.664249	<unk> NYENGI	-0.3200926
-4.140791	<unk> NYENGIBO
-2.450309	<unk> NYO	-0.5448991
-4.140791	<unk> NYONG
-4.140791	<unk> NYONGI
-4.140791	<unk> NYONGIRI
-4.140791	<unk> NYONGIRO
-3.03755	<unk> NYONGORO	-0.9221526
-4.079543	<unk> OBOKO
-3.577262	<unk> OBU
-3.477006	<unk> OBUDUKOAPU	-0.7460613
-3.781814	<unk> OBUDUKOBO	-0.2906892
-3.738292	<unk> OFO	-0.3200926
-4.140791	<unk> OFOR	-0.2906892
-4.140791	<unk> OFORI
-4.140791	<unk> OFORIKA
-3.442759	<unk> OGBO	-0.1553813
-3.367026	<unk> OGONO
-4.079543	<unk> OJU
-2.585522	<unk> OKI	-0.8539273
-4.140791	<unk> OKIANKOROAPU
-3.54458	<unk> OKIBIA
-3.418544	<unk> OKIBO	-0.1086846
-3.722874	<unk> OKIMA	-0.1185367
-3.418544	<unk> OKIME	-0.1365056
-3.930989	<unk> OKIMU
-3.781814	<unk> OKIMUM
-2.528439	<unk> OKIMUN	-0.5320277
-3.178128	<unk> OKO	-0.08744134
-3.425642	<unk> OKOMA	-0.1484431
-2.424408	<unk> OKU	-0.9368877
-2.823146	<unk> OKUM	-0.3046005
-1.828604	<unk> OKUMA	-1.134298
-2.98786	<unk> OKWEIN	-0.884364
-4.079543	<unk> OLIKO
-3.618581	<unk> OLOKO	-0.4853119
-4.140791	<unk> OLOKOME
-4.079543	<unk> OMA	-0.1528654
-4.140791	<unk> OMANYANABI
-4.140791	<unk> OMANYANABO
-4.140791	<unk> OMANYANAKIRI
-4.140791	<unk> OMANYO
-3.442759	<unk> OMI
-3.539535	<unk> OMIN	-0.3200926
-3.930989	<unk> OMINA
-2.376426	<unk> OMINE	-0.9790915
-2.592112	<unk> OMINEA	-0.6238138
-4.079543	<unk> OMONGO
-3.582768	<unk> OMONIBO
-1.705299	<unk> ORI	-1.114781
-1.980051	<unk> ORIA	-0.7122334
-4.140791	<unk> ORIANOWUAPU
-3.577262	<unk> ORIBIA	-0.5419414
-3.930989	<unk> ORIMA
-2.907142	<unk> ORIME	-0.5304422
-2.828835	<unk> ORU	-0.5297043
-3.191119	<unk> ORUA
-3.624641	<unk> OWUAPU	-0.2010183
-3.670986	<unk> OWUBO
-4.140791	<unk> PAK
-3.14235	<unk> PAKA	-0.5791731
-3.850028	<unk> PAKABIA	-0.3110841
-3.850028	<unk> PAKABO	-0.36261
-4.140791	<unk> PAKABOME
-4.140791	<unk> PAKASO
-3.765141	<unk> PAKI
-4.140791	<unk> PAKIMA
-3.163317	<unk> PAKUMA	-0.6211778
-4.140791	<unk> PAKUMAB
-4.079543	<unk> PAKUMABIA	-0.3200926
-3.289083	<unk> PAKUMABO	-0.6211226
-4.140791	<unk> PAR
-3.765141	<unk> PARA
-4.140791	<unk> PARABIA	-0.3200926
-4.140791	<unk> PARAME
-3.289083	<unk> PARI	-0.4852291
-4.140791	<unk> PARIBI
-3.480998	<unk> PARIBIA	-0.3200926
-4.140791	<unk> PARIMA
-4.140791	<unk> PARIMABE
-4.140791	<unk> PARIME
-4.079543	<unk> PEK
-3.466834	<unk> PEKE	-0.1948765
-4.140791	<unk> PEKER	-0.3200926
-3.24266	<unk> PEKERE	-0.4606943
-4.140791	<unk> PEKEREBIA
-4.140791	<unk> PEKEREM
-3.765141	<unk> PEKEREMA	-0.2906892
-2.524527	<unk> PEKEREME	-1.253292
-4.140791	<unk> PEKERIME
-4.140791	<unk> PEKIRE
-3.298438	<unk> PEKIREME	-0.4450313
-4.079543	<unk> PEME
-4.079543	<unk> PEMEREME
-3.765141	<unk> PEREKE	-0.2906892
-4.140791	<unk> PEREKEME	-0.2906892
-4.140791	<unk> PEREKI
-4.140791	<unk> PERER
-3.765141	<unk> PERERE	-0.3200926
-3.261296	<unk> PEREREME	-0.09302802
-4.140791	<unk> PERERI
-3.765141	<unk> PERI	-0.2906892
-4.140791	<unk> PERIME
-3.425642	<unk> PIK	-0.5419413
-1.932284	<unk> PIKI	-0.799394
-4.140791	<unk> PIKIBA
-2.907142	<unk> PIKIBIA	-0.5887092
-3.738292	<unk> PIKIMA
-3.850028	<unk> PIKIME
-4.140791	<unk> PIKINA
-4.140791	<unk> PIKINI
-2.638622	<unk> PIR	-1.399274
-4.140791	<unk> PIREBIA
-1.933178	<unk> PIRI	-1.297238
-3.1703	<unk> PIRIA	-0.9569147
-3.480998	<unk> PIRIAB	-0.4450313
-2.269111	<unk> PIRIABE	-1.751014
-4.140791	<unk> PIRIABI	-0.1963562
-3.1703	<unk> PIRIABIA	-0.1812305
-4.140791	<unk> PIRIARE	-0.148007
-2.800344	<unk> PIRIARI	-1.018876
-4.140791	<unk> PIRIARIABE
-2.793806	<unk> PIRIB	-1.223183
-3.738292	<unk> PIRIBA	-0.2906892
-3.298438	<unk> PIRIBAA	-0.2506021
-3.765141	<unk> PIRIBAM
-3.738292	<unk> PIRIBE
-4.079543	<unk> PIRIBEA
-2.861048	<unk> PIRIBI	-0.8895091
-1.829063	<unk> PIRIBIA	-1.60386
-4.140791	<unk> PIRIBIE
-4.140791	<unk> PIRIBOA
-3.466834	<unk> PIRIM	-0.6211226
-3.163317	<unk> PIRIMA	-0.2648806
-2.428621	<unk> PIRIME	-1.14701
-3.1703	<unk> PIRISAM	-0.1418928
-4.140791	<unk> POKI
-4.140791	<unk> POKIME
-4.140791	<unk> PORIABE
-4.140791	<unk> PORIBIA
-4.140791	<unk> PUKO
-4.079543	<unk> PUKU
-4.140791	<unk> PUNUMA
-3.765141	<unk> PURA	-0.2906892
-4.140791	<unk> PURU
-4.140791	<unk> PURUMA
-4.140791	<unk> PURUMABIA
-4.079543	<unk> SAKA
-3.14235	<unk> SAKI
-3.618581	<unk> SARA
-4.140791	<unk> SARASIN
-3.765141	<unk> SEKE	-0.2906892
-4.079543	<unk> SEKERE
-3.373325	<unk> SEKI	-0.4450313
-2.766662	<unk> SELE	-0.479763
-3.480998	<unk> SELEBA
-3.765141	<unk> SELEBIA	-0.148007
-3.065911	<unk> SELEMA	-0.4307129
-4.140791	<unk> SELEMABIA
-4.140791	<unk> SELEMABO
-4.140791	<unk> SELEME
-4.140791	<unk> SELI
-4.140791	<unk> SELIMA
-4.079543	<unk> SEME	-0.1307522
-4.140791	<unk> SEMINE
-4.079543	<unk> SEN	-0.2906893
-4.079543	<unk> SENE
-2.286777	<unk> SENI	-1.221433
-4.140791	<unk> SENIAPU
-3.765141	<unk> SENIBIA	-0.2906892
-3.539535	<unk> SIK	-0.2906892
-3.14235	<unk> SIKE	-0.07684089
-4.140791	<unk> SIKEM
-4.079543	<unk> SIKEMA
-4.140791	<unk> SIKEMABIA
-3.765141	<unk> SIKEME
-1.835426	<unk> SIKI	-1.090316
-3.738292	<unk> SIKIM	-0.2906893
-2.373034	<unk> SIKIMA	-0.9068804
-4.140791	<unk> SIKIMABIA
-4.079543	<unk> SIKIMAME
-3.114316	<unk> SIKIME	-0.6219826
-3.087983	<unk> SIM	-0.5419413
-3.466834	<unk> SIMA	-0.3200926
-3.930989	<unk> SIMABIA
-2.014972	<unk> SIME	-0.8108574
-3.398696	<unk> SIMEBA	-0.2381599
-3.738292	<unk> SIMEBARA	-0.2906892
-2.6173	<unk> SIMEBIA	-0.7847944
-3.480998	<unk> SIMEBO	-0.2346151
-4.140791	<unk> SIMEBOKI
-2.954932	<unk> SIMEME	-0.6777761
-3.326638	<unk> SIMEOGBO	-0.3671496
-4.140791	<unk> SIMEOGOO
-4.140791	<unk> SIMEOK
-2.954932	<unk> SIMEOKU	-0.157585
-3.03755	<unk> SIMI	-0.2778434
-4.140791	<unk> SIMIBIA
-4.140791	<unk> SIMIE
-3.765141	<unk> SIMIEARI	-0.2906892
-4.140791	<unk> SIMIOGBO
-4.140791	<unk> SIS
-2.986399	<unk> SISE	-0.9025542
-4.140791	<unk> SISEMA	-0.148007
-4.140791	<unk> SISEMABIA
-4.140791	<unk> SISEME
-3.017391	<unk> SOBIA	-0.1969613
-3.028388	<unk> SOBIE	-0.2046914
-3.930989	<unk> SOBO
-4.140791	<unk> SOBOR
-4.140791	<unk> SOBORI
-4.140791	<unk> SOBORIA
-4.140791	<unk> SOBORO
-3.145051	<unk> SOME	-0.08631781
-3.618581	<unk> SOMUN
-2.525827	<unk> SONI	-0.7803519
-3.850028	<unk> SONO
-4.140791	<unk> TAMABO	-0.3200926
-4.140791	<unk> TAMARO	-0.2906892
-3.765141	<unk> TAMUNO	-0.4973862
-4.140791	<unk> TAR
-4.140791	<unk> TARA
-4.079543	<unk> TARAKA
-4.140791	<unk> TARAKABO
-4.140791	<unk> TARAKABU
-3.480998	<unk> TARAKAPU	-1.041454
-3.480998	<unk> TARI	-0.148007
-3.765141	<unk> TARIKAPU	-0.2906892
-4.140791	<unk> TATARI
-3.480998	<unk> TEKE	-0.2932662
-4.140791	<unk> TER
-3.765141	<unk> TERE
-3.765141	<unk> TOM	-0.2906892
-3.466834	<unk> TOMBO	-0.1307522
-3.261296	<unk> TOMONI	-0.1476353
-4.140791	<unk> TOMONIB
-4.140791	<unk> TOMONIBI
-4.140791	<unk> TOMONIBIRI
-4.140791	<unk> TOMONIBO	-0.9221526
-4.140791	<unk> TOMONIK
-4.140791	<unk> TOMONIKI
-3.425642	<unk> TOMONIKIRI	-0.7032174
-4.079543	<unk> TOMONIKPO	-0.5419413
-4.140791	<unk> TOROK
-4.140791	<unk> TOROKI
-3.049076	<unk> TOROKO	-0.06832169
-3.24266	<unk> TORU	-0.4295568
-4.079543	<unk> TORUMG
-3.24266	<unk> TORUMGBOLU	-0.5419414
-4.079543	<unk> TORUMGBOLUPUN
-4.140791	<unk> TORUSI
-4.140791	<unk> TORUSIORI	-0.4428379
-4.140791	<unk> TUBURU
-0.3924338	ABALA <unk>
-0.6498386	ABE <unk>	-0.1217713
-1.039096	ABE NWOBE
-1.024763	ABE OMINE
-0.6498386	ABIA <unk>	-0.2270563
-1.012994	ABIA ANIATIBI
-1.007748	ABIA OKU
-0.4796845	ABO <unk>	-0.246441
-1.12801	ABO BIA
-1.15863	ABO NEMIKASE
-0.3924338	AGBAMIEBO <unk>
-0.4008064	AKA <unk>	-0.1703432
-0.9912374	AKA BARA
-0.3924338	AKABIA <unk>
-0.3924338	AKAPU <unk>
-0.3924338	AKIME <unk>
-0.3924338	AKUBABIA <unk>
-0.3924338	AKUBU <unk>
-0.3924338	AKUMA <unk>
-0.3924338	AKUMABIA <unk>
-0.1260198	AMA <unk>	-0.1197325
-0.3924338	AMABIE <unk>
-0.3924338	AMABO <unk>
-0.3924338	AMAMUN <unk>
-0.5698565	AMANYANABO <unk>
-0.8616853	AMANYANABO NEMIKASE
-0.2762469	AMANYANAKIRI <unk>
-0.4008064	AME <unk>	-0.2047567
-1.037709	AME ANIA
-0.5698565	AMGBA <unk>
-0.8609409	AMGBA OGONO
-0.409499	ANA <unk>	-0.1488489
-1.296779	ANA BIA	-0.2906892
-0.8359542	ANA BIE	-0.2906892
-0.3924338	ANABO <unk>
-0.3924338	ANAME <unk>
-0.2745125	ANANA <unk>	-0.3016667
-1.140905	ANANA BIE
-0.5606417	ANANAKARAKA ORIA
-0.3924338	ANANYO <unk>
-0.3924338	ANATIBI <unk>
-0.4917262	ANG </s>
-0.2016042	ANGA <unk>	-0.4909897
-1.21493	ANGA SIKI
-0.9205303	ANGA SIME	-0.1485289
-1.27307	ANI </s>
-0.4059471	ANI <unk>	-0.9182755
-2.246156	ANI BARA	-0.2715089
-2.638569	ANI BARASIN
-2.658337	ANI BARI
-2.708293	ANI BEREKIN
-2.665131	ANI BEREKON	-0.3200926
-2.632175	ANI BERENI
-2.210142	ANI BOBIA	-0.4450313
-2.578505	ANI BORO
-2.214973	ANI INE	-0.09153867
-1.711034	ANI INEDA	-0.1413749
-0.8876371	ANI INI	-0.9271805
-2.567429	ANI INIA	-0.2333198
-1.85806	ANI INIBO	-0.1192104
-1.881083	ANI OKI	-0.4450313
-2.469886	ANI OKIMUN
-2.393935	ANI OKU
-1.362466	ANI OKUMA	-0.3637055
-1.57501	ANI ORI	-0.9118669
-2.556628	ANI ORIA	-0.1533277
-2.693424	ANI ORU	-0.4450313
-2.730558	ANI ORUMA
-2.638569	ANI PIKI
-1.890185	ANI SENI	-0.5633638
-1.20259	ANI SIKI	-0.7647003
-2.601544	ANI SIKIMA
-1.468523	ANI SIME	-0.2431486
-2.242209	ANI SIMEO	-0.2906892
-2.686176	ANI SIMEOGBO
-1.91139	ANI SIMEOKU	-0.3080913
-2.613538	ANI SONI
-2.708293	ANI SONO
-1.124852	ANIA </s>
-0.3782898	ANIA <unk>	-0.2940031
-0.622989	ANIA BIE	-0.37446
-1.768607	ANIA BUBELEBALA
-1.764866	ANIA IGBIKI
-0.3924338	ANIANABI <unk>
-0.5606417	ANIANGA ORIA
-0.333611	ANIATIB </s>
-1.958404	ANIATIBI </s>
-0.3896828	ANIATIBI <unk>	-0.4921545
-2.452525	ANIATIBI INE
-2.422668	ANIATIBI INEDA
-0.5729545	ANIATIBI INI	-0.8762931
-1.333484	ANIATIBI INIA	-0.3080913
-2.408475	ANIATIBI OMINE
-0.8057938	ANIATIBI ORI	-0.3198763
-1.656682	ANIATIBI ORIA
-0.3924338	ANIATOBI <unk>
-0.5549061	ANINYO SIME
-0.4917262	ANIS </s>
-0.3924338	ANISE <unk>
-0.4917262	ANISI </s>
-0.333611	ANISIK </s>
-1.197106	ANISIKI </s>
-0.5801296	ANISIKI <unk>	-0.7524362
-1.062696	ANISIKI INI	-0.9670756
-1.56786	ANISIKI INIA	-0.3460627
-1.093747	ANISIKI ORI	-0.6691399
-1.099145	ANISIKI ORIA	-0.21404
-0.3924338	ANISIKO <unk>
-0.3924338	ANISKI <unk>
-0.5698565	ANISO <unk>
-0.8290454	ANISO INI
-0.5698565	ANISOKI <unk>
-0.8290454	ANISOKI INI
-0.3924338	ANKOROAPU <unk>
-0.3924338	ANYANABO <unk>
-0.3924338	ANYO <unk>
-1.602561	APU </s>
-0.1500593	APU <unk>	-0.9168137
-1.468476	APU MAMG	-0.2906892
-1.959986	APU MAMGB	-0.2906892
-1.145779	APU MAMGBA	-0.6127652
-0.3924338	APUAWO <unk>
-0.7479526	ARA <unk>	-0.4955002
-1.309338	ARA BOME
-1.239109	ARA INI	-0.1544892
-1.282022	ARA INIBO
-1.315649	ARA IYA
-1.315649	ARA NWOSE
-0.3924338	ARAKANA <unk>
-0.3924338	ARASIN <unk>	-0.2906892
-1.288969	ARI </s>
-0.5516133	ARI <unk>	-0.204078
-1.637006	ARI BARA
-1.732988	ARI BIA
-1.873509	ARI BIABE
-1.747988	ARI BIE
-1.369662	ARI INEDA	-0.3196341
-1.029016	ARI INI	-0.05096
-1.816318	ARI INIA
-1.862019	ARI OGBO
-1.786729	ARI OKI
-1.784352	ARI ORI
-1.870608	ARI ORU
-1.63532	ARI SIKI
-0.7530543	ARIA <unk>	-0.2906892
-0.755789	ARIA BIE
-1.259755	ARIA KUBIE
-1.258902	ARIA OGBOKU
-0.3924338	ARIATIBI <unk>
-0.5645705	ARIME NWOBE
-0.3924338	ARU <unk>
-0.5698565	ASE <unk>
-0.8546647	ASE OMINE
-0.5698565	ASIN <unk>
-0.8290454	ASIN INI
-0.5698565	ATIBI <unk>
-0.8290454	ATIBI INI
-0.3924338	AWU <unk>
-0.7813654	AYE <unk>
-0.7525215	AYE NWO	-0.2906892
-0.7642612	AYE NWOSE
-0.5597115	BABA OMINE
-0.3924338	BAFI <unk>
-0.4917262	BAK </s>
-1.29395	BAKA </s>
-0.3056324	BAKA <unk>	-0.6364031
-1.620802	BAKA BIA
-1.662601	BAKA BOME
-1.685113	BAKA KOROMA
-1.53003	BAKA OKUMA
-1.707232	BAKA TOMONI
-1.707232	BAKA TOMONIKIRI
-0.4917262	BAKAB </s>
-0.5698565	BAKABA <unk>
-0.8665059	BAKABA ANG
-0.3924338	BAKABABAMA <unk>
-0.7294405	BAKABABIA </s>
-0.5698565	BAKABABIA <unk>	-0.2047567
-0.5698565	BAKABAMA <unk>
-0.8624309	BAKABAMA ANGA
-0.3924338	BAKABAMAME <unk>
-0.5698565	BAKABAMAYE <unk>
-0.8398912	BAKABAMAYE NWO
-0.5698565	BAKABAME <unk>	-0.1580465
-0.8398912	BAKABAME ANI
-0.9460196	BAKABIA </s>
-0.4796845	BAKABIA <unk>	-0.2920285
-1.159954	BAKABIA ANGA
-1.147822	BAKAMA </s>
-0.8442778	BAKAMA <unk>	-0.3448617
-1.546756	BAKAMA BOMA
-1.516473	BAKAMA BOME	-0.2906892
-1.496465	BAKAMA OKIMUN
-1.470707	BAKAMA OKU	-0.4450313
-0.7194038	BAKAMA OKUMA	-0.1627369
-1.410572	BAKAMA SIKI
-0.5698565	BAKAME <unk>	-0.0628041
-0.8177899	BAKAME OKUMA	-0.2906892
-0.5698565	BAKASAM <unk>
-0.8398912	BAKASAM ANI
-0.4917262	BAKASIN </s>
-0.7530543	BAKI <unk>	-0.1043561
-0.7539204	BAKI BIA	-0.1345258
-1.257201	BAKI KOKOMAYE
-1.250464	BAKI KOROMA
-0.3924338	BAKIBAME <unk>
-0.3924338	BAKIBIA <unk>
-0.4917262	BAKU </s>
-0.4917262	BAKUB </s>
-0.3924338	BAKUBA <unk>	-0.1580465
-0.4917262	BAKUBAB </s>
-0.4917262	BAKUBABI </s>
-0.8559828	BAKUBABIA </s>
-0.3627172	BAKUBABIA <unk>	-0.3499961
-1.369079	BAKUBABIA BARA
-1.368289	BAKUBABIA SIKI
-0.6874375	BAKUBABO <unk>
-0.5461	BAKUBABO SONI
-0.6498386	BAKUBABOA <unk>
-1.012994	BAKUBABOA ANIATIBI
-0.982922	BAKUBABOA SIKI	-0.2906892
-0.4917262	BAKUBAM </s>
-0.5698565	BAKUBAMA <unk>
-0.8601978	BAKUBAMA APU
-0.5916103	BAKUBAME <unk>	-0.07832532
-1.285015	BAKUBAME OKU
-1.330675	BAKUBAME OKUM
-0.8088781	BAKUBAME OKUMA	-0.2414662
-0.4917262	BAKUM </s>
-0.5377723	BAKUMA <unk>	-0.3205554
-1.739608	BAKUMA BALABALAMA
-1.739608	BAKUMA BALAFA
-1.17366	BAKUMA BARA	-0.884364
-1.7119	BAKUMA BOBIA
-1.675891	BAKUMA BOME	-0.3200926
-1.649813	BAKUMA OKIMUN
-1.203664	BAKUMA OKU	-0.6211226
-1.7119	BAKUMA OKUM
-1.508996	BAKUMA OKUMA
-0.2762469	BAKUMABIA <unk>
-0.3924338	BAKUMAME <unk>
-0.3924338	BAKUME <unk>
-0.3924338	BALABALAMA <unk>
-0.3924338	BALAFA <unk>
-0.5625082	BALAFAMAYE SONI
-0.9790919	BAMA </s>
-0.7264763	BAMA <unk>	-0.2961243
-1.21008	BAMA BIA	-0.1345258
-1.253746	BAMA BIME
-1.235749	BAMA BOME
-0.5698565	BAMABIA <unk>
-0.8262898	BAMABIA BARA
-1.086657	BAME </s>
-0.6338078	BAME <unk>	-0.2796952
-1.37439	BAME ANI	-0.2906892
-1.453621	BAME ANIA
-1.461979	BAME NYA
-1.453621	BAME NYANABO
-1.428168	BAME SENI
-0.3924338	BAMUNA <unk>
-0.04785372	BAR </s>
-1.16815	BARA </s>
-0.3496818	BARA <unk>	-1.420133
-1.609915	BARA BIA	-0.4602592
-2.376182	BARA BIABE	-0.4069808
-2.858972	BARA BIABIA	-0.1118643
-2.257603	BARA BIE	-0.2906892
-2.874751	BARA BIMA
-2.055097	BARA BIME	-0.4837891
-2.819391	BARA CHUA	-0.2906892
-2.804516	BARA IBI
-2.055097	BARA INE	-0.4581581
-2.32239	BARA INEDA	-0.5214292
-2.87085	BARA INEDABI
-1.263336	BARA INI	-0.7791715
-2.850762	BARA INIB	-0.2906892
-2.874751	BARA INIBA
-1.533423	BARA INIBO	-0.665935
-2.776212	BARA MAMA
-2.827024	BARA MAMABA
-2.874751	BARA MAMABIA
-2.706728	BARA MAMGBA	-0.3478791
-2.776212	BARA MIESE
-2.858972	BARA MIMGBA
-2.790134	BARA MIN
-2.850762	BARA MINAPU
-1.03538	BARA NWO	-0.4525175
-2.87085	BARA NWOSA
-0.9774395	BARA NWOSE	-1.118245
-2.678479	BARA SENI	-0.5605305
-2.365044	BARA SIKI	-0.6211226
-2.337091	BARA SIKIMA	-0.2906892
-2.874751	BARA SIKIMABO
-2.842704	BARA SIKIME
-2.827024	BARA SIM
-2.87085	BARA SIMA
-2.858972	BARA SIMABIA
-2.543268	BARA SIME	-0.5865258
-2.762724	BARA SIMEBIA
-0.4008064	BARABIA <unk>
-0.9908056	BARABIA SIKI
-1.071301	BARACHUA </s>
-0.3992657	BARACHUA <unk>	-0.07506399
-1.29479	BARACHUA INIBO
-1.324201	BARACHUA OKWEIN	-0.2906892
-0.4917262	BARAK </s>
-0.9460196	BARAKA </s>
-0.4796845	BARAKA <unk>	-0.7897648
-1.097106	BARAKA SIKI
-0.2762469	BARAKABA <unk>	-0.2906892
-0.3924338	BARAKABIA <unk>
-0.3924338	BARAKABO <unk>	-0.1043561
-0.3924338	BARAKAN <unk>	-0.3016667
-0.5449129	BARAKANA SIKI
-0.5615739	BARAKANAYE MIE
-0.5521578	BARAKARAYE NWO
-0.3924338	BARAKUBA <unk>	-0.3200926
-1.201751	BARAKUBU </s>
-0.7609211	BARAKUBU <unk>	-0.4166256
-1.770602	BARAKUBU KOKOMAYE
-1.285485	BARAKUBU KORO	-0.1648606
-1.748778	BARAKUBU KOROMA	-0.3200926
-1.756834	BARAKUBU KOROMABIA
-1.770602	BARAKUBU KOROME
-1.78482	BARAKUBU KORU
-1.78772	BARAKUBU KULUMA
-1.793195	BARAKUBU KUR
-1.791854	BARAKUBU KURA
-1.291941	BARAKUBU KURO	-0.3870394
-1.773408	BARAKUBU KUROMA	-0.112548
-1.67776	BARAKUBU OKIMUN
-0.3924338	BARAKUBUBIA <unk>
-0.6498386	BARAKUMA <unk>	-0.3016667
-0.9834147	BARAKUMA BARA	-0.2906892
-0.982922	BARAKUMA SIKI
-0.3924338	BARAKUMAYE <unk>
-1.147822	BARAMA </s>
-0.5336945	BARAMA <unk>	-0.4904041
-1.478677	BARAMA INIBO
-1.459019	BARAMA NWO
-1.557874	BARAMA NYA
-1.551486	BARAMA NYANABIA
-1.548327	BARAMA NYANABO
-1.564145	BARAMA NYONABIA
-0.6498386	BARAMABIA <unk>
-1.012994	BARAMABIA ANIATIBI
-0.9834147	BARAMABIA BARA
-0.2762469	BARAME <unk>
-0.333611	BARAS </s>
-0.4008064	BARASA <unk>	-0.1580465
-1.013852	BARASA BIA
-0.4008064	BARASAM <unk>
-0.9947078	BARASAM INI
-0.5573021	BARASAN OKIMUN
-0.8502831	BARASI </s>
-0.6498386	BARASI <unk>	-0.3200926
-1.009316	BARASI BIA
-0.5465325	BARASIKI INI
-0.5406232	BARASIKIMA OKUMA
-1.305763	BARASIN </s>
-0.3386202	BARASIN <unk>	-0.8697318
-0.8268291	BARASIN INI	-0.7642583
-0.8321302	BARASIN INIBO	-0.4282358
-1.979124	BARASIN INIBP
-1.922951	BARASIN OKI
-0.2762469	BARASINBIA <unk>	-0.2047567
-0.5649466	BARASINBO GOSE
-0.563257	BARASINMA PIKI
-0.563257	BARASINME BOBIA
-1.290362	BARI </s>
-0.6879685	BARI <unk>	-0.7514545
-1.780433	BARI BIA	-0.6723832
-1.950955	BARI BIABE	-0.32266
-1.958345	BARI BIABIA
-1.798107	BARI BIE	-0.326164
-2.408389	BARI BIEBELE
-2.408389	BARI BIEBELEMA	-0.2906892
-2.445816	BARI BIEBELEMABIA
-2.445816	BARI BIEBELEME
-2.451068	BARI BIEBI
-2.429924	BARI BIEBIA	-0.1975852
-2.340457	BARI BIME	-0.4227602
-2.340457	BARI BOMA	-0.1676705
-2.190095	BARI BOME	-0.08316272
-2.340457	BARI INE	-0.4961839
-2.398009	BARI INED
-1.426317	BARI INEDA	-0.7577294
-2.445816	BARI INEDABI
-2.445816	BARI INEDABIA
-2.445816	BARI INEDE
-1.491155	BARI INI	-0.5557827
-2.230002	BARI INIA
-2.419023	BARI INIBI
-1.391615	BARI INIBO	-0.5807761
-2.230002	BARI IYA
-2.445816	BARI JIKE
-2.451068	BARI JIKEME	-0.2906892
-2.445816	BARI JIKI
-1.947306	BARI JIN	-0.5368295
-2.451068	BARI JINBIA	-0.148007
-2.445816	BARI JINBO	-0.2887091
-2.445816	BARI JINE	-0.2906892
-2.451068	BARI JINEMI
-2.451068	BARI JUKO
-2.451068	BARI JUKUMA	-0.2906892
-2.451068	BARI JUN
-2.322851	BARI MAMA
-2.398009	BARI NAME
-2.322851	BARI NEMIKASE
-2.297713	BARI NYANA	-0.3200926
-2.36828	BARI NYANABIA
-2.27395	BARI NYO	-0.2906892
-2.419023	BARI NYONGORO
-2.153549	BARI OKI	-0.3200926
-2.322851	BARI OKIME
-2.109162	BARI OKIMUN
-2.314309	BARI OKO
-2.018994	BARI OKU
-1.783383	BARI OKUMA
-2.183786	BARI OMINE
-2.258801	BARI OMINEA	-0.214437
-1.847704	BARI SIKI
-2.27395	BARI SIKIMA
-2.0455	BARI SIME
-2.305931	BARI SIMEBIA
-2.340457	BARI SIMEME
-0.3924338	BARIKA <unk>
-0.5645705	BARIKANIKA SIM
-0.4796845	BARIMA <unk>	-0.113712
-1.12801	BARIMA BIA
-1.156652	BARIMA NYANA
-0.7294405	BARIME </s>
-0.5698565	BARIME <unk>
-0.5698565	BARISI <unk>	-0.5280863
-0.8654264	BARISI PEKERE
-0.5640071	BARISIA ERECHI
-0.3924338	BARISIAPU <unk>	-0.2906892
-0.534954	BARISIN <unk>	-0.2920325
-1.18253	BARISIN INI	-0.1681643
-1.216713	BARISIN INIBO	-0.1127664
-1.232458	BARISIN ORI
-0.3924338	BARISINBIA <unk>
-0.5643827	BASO DUMO
-0.1973553	BEBE <unk>	-0.3083223
-1.747186	BEBE INI
-1.834113	BEBE IYA
-1.047274	BEBE OMINE	-0.2250202
-1.36366	BEBE OMINEA	-0.1622896
-0.3924338	BEBI <unk>
-1.063556	BEBIA </s>
-0.6081502	BEBIA <unk>	-0.1512454
-1.297104	BEBIA INI	-0.1692953
-1.390462	BEBIA IRI
-1.337072	BEBIA OKU
-1.266692	BEBIA OKUMA
-0.4796845	BEBO <unk>
-1.159292	BEBO PIRI
-1.097106	BEBO SIKI
-0.5626953	BEBOBA NYANA
-0.5698565	BEIN <unk>
-0.8262898	BEIN BARA
-0.4917262	BEL </s>
-1.034552	BELE </s>
-0.5761402	BELE <unk>	-0.1580465
-1.331653	BELE ANGA
-1.272467	BELE ANI
-1.342914	BELE IBIMAME
-0.4917262	BELEM </s>
-1.169261	BELEMA </s>
-0.5749861	BELEMA <unk>	-0.8472221
-1.462029	BELEMA BARA	-0.9221525
-1.623569	BELEMA BARI
-1.599319	BELEMA BORO	-0.3200926
-1.47274	BELEMA INI
-1.540054	BELEMA INIBO
-1.637211	BELEMA INYO
-1.612209	BELEMA NYANA
-1.606638	BELEMA NYO
-0.4917262	BELEMAB </s>
-0.4917262	BELEMABI </s>
-1.134491	BELEMABIA </s>
-0.8152581	BELEMABIA <unk>	-0.4161685
-1.605163	BELEMABIA ANATIBI
-1.480305	BELEMABIA ANI	-0.4121922
-1.604258	BELEMABIA ANIATIB
-1.509562	BELEMABIA ANIATIBI	-0.1804307
-1.046362	BELEMABIA BARA	-0.316424
-1.580338	BELEMABIA BOBIA	-0.3200926
-1.580338	BELEMABIA OKUM
-1.394142	BELEMABIA OKUMA	-0.4262978
-0.5698565	BELEMABO <unk>	-0.1580465
-0.8601978	BELEMABO SONI
-0.846675	BELEMABOA ANIATIBI
-0.8177899	BELEMABOA OKUMA	-0.2906892
-0.3924338	BELEMAME <unk>
-0.5626953	BELEME IRI
-0.5698565	BELIMA <unk>
-0.8594559	BELIMA NYO
-0.3924338	BELIMAME <unk>
-0.2094028	BEM </s>
-1.237387	BEME </s>
-0.7314562	BEME <unk>	-1.183929
-1.684994	BEME INI	-0.2338396
-1.221492	BEME IRI	-1.259089
-1.866686	BEME IRIA	-0.3641031
-2.364482	BEME IRIANYA
-1.360743	BEME IRU	-0.6815594
-1.874457	BEME IRUA
-2.216352	BEME IYA
-1.871222	BEME NDA	-0.3080913
-1.361447	BEME NDE	-1.021392
-1.553587	BEME NYA	-0.3646949
-1.868948	BEME NYAN	-0.7460613
-1.840424	BEME NYANA	-0.1816005
-2.344577	BEME NYANAB
-2.311934	BEME NYANABIA
-1.547054	BEME NYANABO	-1.531312
-2.364482	BEME NYANGBO
-2.24774	BEME NYO
-2.364482	BEME NYONABO
-2.344577	BEME NYONGORO
-2.125597	BEME OKIMUN
-1.854341	BEME OKUMA
-1.857755	BEME OMI	-0.1730347
-2.331224	BEME OMIN	-0.2906892
-1.213397	BEME OMINE	-0.9485804
-1.535326	BEME OMINEA	-0.3187413
-2.361258	BEME OMUN
-0.542044	BEMI <unk>	-0.04782312
-1.478645	BEMI BIA
-1.54024	BEMI IRI	-0.2906892
-1.058992	BEMI IYA
-1.552167	BEMI NYANABIA
-1.53585	BEMI NYO
-1.391105	BEMI OKUMA
-0.2094028	BER </s>
-0.8456063	BERE </s>
-0.2866804	BERE <unk>	-0.7455108
-1.61602	BERE INI
-1.702173	BERE SENI
-1.666807	BERE SIME
-1.717694	BERE SONI
-0.333611	BEREK </s>
-0.2762469	BEREKAN <unk>	-0.2906892
-0.6498386	BEREKIBIA <unk>	-0.1043561
-1.012994	BEREKIBIA ANIATIBI
-0.9834147	BEREKIBIA BARA
-0.3924338	BEREKIBO <unk>
-1.113824	BEREKIN </s>
-0.4523402	BEREKIN <unk>	-0.3544739
-0.8846415	BEREKIN INI	-0.1681643
-1.356	BEREKIN INIBO
-0.3924338	BEREKINBIA <unk>
-0.3924338	BEREKIRI <unk>
-0.4866439	BEREKO </s>
-0.6874375	BEREKO <unk>
-1.224578	BEREKON </s>
-0.4500584	BEREKON <unk>	-0.9635659
-0.974739	BEREKON INI	-0.4856801
-1.173102	BEREKON INIBO	-0.3364655
-2.009806	BEREKON INIBPIKI
-2.00117	BEREKON OBI
-2.009806	BEREKON OKPEKEMABO
-2.009806	BEREKON OKPOKPIAPU
-2.009806	BEREKON OKPOKUMA
-1.482303	BEREKON ORI	-0.2012322
-2.00117	BEREKON ORO
-1.989412	BEREKON OWUAPU
-1.992321	BEREKON OWUBO
-0.3924338	BEREKONBI <unk>
-0.6498386	BEREKONBIA <unk>	-0.4477948
-1.029671	BEREKONBIA BORO
-1.035746	BEREKONBIA ENE
-0.3992657	BEREKONBO <unk>	-0.1496339
-1.340565	BEREKONBO PIRIB
-1.342689	BEREKONBO PIRIBI
-1.337068	BEREKONBO PIRIBIA
-0.4917262	BEREKORO </s>
-0.3924338	BEREKOROBO <unk>
-0.333611	BEREN </s>
-1.318103	BERENI </s>
-0.4827257	BERENI <unk>	-1.085498
-1.869404	BERENI BARA	-0.2906892
-1.149506	BERENI BIA	-0.6321358
-2.294903	BERENI BOKA
-2.314354	BERENI BOKE
-2.314354	BERENI BUGBIRIPUMAYE
-2.250814	BERENI IKIANKOROAPU	-0.4450313
-2.275457	BERENI IKIANKOROBO	-0.5419413
-2.301583	BERENI IKIAPU
-2.301583	BERENI IKIBO
-2.311205	BERENI IKPAKA
-1.825258	BERENI IKPANGI	-0.2906892
-2.314354	BERENI IKPANIKANIKA
-2.294903	BERENI IKU	-0.1172048
-1.638395	BERENI INI
-2.314354	BERENI KARA
-2.288324	BERENI KARAMA	-0.06898923
-2.262961	BERENI KOKO	-0.148945
-2.269164	BERENI KOKOMA
-2.262961	BERENI KOKOMAYE	-0.5772859
-2.294903	BERENI KOKOME
-2.210793	BERENI KORO
-1.49074	BERENI KOROMA	-0.6726314
-2.233209	BERENI KOROMABIA	-0.1595939
-2.269164	BERENI KOROMABO
-2.262961	BERENI KOROME
-2.294903	BERENI KORU
-2.250814	BERENI KURO
-2.269164	BERENI KUROMA	-0.2906893
-1.78274	BERENI MUN	-0.2906892
-2.314354	BERENI SEK
-1.866923	BERENI SIKI	-0.1080793
-0.4917262	BERENIB </s>
-0.4917262	BERENIBI </s>
-1.205816	BERENIBIA </s>
-0.6213043	BERENIBIA <unk>	-1.005481
-1.688239	BERENIBIA BAR
-1.143697	BERENIBIA BARA	-0.8130931
-1.698952	BERENIBIA BORA
-1.661564	BERENIBIA BORO
-1.698952	BERENIBIA OKIMA
-1.173701	BERENIBIA OKU	-0.5244162
-1.681937	BERENIBIA OKUM	-0.133322
-1.479032	BERENIBIA OKUMA	-0.585039
-1.018296	BERENIBO </s>
-0.7479526	BERENIBO <unk>
-1.331839	BERENIBO GOYEGOYE	-0.2906411
-1.239109	BERENIBO INI
-1.329646	BERENIBO PIRI
-1.335151	BERENIBO PIRIBIA
-0.5521578	BERENIBOAPIRIME ANI
-0.4917262	BERENIM </s>
-0.2762469	BERENIMA <unk>	-0.3200926
-1.214435	BERENIME </s>
-0.3316656	BERENIME <unk>	-0.9993441
-1.560947	BERENIME NWE
-1.481377	BERENIME NWO	-0.2028909
-1.557221	BERENIME NWOBE
-1.419524	BERENIME OKUMA	-0.07887667
-0.2762469	BERENO <unk>	-0.3200926
-0.4917262	BERETO </s>
-0.6961308	BERETON <unk>
-1.154623	BERETON APU	-0.2906892
-1.139532	BERETON ORI	-0.2906892
-1.147372	BERETON ORIA
-1.290292	BERI </s>
-0.6256066	BERI <unk>	-0.5547239
-1.998527	BERI BEREKON
-1.464099	BERI BIA	-0.1850264
-2.020355	BERI BIABE
-1.990094	BERI BIME
-1.503115	BERI BOME	-0.2906892
-1.990094	BERI INE
-1.935246	BERI INEDA	-0.1542708
-1.712663	BERI INI
-1.828151	BERI INIBO	-0.1127664
-2.035915	BERI JIKI
-2.015901	BERI JIN	-0.1509268
-2.035915	BERI JINE	-0.3200926
-1.981822	BERI NEMIKASE
-1.969701	BERI NYANA	-0.3200926
-2.002806	BERI NYANABIA
-1.505845	BERI SENI	-0.2595005
-1.693262	BERI SIKI	-0.1080793
-1.519758	BERI SIKIMA	-0.3200926
-1.828151	BERI SIME
-1.973704	BERI SIMEBIA
-0.3924338	BERIKA <unk>
-0.6498386	BERIKIN <unk>
